{"learner":{"attributes":{"scikit_learn":"{\"n_estimators\": 100, \"objective\": \"reg:squarederror\", \"max_depth\": 5, \"learning_rate\": 0.1, \"verbosity\": null, \"booster\": null, \"tree_method\": null, \"gamma\": null, \"min_child_weight\": null, \"max_delta_step\": null, \"subsample\": null, \"colsample_bytree\": 0.3, \"colsample_bylevel\": null, \"colsample_bynode\": null, \"reg_alpha\": null, \"reg_lambda\": null, \"scale_pos_weight\": null, \"base_score\": null, \"missing\": NaN, \"num_parallel_tree\": null, \"kwargs\": {\"alpha\": 10}, \"random_state\": null, \"n_jobs\": null, \"monotone_constraints\": null, \"interaction_constraints\": null, \"importance_type\": \"gain\", \"gpu_id\": null, \"validate_parameters\": null, \"_estimator_type\": \"regressor\"}"},"feature_names":["Amount spent (MYR)","Day","Month","Year","gdr_female","gdr_male","age_13-17","age_25-34","age_35-44","age_45-54","age_55-64","age_65+","dis_0","dis_20","dis_50","dis_70"],"feature_types":["float","int","int","int","int","int","int","int","int","int","int","int","int","int","int","int"],"gradient_booster":{"model":{"gbtree_model_param":{"num_trees":"100","size_leaf_vector":"0"},"tree_info":[0,0,0,0,0,0,0,0,0,0,0,0,0,0,0,0,0,0,0,0,0,0,0,0,0,0,0,0,0,0,0,0,0,0,0,0,0,0,0,0,0,0,0,0,0,0,0,0,0,0,0,0,0,0,0,0,0,0,0,0,0,0,0,0,0,0,0,0,0,0,0,0,0,0,0,0,0,0,0,0,0,0,0,0,0,0,0,0,0,0,0,0,0,0,0,0,0,0,0,0],"trees":[{"base_weights":[8.42719E3,8.530897E3,7.790404E3],"categories":[],"categories_nodes":[],"categories_segments":[],"categories_sizes":[],"default_left":[true,false,false],"id":0,"left_children":[1,-1,-1],"loss_changes":[9.722266E7,0E0,0E0],"parents":[2147483647,0,0],"right_children":[2,-1,-1],"split_conditions":[2.0205E3,8.530898E2,7.790404E2],"split_indices":[3,0,0],"split_type":[0,0,0],"sum_hessian":[2.48E3,2.122E3,3.58E2],"tree_param":{"num_deleted":"0","num_feature":"16","num_nodes":"3","size_leaf_vector":"0"}},{"base_weights":[7.58513E3,7.4468564E3,8.0637676E3,7.320521E3,8.099233E3,8.849083E3,7.8132856E3,-9.537673E1,7.329674E3,4.438938E3,8.133094E3,8.398717E3,1.0461186E4,5.8410747E3,8.189934E3,-3.242702E2,1.7620511E2,7.5030967E3,6.8382466E3,8.811412E3,5.4169863E3,5.903875E3,1.1398557E4,4.430697E3,6.9490166E3,7.418159E3,9.714678E3,3.351148E3,6.895439E3,3.830574E3,7.1565083E3,2.3173884E3,5.3402183E3,1.3012734E3,7.2263555E3],"categories":[],"categories_nodes":[],"categories_segments":[],"categories_sizes":[],"default_left":[true,true,true,true,true,true,true,true,true,false,false,true,true,true,false,false,false,true,true,false,true,false,false,true,true,false,false,false,false,false,false,false,false,false,false],"id":1,"left_children":[1,3,5,7,9,11,13,15,17,-1,-1,19,21,23,-1,-1,-1,25,27,-1,29,-1,-1,31,33,-1,-1,-1,-1,-1,-1,-1,-1,-1,-1],"loss_changes":[1.0398925E8,1.0027827E8,3.770368E7,1.1167334E8,1.574912E6,1.979392E6,2.6475315E8,2.4510866E5,8.763802E7,0E0,0E0,7.764224E7,3.0784768E7,8.004301E7,0E0,0E0,0E0,1.5242445E8,6.3942656E7,0E0,1.3870624E7,0E0,0E0,5.2899456E7,5.0032256E7,0E0,0E0,0E0,0E0,0E0,0E0,0E0,0E0,0E0,0E0],"parents":[2147483647,0,0,1,1,2,2,3,3,4,4,5,5,6,6,7,7,8,8,11,11,12,12,13,13,17,17,18,18,20,20,23,23,24,24],"right_children":[2,4,6,8,10,12,14,16,18,-1,-1,20,22,24,-1,-1,-1,26,28,-1,30,-1,-1,32,34,-1,-1,-1,-1,-1,-1,-1,-1,-1,-1],"split_conditions":[8.15E1,5E-1,8.683E1,3.315E0,3.67E0,8.5945E1,8.9585E1,3.29E0,5.9465E1,4.438938E2,8.1330945E2,8.5369995E1,1.5E0,5E-1,8.189934E2,-3.242702E1,1.7620512E1,5.8135002E1,5.9795E1,8.8114124E2,8.564E1,5.903875E2,1.1398557E3,4.5E0,8.691E1,7.418159E2,9.714678E2,3.351148E2,6.895439E2,3.830574E2,7.156508E2,2.3173885E2,5.3402185E2,1.3012735E2,7.2263556E2],"split_indices":[0,10,0,0,0,0,0,0,0,0,0,0,2,5,0,0,0,0,0,0,0,0,0,2,0,0,0,0,0,0,0,0,0,0,0],"split_type":[0,0,0,0,0,0,0,0,0,0,0,0,0,0,0,0,0,0,0,0,0,0,0,0,0,0,0,0,0,0,0,0,0,0,0],"sum_hessian":[2.48E3,1.937E3,5.43E2,1.633E3,3.04E2,1.23E2,4.2E2,2E0,1.631E3,4E0,3E2,1.01E2,2.2E1,7E1,3.5E2,1E0,1E0,1.195E3,4.36E2,8.7E1,1.4E1,5E0,1.7E1,3.3E1,3.7E1,1.155E3,4E1,8E0,4.28E2,9E0,5E0,1.1E1,2.2E1,2E0,3.5E1],"tree_param":{"num_deleted":"0","num_feature":"16","num_nodes":"35","size_leaf_vector":"0"}},{"base_weights":[6.830705E3,6.9314976E3,6.3590957E3],"categories":[],"categories_nodes":[],"categories_segments":[],"categories_sizes":[],"default_left":[true,false,false],"id":2,"left_children":[1,-1,-1],"loss_changes":[7.371981E7,0E0,0E0],"parents":[2147483647,0,0],"right_children":[2,-1,-1],"split_conditions":[5E-1,6.931498E2,6.359096E2],"split_indices":[7,0,0],"split_type":[0,0,0],"sum_hessian":[2.48E3,2.032E3,4.48E2],"tree_param":{"num_deleted":"0","num_feature":"16","num_nodes":"3","size_leaf_vector":"0"}},{"base_weights":[6.148171E3,6.083315E3,6.4854287E3,6.6692456E3,5.827411E3],"categories":[],"categories_nodes":[],"categories_segments":[],"categories_sizes":[],"default_left":[true,false,true,false,false],"id":3,"left_children":[1,-1,3,-1,-1],"loss_changes":[1.4696448E7,0E0,7.5776E6,0E0,0E0],"parents":[2147483647,0,0,2,2],"right_children":[2,-1,4,-1,-1],"split_conditions":[5E-1,6.083315E2,5E-1,6.6692456E2,5.8274115E2],"split_indices":[9,0,14,0,0],"split_type":[0,0,0,0,0],"sum_hessian":[2.48E3,2.096E3,3.84E2,2.93E2,9.1E1],"tree_param":{"num_deleted":"0","num_feature":"16","num_nodes":"5","size_leaf_vector":"0"}},{"base_weights":[5.534103E3,5.459698E3,5.9131895E3,5.5407627E3,5.2098296E3,5.6404497E3,5.3369434E3,5.0514263E3,5.837183E3],"categories":[],"categories_nodes":[],"categories_segments":[],"categories_sizes":[],"default_left":[true,true,false,true,true,false,false,false,false],"id":4,"left_children":[1,3,-1,5,7,-1,-1,-1,-1],"loss_changes":[3.7584896E7,1.3295616E7,0E0,1.486848E6,2.2874112E7,0E0,0E0,0E0,0E0],"parents":[2147483647,0,0,1,1,3,3,4,4],"right_children":[2,4,-1,6,8,-1,-1,-1,-1],"split_conditions":[5E-1,5E-1,5.91319E2,5E-1,5E-1,5.64045E2,5.3369434E2,5.0514264E2,5.837183E2],"split_indices":[10,15,0,14,6,0,0,0,0],"split_type":[0,0,0,0,0,0,0,0,0],"sum_hessian":[2.48E3,2.086E3,3.94E2,1.559E3,5.27E2,1.029E3,5.3E2,4.28E2,9.9E1],"tree_param":{"num_deleted":"0","num_feature":"16","num_nodes":"9","size_leaf_vector":"0"}},{"base_weights":[4.9818145E3,4.8553496E3,5.423168E3,5.4505244E3,4.7481553E3,6.1671772E3,5.1911245E3,3.075606E2,5.5033613E3,4.6417153E3,5.3256113E3,5.7504897E3,7.7465215E3,3.457828E3,5.5269165E3,-1.3144913E3,2.5918582E3,4.929969E3,6.212632E3,2.7019783E3,4.674987E3,4.2354746E3,5.625572E3,6.114164E3,3.2329033E3,4.468168E3,2.2266294E3,5.483002E3,8.790004E3,4.546782E3,6.249803E3,9.5535815E2,6.2475254E3,3.37401E3,3.944623E2,4.7036587E3,2.3791182E3,4.4906772E3,-1.9367994E3,8.764417E3,5.4954194E3,5.154177E3,6.8065664E3,4.5892026E3,-3.955358E2,4.784302E3,5.8245557E2,2.8563271E3,1.5898741E2,5.507113E3,3.1851414E3],"categories":[],"categories_nodes":[],"categories_segments":[],"categories_sizes":[],"default_left":[true,true,true,true,true,true,true,true,true,true,true,true,false,true,true,false,false,true,true,true,true,true,true,true,true,true,true,true,false,false,false,false,false,false,false,false,false,false,false,false,false,false,false,false,false,false,false,false,false,false,false],"id":5,"left_children":[1,3,5,7,9,11,13,15,17,19,21,23,-1,25,27,-1,-1,29,31,33,35,37,39,41,43,45,47,49,-1,-1,-1,-1,-1,-1,-1,-1,-1,-1,-1,-1,-1,-1,-1,-1,-1,-1,-1,-1,-1,-1,-1],"loss_changes":[1.1204608E8,9.766093E7,6.179021E7,7.678208E7,7.65993E7,3.692237E7,2.2583194E8,1.8240746E7,8.557363E7,7.771341E7,5.7823744E7,7.352934E7,0E0,7.83031E7,1.958912E6,0E0,0E0,5.391155E7,1.670656E7,3.895021E7,7.931699E7,1.0008358E8,3.0539264E7,2.3291136E7,7.567586E7,4.383904E7,4.3783376E7,1.708032E6,0E0,0E0,0E0,0E0,0E0,0E0,0E0,0E0,0E0,0E0,0E0,0E0,0E0,0E0,0E0,0E0,0E0,0E0,0E0,0E0,0E0,0E0,0E0],"parents":[2147483647,0,0,1,1,2,2,3,3,4,4,5,5,6,6,7,7,8,8,9,9,10,10,11,11,13,13,14,14,17,17,18,18,19,19,20,20,21,21,22,22,23,23,24,24,25,25,26,26,27,27],"right_children":[2,4,6,8,10,12,14,16,18,20,22,24,-1,26,28,-1,-1,30,32,34,36,38,40,42,44,46,48,50,-1,-1,-1,-1,-1,-1,-1,-1,-1,-1,-1,-1,-1,-1,-1,-1,-1,-1,-1,-1,-1,-1,-1],"split_conditions":[8.15E1,1.3875E1,8.683E1,3.315E0,5E-1,8.5945E1,8.9585E1,5E-1,5E-1,1.523E1,2.796E1,8.5369995E1,7.7465216E2,5E-1,1.03395004E2,-1.3144914E2,2.5918582E2,1.068E1,3.49E0,1.496E1,8.0585E1,2.718E1,2.9235E1,5E-1,5E-1,8.945E1,5E-1,1.0318E2,8.790004E2,4.5467822E2,6.2498035E2,9.553582E1,6.2475256E2,3.37401E2,3.944623E1,4.7036588E2,2.3791182E2,4.4906772E2,-1.9367995E2,8.764417E2,5.4954193E2,5.1541766E2,6.806567E2,4.5892026E2,-3.955358E1,4.7843018E2,5.8245556E1,2.8563272E2,1.5898742E1,5.507113E2,3.1851413E2],"split_indices":[0,0,0,0,10,0,0,10,4,0,0,0,0,4,0,0,0,0,0,0,0,0,0,4,14,0,10,0,0,0,0,0,0,0,0,0,0,0,0,0,0,0,0,0,0,0,0,0,0,0,0],"split_type":[0,0,0,0,0,0,0,0,0,0,0,0,0,0,0,0,0,0,0,0,0,0,0,0,0,0,0,0,0,0,0,0,0,0,0,0,0,0,0,0,0,0,0,0,0,0,0,0,0,0,0],"sum_hessian":[2.48E3,1.937E3,5.43E2,2.88E2,1.649E3,1.23E2,4.2E2,3E0,2.85E2,1.4E3,2.49E2,1.01E2,2.2E1,7E1,3.5E2,2E0,1E0,1.62E2,1.23E2,2.5E1,1.375E3,5.7E1,1.92E2,8.7E1,1.4E1,3.7E1,3.3E1,3.48E2,2E0,1.29E2,3.3E1,1E0,1.22E2,1.9E1,6E0,1.357E3,1.8E1,5.5E1,2E0,5E0,1.87E2,4E1,4.7E1,1E1,4E0,3.4E1,3E0,2.5E1,8E0,3.43E2,5E0],"tree_param":{"num_deleted":"0","num_feature":"16","num_nodes":"51","size_leaf_vector":"0"}},{"base_weights":[4.4875386E3,4.5781626E3,3.9390913E3,4.654504E3,4.198938E3,3.3653467E3,4.8660796E3,5.1164185E3,4.5871616E3,3.8959995E3,4.9987783E3,4.8002515E3,2.8498716E3,4.5662183E3,5.8043247E3,4.235609E3,5.918595E3,4.1343555E3,4.7159355E3,4.171301E3,2.7938855E3,4.7403457E3,7.6428604E3,-4.410669E2,4.9954966E3,-1.2795735E3,2.932768E3,4.620508E3,-5.892224E2,6.883105E3,3.7016272E3,4.3982393E3,6.882485E1,4.2618613E3,-1.816772E2,5.7703633E3,4.6037075E3,3.598102E3,4.721276E3,-1.7857175E3,2.9077305E3,5.3460024E3,1.7888986E3,-1.145644E3,4.790437E2,6.0617095E3,4.182291E3,4.330304E2,-1.9981182E3,3.1212227E3,1.1079153E3,2.848747E2,5.373144E3],"categories":[],"categories_nodes":[],"categories_segments":[],"categories_sizes":[],"default_left":[true,true,true,true,true,true,true,true,true,true,true,true,true,true,true,true,false,true,true,true,true,true,false,true,true,true,true,false,false,false,true,false,false,false,false,false,false,false,false,false,false,false,false,false,false,false,false,false,false,false,false,false,false],"id":6,"left_children":[1,3,5,7,9,11,13,15,17,19,21,23,25,27,29,31,-1,33,35,37,39,41,-1,43,45,47,49,-1,-1,-1,51,-1,-1,-1,-1,-1,-1,-1,-1,-1,-1,-1,-1,-1,-1,-1,-1,-1,-1,-1,-1,-1,-1],"loss_changes":[1.0519347E8,4.183245E7,1.7447731E8,3.1117312E7,6.911898E7,1.5266637E8,1.1373824E7,1.2674099E8,7.044506E7,7.019802E7,2.9927936E7,6.160256E7,6.1278336E7,3.27104E7,4.019757E7,7.148301E7,0E0,1.9342694E8,1.1474125E8,5.039181E7,3.492141E7,1.5303347E8,0E0,2.5003462E6,2.3100544E7,5.8032275E6,5.324339E7,0E0,0E0,0E0,6.694667E7,0E0,0E0,0E0,0E0,0E0,0E0,0E0,0E0,0E0,0E0,0E0,0E0,0E0,0E0,0E0,0E0,0E0,0E0,0E0,0E0,0E0,0E0],"parents":[2147483647,0,0,1,1,2,2,3,3,4,4,5,5,6,6,7,7,8,8,9,9,10,10,11,11,12,12,13,13,14,14,15,15,17,17,18,18,19,19,20,20,21,21,23,23,24,24,25,25,26,26,30,30],"right_children":[2,4,6,8,10,12,14,16,18,20,22,24,26,28,30,32,-1,34,36,38,40,42,-1,44,46,48,50,-1,-1,-1,52,-1,-1,-1,-1,-1,-1,-1,-1,-1,-1,-1,-1,-1,-1,-1,-1,-1,-1,-1,-1,-1,-1],"split_conditions":[2.0205E3,5E-1,6.155E1,1.3875E1,8.119E1,1.7745E1,9.5895004E1,7.8100004E0,3.4135002E1,6.3644997E1,1.02119995E2,3.545E0,1.8265E1,9.5759995E1,1.0089E2,7.67E0,5.9185956E2,3.3445E1,4.0864998E1,5E-1,6.453E1,9.74E1,7.642861E2,3.385E0,5E-1,1.7965E1,5.845E1,4.6205078E2,-5.892224E1,6.883105E2,1.017E2,4.3982394E2,6.8824854E0,4.2618613E2,-1.816772E1,5.770363E2,4.6037076E2,3.598102E2,4.721276E2,-1.7857176E2,2.9077304E2,5.346003E2,1.7888986E2,-1.1456441E2,4.790437E1,6.0617096E2,4.182291E2,4.330304E1,-1.9981181E2,3.1212228E2,1.1079153E2,2.848747E1,5.373144E2],"split_indices":[3,7,0,0,0,0,0,0,0,0,0,0,0,0,0,0,0,0,0,5,0,0,0,0,5,0,0,0,0,0,0,0,0,0,0,0,0,0,0,0,0,0,0,0,0,0,0,0,0,0,0,0,0],"split_type":[0,0,0,0,0,0,0,0,0,0,0,0,0,0,0,0,0,0,0,0,0,0,0,0,0,0,0,0,0,0,0,0,0,0,0,0,0,0,0,0,0,0,0,0,0,0,0,0,0,0,0,0,0],"sum_hessian":[2.48E3,2.122E3,3.58E2,1.757E3,3.65E2,2.24E2,1.34E2,2.14E2,1.543E3,2.69E2,9.6E1,5.7E1,1.67E2,1.06E2,2.8E1,1.05E2,1.09E2,3.49E2,1.194E3,2.13E2,5.6E1,9E1,6E0,2E0,5.5E1,3E0,1.64E2,1.05E2,1E0,1.7E1,1.1E1,1.01E2,4E0,3.39E2,1E1,1.1E2,1.084E3,1.08E2,1.05E2,1E0,5.5E1,7.4E1,1.6E1,1E0,1E0,2.1E1,3.4E1,1E0,2E0,1.48E2,1.6E1,4E0,7E0],"tree_param":{"num_deleted":"0","num_feature":"16","num_nodes":"53","size_leaf_vector":"0"}},{"base_weights":[4.0419297E3,4.148225E3,3.5476038E3,4.0632244E3,4.3913574E3,3.6985676E3,3.0699087E3,3.836738E3,3.3738152E3],"categories":[],"categories_nodes":[],"categories_segments":[],"categories_sizes":[],"default_left":[true,true,true,false,false,true,false,false,false],"id":7,"left_children":[1,3,5,-1,-1,7,-1,-1,-1],"loss_changes":[1.1557274E8,2.414592E7,2.074112E7,0E0,0E0,1.970688E6,0E0,0E0,0E0],"parents":[2147483647,0,0,1,1,2,2,5,5],"right_children":[2,4,6,-1,-1,8,-1,-1,-1],"split_conditions":[5E-1,5E-1,5E-1,4.0632245E2,4.3913574E2,5E-1,3.0699088E2,3.836738E2,3.3738153E2],"split_indices":[8,13,13,0,0,15,0,0,0],"split_type":[0,0,0,0,0,0,0,0,0],"sum_hessian":[2.48E3,2.035E3,4.45E2,1.521E3,5.14E2,3.33E2,1.12E2,2.26E2,1.07E2],"tree_param":{"num_deleted":"0","num_feature":"16","num_nodes":"9","size_leaf_vector":"0"}},{"base_weights":[3.6384937E3,3.7170896E3,3.2744978E3,3.8520264E3,3.5883406E3,3.0750366E3,3.449379E3,3.685679E3,4.3025723E3,3.6700742E3,3.3174895E3,2.833058E3,3.9993428E3,3.5921294E3,2.9504192E3],"categories":[],"categories_nodes":[],"categories_segments":[],"categories_sizes":[],"default_left":[true,true,true,true,true,true,true,false,false,false,false,false,false,false,false],"id":8,"left_children":[1,3,5,7,9,11,13,-1,-1,-1,-1,-1,-1,-1,-1],"loss_changes":[5.873664E7,2.142208E7,4.98944E6,5.743616E7,1.11104E7,3.758336E7,5.789696E6,0E0,0E0,0E0,0E0,0E0,0E0,0E0,0E0],"parents":[2147483647,0,0,1,1,2,2,3,3,4,4,5,5,6,6],"right_children":[2,4,6,8,10,12,14,-1,-1,-1,-1,-1,-1,-1,-1],"split_conditions":[5E-1,5E-1,5E-1,5E-1,5E-1,5E-1,5E-1,3.685679E2,4.3025723E2,3.6700742E2,3.3174896E2,2.8330582E2,3.999343E2,3.5921295E2,2.9504193E2],"split_indices":[7,5,5,12,12,12,12,0,0,0,0,0,0,0,0],"split_type":[0,0,0,0,0,0,0,0,0,0,0,0,0,0,0],"sum_hessian":[2.48E3,2.032E3,4.48E2,9.78E2,1.054E3,2.18E2,2.3E2,7.21E2,2.57E2,8E2,2.54E2,1.76E2,4.2E1,1.74E2,5.6E1],"tree_param":{"num_deleted":"0","num_feature":"16","num_nodes":"15","size_leaf_vector":"0"}},{"base_weights":[3.2757898E3,3.373002E3,2.8246465E3,3.2954114E3,3.59574E3,2.9594453E3,2.4011296E3,3.489661E3,3.110032E3,2.8087114E3,3.2014912E3,2.0147019E3,2.7204922E3,3.2183352E3,4.0358193E3,3.2316973E3,2.836821E3],"categories":[],"categories_nodes":[],"categories_segments":[],"categories_sizes":[],"default_left":[true,true,true,true,false,true,true,true,true,false,false,false,false,false,false,false,false],"id":9,"left_children":[1,3,5,7,-1,9,11,13,15,-1,-1,-1,-1,-1,-1,-1,-1],"loss_changes":[9.921741E7,2.3269376E7,1.8302208E7,4.3887616E7,0E0,3.133696E6,8.417088E6,9.585562E7,1.696512E7,0E0,0E0,0E0,0E0,0E0,0E0,0E0,0E0],"parents":[2147483647,0,0,1,1,2,2,3,3,5,5,6,6,7,7,8,8],"right_children":[2,4,6,8,-1,10,12,14,16,-1,-1,-1,-1,-1,-1,-1,-1],"split_conditions":[5E-1,5E-1,5E-1,5E-1,3.59574E2,5E-1,5E-1,5E-1,5E-1,2.8087115E2,3.2014914E2,2.014702E2,2.7204922E2,3.2183353E2,4.0358194E2,3.2316974E2,2.836821E2],"split_indices":[8,13,13,5,0,12,5,12,12,0,0,0,0,0,0,0,0],"split_type":[0,0,0,0,0,0,0,0,0,0,0,0,0,0,0,0,0],"sum_hessian":[2.48E3,2.035E3,4.45E2,1.521E3,5.14E2,3.33E2,1.12E2,7.34E2,7.87E2,2.13E2,1.2E2,5.4E1,5.8E1,4.95E2,2.39E2,5.37E2,2.5E2],"tree_param":{"num_deleted":"0","num_feature":"16","num_nodes":"17","size_leaf_vector":"0"}},{"base_weights":[2.949329E3,2.8267908E3,3.311004E3,2.8478066E3,-3.7735825E2,2.8750366E3,3.7056455E3,3.291556E3,2.7359888E3,-9.9840533E2,3.5326033E3,2.6598337E3,4.0351895E3,3.8531797E3,2.7332515E3,3.1895535E3,6.6130874E3,2.183754E3,2.8516904E3,1.784972E2,-2.6837683E3,2.9620386E3,1.0026128E3,4.6055E3,1.5775521E3,3.5754849E3,5.512686E3,1.6446132E3,5.6798423E3,3.7345005E3,2.7739424E3,7.651066E3,1.6374481E3,1.6836526E3,2.698084E3,2.7195757E3,3.6112312E3,-2.2170757E3,8.3887555E2,-3.5073691E3,3.0031738E2,2.7005522E3,6.285252E3,-1.4216556E3,1.9392332E3,4.8144053E3,1.7281581E3,-5.426879E2,4.896084E3,3.7533413E3,1.1629657E3,6.5691016E3,3.9733855E3,1.980302E3,-3.0626636E2,3.1210085E3,6.567883E3],"categories":[],"categories_nodes":[],"categories_segments":[],"categories_sizes":[],"default_left":[true,true,true,true,true,true,true,true,true,true,false,true,true,true,true,true,true,true,true,true,true,true,true,true,true,true,true,true,true,false,false,false,false,false,false,false,false,false,false,false,false,false,false,false,false,false,false,false,false,false,false,false,false,false,false,false,false],"id":10,"left_children":[1,3,5,7,9,11,13,15,17,19,-1,21,23,25,27,29,31,33,35,37,39,41,43,45,47,49,51,53,55,-1,-1,-1,-1,-1,-1,-1,-1,-1,-1,-1,-1,-1,-1,-1,-1,-1,-1,-1,-1,-1,-1,-1,-1,-1,-1,-1,-1],"loss_changes":[1.0053427E8,1.2634726E8,9.629594E7,8.263066E7,3.5069136E7,6.410035E7,3.574016E7,1.0315008E8,8.841318E7,2.430619E7,0E0,1.2520051E8,5.5745536E7,1.0831104E8,1.381431E8,7.065754E7,3.902499E7,6.254733E7,1.1273933E8,1.4501944E7,1.3373868E7,1.7063514E8,9.585749E7,1.325376E7,7.306142E7,9.899469E7,3.558643E7,2.3544336E7,6.672896E6,0E0,0E0,0E0,0E0,0E0,0E0,0E0,0E0,0E0,0E0,0E0,0E0,0E0,0E0,0E0,0E0,0E0,0E0,0E0,0E0,0E0,0E0,0E0,0E0,0E0,0E0,0E0,0E0],"parents":[2147483647,0,0,1,1,2,2,3,3,4,4,5,5,6,6,7,7,8,8,9,9,11,11,12,12,13,13,14,14,15,15,16,16,17,17,18,18,19,19,20,20,21,21,22,22,23,23,24,24,25,25,26,26,27,27,28,28],"right_children":[2,4,6,8,10,12,14,16,18,20,-1,22,24,26,28,30,32,34,36,38,40,42,44,46,48,50,52,54,56,-1,-1,-1,-1,-1,-1,-1,-1,-1,-1,-1,-1,-1,-1,-1,-1,-1,-1,-1,-1,-1,-1,-1,-1,-1,-1,-1,-1],"split_conditions":[7.8535E1,7.7795E1,5.5E0,1.722E1,1.15E1,9.978E1,9.9175E1,1.6755001E1,1.5E0,8.5E0,3.5326035E2,9.691E1,1.02535E2,9.6880005E1,1.02215E2,4.5E0,7E0,4.5004997E1,5E-1,2E0,7.847E1,9.5895004E1,9.7490005E1,5E-1,1.03345E2,9.5765E1,9.778999E1,5E-1,7.5E0,3.7345004E2,2.7739426E2,7.651066E2,1.6374481E2,1.6836526E2,2.698084E2,2.7195758E2,3.6112314E2,-2.2170757E2,8.388756E1,-3.507369E2,3.0031738E1,2.7005524E2,6.285252E2,-1.4216557E2,1.9392332E2,4.8144052E2,1.7281581E2,-5.4268795E1,4.896084E2,3.7533414E2,1.1629657E2,6.5691016E2,3.9733856E2,1.980302E2,-3.0626637E1,3.1210086E2,6.5678827E2],"split_indices":[0,0,2,0,2,0,0,0,2,2,0,0,0,0,0,2,2,0,9,2,0,0,0,9,0,0,0,9,2,0,0,0,0,0,0,0,0,0,0,0,0,0,0,0,0,0,0,0,0,0,0,0,0,0,0,0,0],"split_type":[0,0,0,0,0,0,0,0,0,0,0,0,0,0,0,0,0,0,0,0,0,0,0,0,0,0,0,0,0,0,0,0,0,0,0,0,0,0,0,0,0,0,0,0,0,0,0,0,0,0,0,0,0,0,0,0,0],"sum_hessian":[2.48E3,1.859E3,6.21E2,1.847E3,1.2E1,2.99E2,3.22E2,3.66E2,1.481E3,1.1E1,1E0,2.55E2,4.4E1,2.77E2,4.5E1,3.57E2,9E0,2.6E2,1.221E3,7E0,4E0,2.15E2,4E1,3.5E1,9E0,2.4E2,3.7E1,3.4E1,1.1E1,1.51E2,2.06E2,7E0,2E0,1.34E2,1.26E2,1.044E3,1.77E2,1E0,6E0,3E0,1E0,2.01E2,1.4E1,1.1E1,2.9E1,3.2E1,3E0,6E0,3E0,2.23E2,1.7E1,2E1,1.7E1,2.9E1,5E0,4E0,7E0],"tree_param":{"num_deleted":"0","num_feature":"16","num_nodes":"57","size_leaf_vector":"0"}},{"base_weights":[2.6573328E3,2.4633884E3,2.9392358E3,2.493961E3,1.7830803E3,3.1322253E3,2.8750027E3,2.0495881E3,2.5507969E3,1.0527155E3,2.503374E3,2.938652E3,3.7297231E3,1.9253054E3,2.9843179E3,1.7420046E3,4.320914E3,2.76652E3,2.4687488E3,1.406593E3,-5.623081E2,3.0170615E3,1.2008116E3,3.4384285E3,5.234541E3,1.9984222E3,9.9792236E2,3.0823945E3,2.6659868E3,2.2056821E3,1.377726E3,2.5507664E3,3.4803215E3,1.6838531E3,2.6385735E3,1.5345554E3,8.776222E2,2.2333366E2,-9.2323157E2,3.074133E3,8.757456E2,-1.9386887E2,4.987916E3,4.0118696E3,1.8705035E3,1.7436675E3,6.280157E3,-5.1267284E1,2.0624287E3,3.3856177E3,2.9122688E3,2.7617642E3,8.65951E2],"categories":[],"categories_nodes":[],"categories_segments":[],"categories_sizes":[],"default_left":[true,true,true,true,true,true,true,true,true,true,true,false,true,true,true,true,false,true,true,true,true,true,true,true,true,false,true,true,true,false,false,false,false,false,false,false,false,false,false,false,false,false,false,false,false,false,false,false,false,false,false,false,false],"id":11,"left_children":[1,3,5,7,9,11,13,15,17,19,21,-1,23,25,27,29,-1,31,33,35,37,39,41,43,45,-1,47,49,51,-1,-1,-1,-1,-1,-1,-1,-1,-1,-1,-1,-1,-1,-1,-1,-1,-1,-1,-1,-1,-1,-1,-1,-1],"loss_changes":[1.2835021E8,2.620928E7,3.405824E6,3.0338048E7,3.2576288E7,1.6731392E7,7.383194E7,1.0768506E8,1.5171584E7,2.08026E7,1.841552E7,0E0,6.02368E6,3.535936E6,1.3142016E7,2.1754752E7,0E0,4.2653696E7,1.1707904E8,5.9208E5,2.1980838E6,7.912E4,5.9114748E7,3.6493504E7,1.4520064E7,0E0,9.0608E6,1.6799232E7,2.6708224E7,0E0,0E0,0E0,0E0,0E0,0E0,0E0,0E0,0E0,0E0,0E0,0E0,0E0,0E0,0E0,0E0,0E0,0E0,0E0,0E0,0E0,0E0,0E0,0E0],"parents":[2147483647,0,0,1,1,2,2,3,3,4,4,5,5,6,6,7,7,8,8,9,9,10,10,12,12,13,13,14,14,15,15,17,17,18,18,19,19,20,20,21,21,22,22,23,23,24,24,26,26,27,27,28,28],"right_children":[2,4,6,8,10,12,14,16,18,20,22,-1,24,26,28,30,-1,32,34,36,38,40,42,44,46,-1,48,50,52,-1,-1,-1,-1,-1,-1,-1,-1,-1,-1,-1,-1,-1,-1,-1,-1,-1,-1,-1,-1,-1,-1,-1,-1],"split_conditions":[1.85E1,1.75E1,2.15E1,2.5E0,5E-1,5E-1,2.25E1,5E-1,6.5E0,5E-1,5E-1,2.938652E2,5E-1,5E-1,5E-1,1.5E0,4.320914E2,5.5E0,8.5E0,5E-1,5E-1,5E-1,5E-1,2.05E1,2.05E1,1.9984222E2,5E-1,2.55E1,3.05E1,2.2056822E2,1.377726E2,2.5507664E2,3.4803217E2,1.6838531E2,2.6385736E2,1.5345555E2,8.776222E1,2.2333366E1,-9.232316E1,3.074133E2,8.757456E1,-1.9386887E1,4.987916E2,4.0118698E2,1.8705035E2,1.7436674E2,6.2801575E2,-5.1267285E0,2.0624287E2,3.3856177E2,2.912269E2,2.7617642E2,8.65951E1],"split_indices":[1,1,1,1,4,15,1,10,1,10,15,0,10,10,15,1,0,1,1,15,15,10,10,1,1,0,4,1,1,0,0,0,0,0,0,0,0,0,0,0,0,0,0,0,0,0,0,0,0,0,0,0,0],"split_type":[0,0,0,0,0,0,0,0,0,0,0,0,0,0,0,0,0,0,0,0,0,0,0,0,0,0,0,0,0,0,0,0,0,0,0,0,0,0,0,0,0,0,0,0,0,0,0,0,0,0,0,0,0],"sum_hessian":[2.48E3,1.475E3,1.005E3,1.409E3,6.6E1,2.39E2,7.66E2,1.64E2,1.245E3,3.4E1,3.2E1,1.85E2,5.4E1,8.1E1,6.85E2,1.46E2,1.8E1,3.34E2,9.11E2,2.8E1,6E0,2.2E1,1E1,4.8E1,6E0,7.4E1,7E0,5.17E2,1.68E2,6.2E1,8.4E1,2.6E2,7.4E1,1.64E2,7.47E2,2.1E1,7E0,2E0,4E0,2.1E1,1E0,8E0,2E0,3.4E1,1.4E1,2E0,4E0,4E0,3E0,1.79E2,3.38E2,1.59E2,9E0],"tree_param":{"num_deleted":"0","num_feature":"16","num_nodes":"53","size_leaf_vector":"0"}},{"base_weights":[2.3940056E3,2.0531726E3,2.465663E3,1.8059558E3,2.817554E3,2.5625269E3,2.1683057E3,1.8776256E3,1.4752245E3,2.0095579E3,3.488487E3,2.4189077E3,2.7147256E3,1.925275E3,2.5023716E3,1.6462737E3,1.211673E3,2.3187441E3,1.1328739E3,2.360928E3,3.0178354E3,2.859285E3,2.3115146E3,2.2658413E3,1.7264364E3,2.9125742E3,2.0522346E3,2.5694373E3,2.1465425E3,2.741252E3,3.9586226E3,1.9127908E3,2.5353667E3,2.0070585E3,3.0339666E3,1.9431976E3,8.2042523E2,2.0203179E3,3.1849272E3,2.3774705E3,4.7157568E2],"categories":[],"categories_nodes":[],"categories_segments":[],"categories_sizes":[],"default_left":[true,true,true,true,true,true,true,false,true,true,false,true,true,true,true,false,false,false,false,true,false,true,true,true,true,true,true,false,false,false,false,false,false,false,false,false,false,false,false,false,false],"id":12,"left_children":[1,3,5,7,9,11,13,-1,15,17,-1,19,21,23,25,-1,-1,-1,-1,27,-1,29,31,33,35,37,39,-1,-1,-1,-1,-1,-1,-1,-1,-1,-1,-1,-1,-1,-1],"loss_changes":[5.5486464E7,7.744435E7,5.32992E7,5.089792E6,4.985645E7,2.6978304E7,3.646259E7,0E0,8.61808E5,1.0891584E7,0E0,2.0601856E7,3.6356096E7,1.6295936E7,3.2933632E7,0E0,0E0,0E0,0E0,2.7248128E7,0E0,5.90208E7,1.2956928E7,1.5129408E7,3.628109E7,1.9758336E7,5.231539E7,0E0,0E0,0E0,0E0,0E0,0E0,0E0,0E0,0E0,0E0,0E0,0E0,0E0,0E0],"parents":[2147483647,0,0,1,1,2,2,3,3,4,4,5,5,6,6,8,8,9,9,11,11,12,12,13,13,14,14,19,19,21,21,22,22,23,23,24,24,25,25,26,26],"right_children":[2,4,6,8,10,12,14,-1,16,18,-1,20,22,24,26,-1,-1,-1,-1,28,-1,30,32,34,36,38,40,-1,-1,-1,-1,-1,-1,-1,-1,-1,-1,-1,-1,-1,-1],"split_conditions":[1.5E0,5E-1,5E-1,5E-1,5E-1,5E-1,7.5E0,1.8776256E2,5E-1,5E-1,3.4884872E2,1.15E1,9.5E0,3.5E0,5E-1,1.6462737E2,1.211673E2,2.3187442E2,1.1328739E2,6.5E0,3.0178354E2,8.5E0,1.05E1,5E-1,5E-1,8.5E0,5E-1,2.5694373E2,2.1465425E2,2.741252E2,3.9586227E2,1.9127908E2,2.5353667E2,2.0070586E2,3.0339667E2,1.9431976E2,8.204253E1,2.0203178E2,3.1849274E2,2.3774706E2,4.715757E1],"split_indices":[2,14,14,7,4,4,2,0,4,7,0,2,2,2,4,0,0,0,0,2,0,2,2,7,7,2,7,0,0,0,0,0,0,0,0,0,0,0,0,0,0],"split_type":[0,0,0,0,0,0,0,0,0,0,0,0,0,0,0,0,0,0,0,0,0,0,0,0,0,0,0,0,0,0,0,0,0,0,0,0,0,0,0,0,0],"sum_hessian":[2.48E3,4.36E2,2.044E3,3.32E2,1.04E2,1.536E3,5.08E2,2.69E2,6.3E1,4.9E1,5.5E1,7.99E2,7.37E2,2.98E2,2.1E2,3.5E1,2.8E1,3.5E1,1.4E1,7.33E2,6.6E1,5.38E2,1.99E2,1.06E2,1.92E2,1.07E2,1.03E2,3.66E2,3.67E2,4.89E2,4.9E1,7.5E1,1.24E2,8.2E1,2.4E1,1.54E2,3.8E1,2.7E1,8E1,8.5E1,1.8E1],"tree_param":{"num_deleted":"0","num_feature":"16","num_nodes":"41","size_leaf_vector":"0"}},{"base_weights":[2.156484E3,2.2280693E3,1.7271178E3,2.2998057E3,2.0058778E3,1.9087654E3,-1.8195815E3,2.0007642E3,2.359902E3,1.7990927E3,2.3108623E3,1.6522465E3,2.689201E3,-2.218382E3,2.475013E3,1.833171E3,2.8126677E3,2.476291E3,2.1067112E3,2.0345487E3,1.6297089E3,2.4731902E3,1.9877278E3,1.2913752E3,2.5764465E3,2.9676E3,1.5184485E3,-1.0729604E3,-2.911881E3,3.246798E3,1.9805391E3,2.3966316E3,2.9267556E3,1.8623458E3,2.255159E3,2.3493013E3,7.581016E2,1.4155304E3,2.9258525E3,1.4377411E3,2.513451E3,1.9478622E3,4.226821E3,1.6714495E3,-5.362842E2,-1.4331937E3,1.8261719E0],"categories":[],"categories_nodes":[],"categories_segments":[],"categories_sizes":[],"default_left":[true,true,true,true,true,true,true,true,true,true,true,true,true,true,false,false,true,true,true,true,true,false,true,false,true,false,true,true,false,false,false,false,false,false,false,false,false,false,false,false,false,false,false,false,false,false,false],"id":13,"left_children":[1,3,5,7,9,11,13,15,17,19,21,23,25,27,-1,-1,29,31,33,35,37,-1,39,-1,41,-1,43,45,-1,-1,-1,-1,-1,-1,-1,-1,-1,-1,-1,-1,-1,-1,-1,-1,-1,-1,-1],"loss_changes":[7.236915E7,2.9182976E7,2.3475955E8,2.3952384E7,2.8974336E7,6.3980544E7,3.6316308E7,3.2080384E7,3.3783296E7,9.330304E6,6.002176E6,8.334861E7,2.2501696E7,1.0339744E7,0E0,0E0,9.773696E6,2.5299968E7,1.1139712E7,5.0015616E7,4.8560096E7,0E0,1.8032352E7,0E0,6.639779E7,0E0,6.566492E6,3.114322E6,0E0,0E0,0E0,0E0,0E0,0E0,0E0,0E0,0E0,0E0,0E0,0E0,0E0,0E0,0E0,0E0,0E0,0E0,0E0],"parents":[2147483647,0,0,1,1,2,2,3,3,4,4,5,5,6,6,7,7,8,8,9,9,10,10,11,11,12,12,13,13,16,16,17,17,18,18,19,19,20,20,22,22,24,24,26,26,27,27],"right_children":[2,4,6,8,10,12,14,16,18,20,22,24,26,28,-1,-1,30,32,34,36,38,-1,40,-1,42,-1,44,46,-1,-1,-1,-1,-1,-1,-1,-1,-1,-1,-1,-1,-1,-1,-1,-1,-1,-1,-1],"split_conditions":[2.0205E3,5E-1,2.5E0,2.5E0,7.5E0,5E-1,1E1,5E-1,9.5E0,3.5E0,1.05E1,1.5E0,1.5E0,5.5E0,2.475013E2,1.8331711E2,1.5E0,8.5E0,1.05E1,5E-1,5E-1,2.4731902E2,1.15E1,1.2913753E2,5E-1,2.9676E2,5E-1,4.5E0,-2.911881E2,3.246798E2,1.9805391E2,2.3966316E2,2.9267557E2,1.8623459E2,2.255159E2,2.3493013E2,7.5810165E1,1.4155304E2,2.9258527E2,1.4377411E2,2.513451E2,1.9478622E2,4.226821E2,1.6714494E2,-5.3628418E1,-1.4331938E2,1.8261719E-1],"split_indices":[3,14,2,2,2,14,2,11,2,2,2,2,2,2,0,0,2,2,2,11,11,0,2,0,11,0,11,2,0,0,0,0,0,0,0,0,0,0,0,0,0,0,0,0,0,0,0],"split_type":[0,0,0,0,0,0,0,0,0,0,0,0,0,0,0,0,0,0,0,0,0,0,0,0,0,0,0,0,0,0,0,0,0,0,0,0,0,0,0,0,0,0,0,0,0,0,0],"sum_hessian":[2.48E3,2.122E3,3.58E2,1.597E3,5.25E2,3.41E2,1.7E1,2.73E2,1.324E3,3.17E2,2.08E2,2.59E2,8.2E1,1.6E1,1E0,2.29E2,4.4E1,9.01E2,4.23E2,1.28E2,1.89E2,1.34E2,7.4E1,1.88E2,7.1E1,6.5E1,1.7E1,7E0,9E0,2.7E1,1.7E1,7.71E2,1.3E2,1.65E2,2.58E2,1.02E2,2.6E1,1.64E2,2.5E1,3.8E1,3.6E1,5.3E1,1.8E1,1.6E1,1E0,5E0,2E0],"tree_param":{"num_deleted":"0","num_feature":"16","num_nodes":"47","size_leaf_vector":"0"}},{"base_weights":[1.9424576E3,1.890706E3,2.2109463E3,1.8261625E3,2.0887441E3,2.3674436E3,1.7560732E3,1.8850455E3,1.7050303E3,2.4641877E3,2.0951914E3,1.9538564E3,1.8134434E3],"categories":[],"categories_nodes":[],"categories_segments":[],"categories_sizes":[],"default_left":[true,true,true,true,false,true,false,true,false,false,false,false,false],"id":14,"left_children":[1,3,5,7,-1,9,-1,11,-1,-1,-1,-1,-1],"loss_changes":[3.0252032E7,2.28224E7,2.392E7,8.033792E6,0E0,2.455936E6,0E0,1.617152E6,0E0,0E0,0E0,0E0,0E0],"parents":[2147483647,0,0,1,1,2,2,3,3,5,5,7,7],"right_children":[2,4,6,8,-1,10,-1,12,-1,-1,-1,-1,-1],"split_conditions":[5E-1,5E-1,5E-1,5E-1,2.0887442E2,5E-1,1.7560733E2,5E-1,1.7050304E2,2.4641878E2,2.0951915E2,1.9538565E2,1.8134435E2],"split_indices":[10,12,12,15,0,14,0,14,0,0,0,0,0],"split_type":[0,0,0,0,0,0,0,0,0,0,0,0,0],"sum_hessian":[2.48E3,2.086E3,3.94E2,1.581E3,5.05E2,2.9E2,1.04E2,1.054E3,5.27E2,2.08E2,8.2E1,5.24E2,5.3E2],"tree_param":{"num_deleted":"0","num_feature":"16","num_nodes":"13","size_leaf_vector":"0"}},{"base_weights":[1.7487736E3,1.5751366E3,2.001785E3,1.6027334E3,9.7070807E2,1.9544506E3,2.227828E3,1.4584827E3,1.7284359E3,6.318119E2,2.4704976E3,1.7001791E3,2.0686624E3,2.7471511E3,1.2801981E3,1.6526179E3,8.624706E2,1.8404856E3,1.1440331E3,3.523027E2,1.5284729E3,1.6061497E3,3.7951562E3,2.0030674E3,5.284001E2,1.862672E3,2.9321377E3,3.293901E3,2.3849873E3,2.2968013E3,-1.4855276E3,1.3843177E3,2.1636558E3,5.344509E2,2.766901E3,1.7556034E3,2.0828052E3,1.380284E3,-3.102241E2,4.6476312E2,-2.6420677E1,2.0877124E3,-1.0282291E3,1.7661425E3,2.6590134E3,1.6617367E3,3.327207E1,1.7223895E3,2.4554875E3,4.3916743E3,2.2404749E3,1.6877748E3,2.7761719E3,1.1060082E3,2.7456858E3,2.9767178E2,-2.0578713E3],"categories":[],"categories_nodes":[],"categories_segments":[],"categories_sizes":[],"default_left":[true,true,true,true,true,true,true,true,true,true,true,true,true,true,true,true,true,true,true,true,true,false,false,true,true,true,true,false,true,true,true,false,false,false,false,false,false,false,false,false,false,false,false,false,false,false,false,false,false,false,false,false,false,false,false,false,false],"id":15,"left_children":[1,3,5,7,9,11,13,15,17,19,21,23,25,27,29,31,33,35,37,39,41,-1,-1,43,45,47,49,-1,51,53,55,-1,-1,-1,-1,-1,-1,-1,-1,-1,-1,-1,-1,-1,-1,-1,-1,-1,-1,-1,-1,-1,-1,-1,-1,-1,-1],"loss_changes":[1.0580685E8,2.303872E7,6.367744E6,2.3014656E7,3.2462372E7,2.0839424E7,7.86279E7,7.526323E7,4.6845184E7,1.3477708E7,7.589992E6,9.332454E7,9.676442E7,1.3274688E7,1.7493043E8,6.5387904E7,1.0156216E8,9.181056E6,4.269795E7,1.890684E6,2.0744748E7,0E0,0E0,2.8051008E7,3.1351976E7,3.4565504E7,1.0013056E8,0E0,1.3816032E7,2.0978512E7,1.7980428E7,0E0,0E0,0E0,0E0,0E0,0E0,0E0,0E0,0E0,0E0,0E0,0E0,0E0,0E0,0E0,0E0,0E0,0E0,0E0,0E0,0E0,0E0,0E0,0E0,0E0,0E0],"parents":[2147483647,0,0,1,1,2,2,3,3,4,4,5,5,6,6,7,7,8,8,9,9,10,10,11,11,12,12,13,13,14,14,15,15,16,16,17,17,18,18,19,19,20,20,23,23,24,24,25,25,26,26,28,28,29,29,30,30],"right_children":[2,4,6,8,10,12,14,16,18,20,22,24,26,28,30,32,34,36,38,40,42,-1,-1,44,46,48,50,-1,52,54,56,-1,-1,-1,-1,-1,-1,-1,-1,-1,-1,-1,-1,-1,-1,-1,-1,-1,-1,-1,-1,-1,-1,-1,-1,-1,-1],"split_conditions":[1.85E1,1.75E1,5E-1,8.5E0,5E-1,2.25E1,2.65E1,6.5E0,5E-1,5E-1,5E-1,5E-1,5E-1,2.15E1,5E-1,4.5E0,5E-1,5E-1,1.65E1,5E-1,5E-1,1.6061497E2,3.7951562E2,5E-1,1.95E1,2.95E1,2.55E1,3.293901E2,2.35E1,2.75E1,2.75E1,1.3843178E2,2.1636559E2,5.3445095E1,2.766901E2,1.7556035E2,2.0828052E2,1.3802841E2,-3.102241E1,4.6476315E1,-2.6420677E0,2.0877124E2,-1.02822914E2,1.7661424E2,2.6590134E2,1.6617368E2,3.3272073E0,1.7223895E2,2.4554875E2,4.3916745E2,2.2404749E2,1.6877748E2,2.776172E2,1.1060082E2,2.7456857E2,2.976718E1,-2.0578714E2],"split_indices":[1,1,6,1,6,1,1,1,6,11,13,11,11,1,13,1,11,13,1,13,13,0,0,13,1,1,1,0,1,1,1,0,0,0,0,0,0,0,0,0,0,0,0,0,0,0,0,0,0,0,0,0,0,0,0,0,0],"split_type":[0,0,0,0,0,0,0,0,0,0,0,0,0,0,0,0,0,0,0,0,0,0,0,0,0,0,0,0,0,0,0,0,0,0,0,0,0,0,0,0,0,0,0,0,0,0,0,0,0,0,0,0,0,0,0,0,0],"sum_hessian":[2.48E3,1.475E3,1.005E3,1.409E3,6.6E1,8.39E2,1.66E2,6.62E2,7.47E2,5.5E1,1.1E1,2.65E2,5.74E2,1.06E2,6E1,4.98E2,1.64E2,6.25E2,1.22E2,4.3E1,1.2E1,8E0,3E0,2.1E2,5.5E1,4.66E2,1.08E2,3.9E1,6.7E1,4.4E1,1.6E1,3.29E2,1.69E2,1.41E2,2.3E1,4.69E2,1.56E2,1.05E2,1.7E1,3.3E1,1E1,1E1,2E0,1.57E2,5.3E1,1.6E1,3.9E1,3.8E2,8.6E1,3.3E1,7.5E1,2.6E1,4.1E1,1.3E1,3.1E1,4E0,1.2E1],"tree_param":{"num_deleted":"0","num_feature":"16","num_nodes":"57","size_leaf_vector":"0"}},{"base_weights":[1.5757357E3,1.6041752E3,1.4903381E3,1.561771E3,1.6477634E3,1.695392E3,1.2791636E3,1.4409535E3,2.0517212E3],"categories":[],"categories_nodes":[],"categories_segments":[],"categories_sizes":[],"default_left":[true,true,false,true,true,false,false,false,false],"id":16,"left_children":[1,3,-1,5,7,-1,-1,-1,-1],"loss_changes":[3.603968E6,8.09984E5,0E0,3.3902336E7,7.161216E7,0E0,0E0,0E0,0E0],"parents":[2147483647,0,0,1,1,3,3,4,4],"right_children":[2,4,-1,6,8,-1,-1,-1,-1],"split_conditions":[5E-1,5E-1,1.4903381E2,5E-1,5E-1,1.695392E2,1.2791636E2,1.4409535E2,2.0517212E2],"split_indices":[15,4,0,12,12,0,0,0,0],"split_type":[0,0,0,0,0,0,0,0,0],"sum_hessian":[2.48E3,1.847E3,6.33E2,9.55E2,8.92E2,6.45E2,3.1E2,5.93E2,2.99E2],"tree_param":{"num_deleted":"0","num_feature":"16","num_nodes":"9","size_leaf_vector":"0"}},{"base_weights":[1.4184845E3,1.2627971E3,1.6454886E3,1.3551523E3,8.52665E2,1.7599417E3,9.188652E2,1.5537078E3,1.1738881E3,2.795427E3,7.451503E2,1.6103364E3,1.8583771E3,1.6788217E3,4.729478E2,1.4479452E3,1.8629628E3,1.328925E3,5.3942236E2,4.534479E3,9.2307806E2,-6.087246E2,9.645202E2,1.9468674E3,1.0867546E3,2.1455173E3,1.7563519E3,8.1908594E2,2.6114792E3,-1.05290085E2,8.157539E2,1.7735166E3,1.1971782E3,2.2006077E3,1.4840907E3,7.929514E2,1.5326561E3,7.650526E2,-2.0776283E2,-1.6841027E3,4.9816528E2,8.668234E2,1.8261393E3,1.6927587E3,2.1968203E3,5.534452E2,1.568512E3,1.585134E3,2.6412378E3,1.6666799E3,1.9724801E3,-4.5357233E2,5.5627617E3,3.1152217E3,-6.8353845E2,6.986106E2,-9.508737E2,1.101331E3,-2.1279582E2],"categories":[],"categories_nodes":[],"categories_segments":[],"categories_sizes":[],"default_left":[true,true,true,true,true,true,true,true,true,true,true,true,true,true,true,true,true,true,true,false,false,true,true,true,true,true,true,true,true,true,true,false,false,false,false,false,false,false,false,false,false,false,false,false,false,false,false,false,false,false,false,false,false,false,false,false,false,false,false],"id":17,"left_children":[1,3,5,7,9,11,13,15,17,19,21,23,25,27,29,31,33,35,37,-1,-1,39,41,43,45,47,49,51,53,55,57,-1,-1,-1,-1,-1,-1,-1,-1,-1,-1,-1,-1,-1,-1,-1,-1,-1,-1,-1,-1,-1,-1,-1,-1,-1,-1,-1,-1],"loss_changes":[8.557619E7,5.4729984E7,8.201933E7,4.1446144E7,5.5113456E7,9.755136E6,4.6288504E7,1.5945472E7,6.1529856E7,4.134533E7,7.810752E7,5.98768E7,1.1338368E7,3.872045E7,1.7734884E7,3.2953408E7,1.4862496E7,5.4232256E7,2.1406556E7,0E0,0E0,4.489285E7,1.7330048E7,9.771136E6,3.5080304E7,3.2161984E7,4.176512E6,1.716124E8,4.1989856E7,2.3778832E7,1.669214E7,0E0,0E0,0E0,0E0,0E0,0E0,0E0,0E0,0E0,0E0,0E0,0E0,0E0,0E0,0E0,0E0,0E0,0E0,0E0,0E0,0E0,0E0,0E0,0E0,0E0,0E0,0E0,0E0],"parents":[2147483647,0,0,1,1,2,2,3,3,4,4,5,5,6,6,7,7,8,8,9,9,10,10,11,11,12,12,13,13,14,14,15,15,16,16,17,17,18,18,21,21,22,22,23,23,24,24,25,25,26,26,27,27,28,28,29,29,30,30],"right_children":[2,4,6,8,10,12,14,16,18,20,22,24,26,28,30,32,34,36,38,-1,-1,40,42,44,46,48,50,52,54,56,58,-1,-1,-1,-1,-1,-1,-1,-1,-1,-1,-1,-1,-1,-1,-1,-1,-1,-1,-1,-1,-1,-1,-1,-1,-1,-1,-1,-1],"split_conditions":[1.85E1,5E-1,2.0205E3,5E-1,1.5E0,2.35E1,2.35E1,1.45E1,1.45E1,5E-1,3.5E0,2.15E1,2.55E1,2.15E1,2.65E1,6.5E0,1.65E1,4.5E0,1.75E1,4.534479E2,9.230781E1,5E-1,1.65E1,5E-1,2.25E1,5E-1,2.95E1,5E-1,5E-1,5E-1,3.05E1,1.7735167E2,1.1971783E2,2.2006078E2,1.4840907E2,7.929514E1,1.5326561E2,7.6505264E1,-2.0776283E1,-1.6841026E2,4.981653E1,8.668234E1,1.8261394E2,1.6927586E2,2.1968204E2,5.534452E1,1.568512E2,1.5851341E2,2.6412378E2,1.66668E2,1.9724802E2,-4.5357235E1,5.562762E2,3.115222E2,-6.835384E1,6.986106E1,-9.508737E1,1.1013311E2,-2.1279583E1],"split_indices":[1,7,3,5,1,1,1,1,1,5,1,1,1,1,1,1,1,1,1,0,0,5,1,5,1,5,1,7,7,5,1,0,0,0,0,0,0,0,0,0,0,0,0,0,0,0,0,0,0,0,0,0,0,0,0,0,0,0,0],"split_type":[0,0,0,0,0,0,0,0,0,0,0,0,0,0,0,0,0,0,0,0,0,0,0,0,0,0,0,0,0,0,0,0,0,0,0,0,0,0,0,0,0,0,0,0,0,0,0,0,0,0,0,0,0,0,0,0,0,0,0],"sum_hessian":[2.48E3,1.475E3,1.005E3,1.202E3,2.73E2,8.67E2,1.38E2,5.7E2,6.32E2,1.3E1,2.6E2,3.51E2,5.16E2,5E1,8.8E1,4.29E2,1.41E2,5.07E2,1.25E2,6E0,7E0,3.6E1,2.24E2,2.12E2,1.39E2,1.3E2,3.86E2,2.7E1,2.3E1,3.3E1,5.5E1,1.84E2,2.45E2,7.2E1,6.9E1,1.41E2,3.66E2,9.6E1,2.9E1,1.8E1,1.8E1,2.03E2,2.1E1,1.09E2,1.03E2,6.7E1,7.2E1,6.3E1,6.7E1,2.79E2,1.07E2,2.2E1,5E0,2E1,3E0,1.7E1,1.6E1,4.3E1,1.2E1],"tree_param":{"num_deleted":"0","num_feature":"16","num_nodes":"59","size_leaf_vector":"0"}},{"base_weights":[1.278197E3,1.2009363E3,1.7644666E3,1.2463253E3,7.286581E1,4.4794014E3,1.7018792E3,1.2162969E3,3.853792E3,-8.430376E2,8.120459E2,5.2530386E3,1.693539E3,-3.2696091E3,1.7571803E3,1.6696385E3,1.1470408E3,6.421177E2,4.709695E3,-1.613993E3,1.8193737E3,1.7901049E3,-2.859333E2,-2.0490332E2,2.7502117E3,-3.740098E3,-9.2407153E2,1.714823E3,5.78506E3,8.3027814E2,1.93426E3,1.0978E3,1.942375E3,-4.5925476E2,1.8999083E3,5.000578E3,1.5850853E3,-3.8405488E3,-6.293115E2,4.9035373E2,4.310629E3,3.740438E3,2.3985365E2,-1.2291368E3,1.6349656E3,2.5842415E3,1.5846106E3],"categories":[],"categories_nodes":[],"categories_segments":[],"categories_sizes":[],"default_left":[true,true,true,true,true,true,true,true,true,true,true,false,true,true,true,true,true,true,true,true,true,true,true,false,false,false,false,true,false,false,false,false,false,false,false,false,false,false,false,false,false,false,false,false,false,false,false],"id":18,"left_children":[1,3,5,7,9,11,13,15,17,19,21,-1,23,25,27,29,31,33,35,37,39,41,43,-1,-1,-1,-1,45,-1,-1,-1,-1,-1,-1,-1,-1,-1,-1,-1,-1,-1,-1,-1,-1,-1,-1,-1],"loss_changes":[9.10615E7,1.0967347E8,4.974797E7,1.5663437E8,5.755375E7,6.12104E6,9.700659E7,6.2074624E7,6.014659E7,8.0933224E7,5.099965E7,0E0,6.607077E6,9.11436E5,4.613536E7,5.789261E7,6.723379E7,9.198724E6,8.367936E6,6.331185E7,2.763661E7,7.465069E7,4.3676904E7,0E0,0E0,0E0,0E0,3.2882624E7,0E0,0E0,0E0,0E0,0E0,0E0,0E0,0E0,0E0,0E0,0E0,0E0,0E0,0E0,0E0,0E0,0E0,0E0,0E0],"parents":[2147483647,0,0,1,1,2,2,3,3,4,4,5,5,6,6,7,7,8,8,9,9,10,10,12,12,13,13,14,14,15,15,16,16,17,17,18,18,19,19,20,20,21,21,22,22,27,27],"right_children":[2,4,6,8,10,12,14,16,18,20,22,-1,24,26,28,30,32,34,36,38,40,42,44,-1,-1,-1,-1,46,-1,-1,-1,-1,-1,-1,-1,-1,-1,-1,-1,-1,-1,-1,-1,-1,-1,-1,-1],"split_conditions":[9.014E1,8.683E1,9.047E1,8.5945E1,5.5E0,8E0,9.0625E1,1.275E1,1.5E0,5E-1,5E-1,5.253039E2,9.0265E1,9.0615005E1,1.03395004E2,5.51E0,8.15E1,8.647E1,1E1,8.7415E1,8.933E1,8.807E1,1.05E1,-2.0490332E1,2.7502118E2,-3.740098E2,-9.240716E1,9.2405E1,5.7850604E2,8.302782E1,1.9342601E2,1.0978001E2,1.942375E2,-4.5925476E1,1.8999083E2,5.0005783E2,1.5850853E2,-3.840549E2,-6.2931152E1,4.9035374E1,4.310629E2,3.740438E2,2.3985365E1,-1.2291369E2,1.6349657E2,2.5842416E2,1.5846106E2],"split_indices":[0,0,0,0,2,2,0,0,2,15,4,0,0,0,0,0,0,0,2,0,0,0,2,0,0,0,0,0,0,0,0,0,0,0,0,0,0,0,0,0,0,0,0,0,0,0,0],"split_type":[0,0,0,0,0,0,0,0,0,0,0,0,0,0,0,0,0,0,0,0,0,0,0,0,0,0,0,0,0,0,0,0,0,0,0,0,0,0,0,0,0,0,0,0,0,0,0],"sum_hessian":[2.48E3,2.143E3,3.37E2,2.06E3,8.3E1,6E0,3.31E2,2.038E3,2.2E1,3.7E1,4.6E1,4E0,2E0,3E0,3.28E2,2.67E2,1.771E3,5E0,1.7E1,2.9E1,8E0,2.4E1,2.2E1,1E0,1E0,2E0,1E0,3.26E2,2E0,6.5E1,2.02E2,1.67E3,1.01E2,3E0,2E0,1.5E1,2E0,8E0,2.1E1,6E0,2E0,1E1,1.4E1,1.5E1,7E0,4E1,2.86E2],"tree_param":{"num_deleted":"0","num_feature":"16","num_nodes":"47","size_leaf_vector":"0"}},{"base_weights":[1.1516564E3,1.00722186E3,1.2546766E3,1.0489473E3,7.783992E2,1.4549615E3,1.184565E3,8.921524E2,1.2026156E3,-4.119598E1,1.639614E3,1.2037327E3,2.2118752E3,7.4340027E2,1.2760195E3,9.519485E2,8.2823694E2,1.470108E3,9.7048914E2,-2.8670505E2,8.261885E2,1.1994476E3,2.9891245E3,1.6059065E3,7.534842E2,1.5473837E3,2.7496562E3,1.1240774E3,3.785032E2,1.5207295E3,1.119488E3,1.0295219E3,6.7603E2,7.070044E2,1.1523995E3,1.7811163E3,7.3894226E2,6.740367E2,1.7168971E3,-6.132994E2,4.0875143E2,9.451493E2,1.6857168E3,1.9234055E3,8.892405E2,9.0300745E2,5.538554E2,8.844095E2,2.0849954E3,2.1051084E3,3.1575273E3,9.90703E2,1.5210061E3,5.921229E2,-2.2723233E2,1.7626901E3,8.285458E2,1.007709E3,1.369237E3],"categories":[],"categories_nodes":[],"categories_segments":[],"categories_sizes":[],"default_left":[true,true,true,true,true,true,true,true,true,true,true,true,true,true,true,true,true,true,true,true,false,true,false,true,true,true,true,true,true,true,true,false,false,false,false,false,false,false,false,false,false,false,false,false,false,false,false,false,false,false,false,false,false,false,false,false,false,false,false],"id":19,"left_children":[1,3,5,7,9,11,13,15,17,19,21,23,25,27,29,31,33,35,37,39,-1,41,-1,43,45,47,49,51,53,55,57,-1,-1,-1,-1,-1,-1,-1,-1,-1,-1,-1,-1,-1,-1,-1,-1,-1,-1,-1,-1,-1,-1,-1,-1,-1,-1,-1,-1],"loss_changes":[3.5630336E7,9.075776E6,1.8527232E7,1.9988736E7,1.1584253E8,6.766202E7,4.240371E7,8.63936E5,2.5807232E7,1.8332292E7,4.389355E7,4.9468256E7,2.8221216E7,2.5535296E7,3.2324096E7,3.974416E6,7.773152E6,4.4593184E7,5.1482176E7,1.5470584E7,0E0,6.0472E6,0E0,3.1709984E7,3.485088E6,1.3452496E7,6.182176E6,3.28556E6,1.2689713E7,5.612717E7,1.3838912E7,0E0,0E0,0E0,0E0,0E0,0E0,0E0,0E0,0E0,0E0,0E0,0E0,0E0,0E0,0E0,0E0,0E0,0E0,0E0,0E0,0E0,0E0,0E0,0E0,0E0,0E0,0E0,0E0],"parents":[2147483647,0,0,1,1,2,2,3,3,4,4,5,5,6,6,7,7,8,8,9,9,10,10,11,11,12,12,13,13,14,14,15,15,16,16,17,17,18,18,19,19,21,21,23,23,24,24,25,25,26,26,27,27,28,28,29,29,30,30],"right_children":[2,4,6,8,10,12,14,16,18,20,22,24,26,28,30,32,34,36,38,40,-1,42,-1,44,46,48,50,52,54,56,58,-1,-1,-1,-1,-1,-1,-1,-1,-1,-1,-1,-1,-1,-1,-1,-1,-1,-1,-1,-1,-1,-1,-1,-1,-1,-1,-1,-1],"split_conditions":[4.5E0,3.5E0,6.5E0,1.5E0,5E-1,5E-1,7.5E0,5E-1,5E-1,5E-1,5E-1,5E-1,5.5E0,5E-1,9.5E0,5E-1,5E-1,5E-1,5E-1,5E-1,8.261885E1,5E-1,2.9891245E2,5E-1,5.5E0,5E-1,5E-1,5E-1,5E-1,5E-1,1.15E1,1.0295219E2,6.7603004E1,7.070044E1,1.1523995E2,1.7811163E2,7.3894226E1,6.740367E1,1.7168971E2,-6.1329937E1,4.0875145E1,9.451493E1,1.6857169E2,1.9234056E2,8.892405E1,9.030074E1,5.538554E1,8.844095E1,2.0849954E2,2.1051085E2,3.1575275E2,9.9070305E1,1.5210062E2,5.921229E1,-2.2723234E1,1.7626901E2,8.2854576E1,1.007709E2,1.369237E2],"split_indices":[2,2,2,2,5,13,2,5,5,15,13,5,2,5,2,15,15,13,13,13,0,15,0,15,2,5,5,13,13,15,2,0,0,0,0,0,0,0,0,0,0,0,0,0,0,0,0,0,0,0,0,0,0,0,0,0,0,0,0],"split_type":[0,0,0,0,0,0,0,0,0,0,0,0,0,0,0,0,0,0,0,0,0,0,0,0,0,0,0,0,0,0,0,0,0,0,0,0,0,0,0,0,0,0,0,0,0,0,0,0,0,0,0,0,0,0,0,0,0,0,0],"sum_hessian":[2.48E3,1.037E3,1.443E3,8.74E2,1.63E2,3.69E2,1.074E3,4.36E2,4.38E2,8.4E1,7.9E1,2.79E2,9E1,1.86E2,8.88E2,2.18E2,2.18E2,2.01E2,2.37E2,6.6E1,1.8E1,6.1E1,1.8E1,1.46E2,1.33E2,4.2E1,4.8E1,9E1,9.6E1,3.43E2,5.45E2,1.68E2,5E1,1.61E2,5.7E1,1.4E2,6.1E1,1.71E2,6.6E1,4.5E1,2.1E1,4.2E1,1.9E1,1E2,4.6E1,7.4E1,5.9E1,2E1,2.2E1,2.1E1,2.7E1,7E1,2E1,7.1E1,2.5E1,2.53E2,9E1,3.8E2,1.65E2],"tree_param":{"num_deleted":"0","num_feature":"16","num_nodes":"59","size_leaf_vector":"0"}},{"base_weights":[1.0379141E3,9.3545917E2,1.3426056E3,9.541819E2,-1.79724E3,3.1542212E3,1.2833783E3,1.0517294E3,4.9550375E2,-3.5410315E3,-6.276626E2,2.6627612E3,4.8844204E3,-1.425791E2,1.3477856E3,1.1708784E3,6.6069745E2,5.869507E3,4.273876E2,2.0146593E3,-2.2862668E3,3.087338E3,-3.4437466E2,9.2246155E2,-4.0256316E3,3.9283843E3,1.3092523E3,1.1364149E3,4.6853193E3,4.6290137E2,1.8420796E3,1.7320741E2,8.793884E2,2.35603E3,4.9027344E2,-3.3219746E3,-1.3990088E2,4.4712617E3,1.3162467E3,-2.0280552E3,1.5064932E3,-3.7895526E2,4.4577324E3,5.304862E3,-2.8484785E3,1.2857338E3,5.330181E3],"categories":[],"categories_nodes":[],"categories_segments":[],"categories_sizes":[],"default_left":[true,true,true,true,true,true,true,true,true,false,true,true,false,true,true,true,true,false,true,true,true,true,true,true,false,true,true,false,false,false,false,false,false,false,false,false,false,false,false,false,false,false,false,false,false,false,false],"id":20,"left_children":[1,3,5,7,9,11,13,15,17,-1,19,21,-1,23,25,27,29,-1,31,33,35,37,39,41,-1,43,45,-1,-1,-1,-1,-1,-1,-1,-1,-1,-1,-1,-1,-1,-1,-1,-1,-1,-1,-1,-1],"loss_changes":[7.617101E7,9.687078E7,6.26464E7,8.214835E7,2.4249232E7,3.074624E6,5.567693E7,7.016627E7,1.1676285E8,0E0,4.405186E7,2.2795528E7,0E0,1.1540595E8,5.2280256E7,1.3584282E8,8.277907E7,0E0,3.6946516E7,8.97962E5,1.2838678E7,3.0822672E7,1.2409277E7,1.02949E8,0E0,8.976094E7,4.7078016E7,0E0,0E0,0E0,0E0,0E0,0E0,0E0,0E0,0E0,0E0,0E0,0E0,0E0,0E0,0E0,0E0,0E0,0E0,0E0,0E0],"parents":[2147483647,0,0,1,1,2,2,3,3,4,4,5,5,6,6,7,7,8,8,10,10,11,11,13,13,14,14,15,15,16,16,18,18,19,19,20,20,21,21,22,22,23,23,25,25,26,26],"right_children":[2,4,6,8,10,12,14,16,18,-1,20,22,-1,24,26,28,30,-1,32,34,36,38,40,42,-1,44,46,-1,-1,-1,-1,-1,-1,-1,-1,-1,-1,-1,-1,-1,-1,-1,-1,-1,-1,-1,-1],"split_conditions":[7.8535E1,7.7795E1,7.931E1,5E-1,7.803E1,7.9145004E1,8.0270004E1,5.9434998E1,4.235E0,-3.5410315E2,7.825E1,5E-1,4.8844205E2,8.0125E1,8.0520004E1,5.9010002E1,7.5515E1,5.869507E2,5.3614998E1,7.817E1,7.8425E1,7.892E1,7.883E1,7.986E1,-4.0256317E2,5E-1,1.03395004E2,1.13641495E2,4.6853195E2,4.629014E1,1.8420796E2,1.7320742E1,8.793884E1,2.3560301E2,4.9027344E1,-3.3219748E2,-1.3990088E1,4.471262E2,1.3162468E2,-2.0280553E2,1.5064932E2,-3.7895527E1,4.4577325E2,5.304862E2,-2.8484787E2,1.2857338E2,5.330181E2],"split_indices":[0,0,0,7,0,0,0,0,0,0,0,14,0,0,0,0,0,0,0,0,0,0,0,0,0,14,0,0,0,0,0,0,0,0,0,0,0,0,0,0,0,0,0,0,0,0,0],"split_type":[0,0,0,0,0,0,0,0,0,0,0,0,0,0,0,0,0,0,0,0,0,0,0,0,0,0,0,0,0,0,0,0,0,0,0,0,0,0,0,0,0,0,0,0,0,0,0],"sum_hessian":[2.48E3,1.859E3,6.21E2,1.847E3,1.2E1,1.8E1,6.03E2,1.522E3,3.25E2,4E0,8E0,1.6E1,2E0,2.6E1,5.77E2,1.165E3,3.57E2,3E0,3.22E2,3E0,5E0,1.4E1,2E0,2.1E1,5E0,7E0,5.7E2,1.155E3,1E1,3.07E2,5E1,2.07E2,1.15E2,2E0,1E0,3E0,2E0,7E0,7E0,1E0,1E0,1.6E1,5E0,6E0,1E0,5.68E2,2E0],"tree_param":{"num_deleted":"0","num_feature":"16","num_nodes":"47","size_leaf_vector":"0"}},{"base_weights":[9.353422E2,8.700975E2,1.3464053E3,9.1196954E2,-1.6750238E2,3.932811E3,1.2877871E3,8.8470984E2,3.2885159E3,-1.0640111E3,4.3325836E2,2.1352695E3,4.7446494E3,-3.224538E3,1.3387643E3,9.636924E2,4.1260706E2,3.8630222E3,1.0152442E3,4.829055E2,-2.3112034E3,5.1493994E3,-1.9109175E2,3.0817458E3,-3.4707935E2,1.3012812E3,4.9748354E3,1.0948091E3,6.507269E2,2.1029678E3,2.6811844E2,5.007782E3,1.3472877E3,-3.0057983E1,2.0738992E3,2.4583975E3,-2.4067837E3,-2.079414E1,-2.9199263E3,2.0156192E2,-1.8288416E3,2.1009875E3,1.1824685E3],"categories":[],"categories_nodes":[],"categories_segments":[],"categories_sizes":[],"default_left":[true,true,true,true,true,true,true,true,true,true,true,true,false,false,true,true,true,true,true,true,true,false,true,false,false,true,false,false,false,false,false,false,false,false,false,false,false,false,false,false,false,false,false],"id":21,"left_children":[1,3,5,7,9,11,13,15,17,19,21,23,-1,-1,25,27,29,31,33,35,37,-1,39,-1,-1,41,-1,-1,-1,-1,-1,-1,-1,-1,-1,-1,-1,-1,-1,-1,-1,-1,-1],"loss_changes":[6.534605E7,9.330931E7,4.612749E7,1.3056858E8,4.5708624E7,1.5288E4,8.066662E7,7.561869E7,2.6067504E7,6.6730656E7,1.5120427E8,1.0494892E7,0E0,0E0,3.8303424E7,7.091725E7,7.121838E7,4.502797E7,6.722461E6,9.725427E7,2.6400136E7,0E0,2.9966048E7,0E0,0E0,2.8552832E7,0E0,0E0,0E0,0E0,0E0,0E0,0E0,0E0,0E0,0E0,0E0,0E0,0E0,0E0,0E0,0E0,0E0],"parents":[2147483647,0,0,1,1,2,2,3,3,4,4,5,5,6,6,7,7,8,8,9,9,10,10,11,11,14,14,15,15,16,16,17,17,18,18,19,19,20,20,22,22,25,25],"right_children":[2,4,6,8,10,12,14,16,18,20,22,24,-1,-1,26,28,30,32,34,36,38,-1,40,-1,-1,42,-1,-1,-1,-1,-1,-1,-1,-1,-1,-1,-1,-1,-1,-1,-1,-1,-1],"split_conditions":[9.014E1,8.683E1,9.047E1,8.5945E1,8.7825E1,9.0235E1,9.0625E1,2.0205E3,2.0205E3,5E-1,8.7935E1,9.0185E1,4.7446494E2,-3.2245383E2,1.03395004E2,6.0519997E1,8.045E0,5E-1,5E-1,8.756E1,8.6945E1,5.1493994E2,8.9775E1,3.081746E2,-3.4707935E1,9.2405E1,4.9748355E2,1.0948091E2,6.507269E1,2.1029678E2,2.6811844E1,5.0077823E2,1.3472878E2,-3.0057983E0,2.0738992E2,2.4583975E2,-2.4067838E2,-2.0794141E0,-2.9199265E2,2.0156193E1,-1.8288416E2,2.1009875E2,1.1824685E2],"split_indices":[0,0,0,0,0,0,0,3,3,4,0,0,0,0,0,0,0,7,7,0,0,0,0,0,0,0,0,0,0,0,0,0,0,0,0,0,0,0,0,0,0,0,0],"split_type":[0,0,0,0,0,0,0,0,0,0,0,0,0,0,0,0,0,0,0,0,0,0,0,0,0,0,0,0,0,0,0,0,0,0,0,0,0,0,0,0,0,0,0],"sum_hessian":[2.48E3,2.143E3,3.37E2,2.06E3,8.3E1,6E0,3.31E2,2.038E3,2.2E1,3.3E1,5E1,3E0,3E0,3E0,3.28E2,1.745E3,2.93E2,1.7E1,5E0,1.5E1,1.8E1,5E0,4.5E1,2E0,1E0,3.26E2,2E0,1.228E3,5.17E2,2.2E1,2.71E2,1.1E1,6E0,3E0,2E0,9E0,6E0,4E0,1.4E1,3.7E1,8E0,4E1,2.86E2],"tree_param":{"num_deleted":"0","num_feature":"16","num_nodes":"43","size_leaf_vector":"0"}},{"base_weights":[8.4284503E2,9.215244E2,4.817598E2,7.80847E2,1.01946716E3,1.862805E2,1.1000825E3,8.5176196E2,4.0742133E2,1.2906709E3,9.244557E2,4.0536984E2,-1.1476405E3,1.8075725E3,5.5822144E2,6.3689886E2,1.0898466E3,1.0665082E3,-2.4787328E2,1.0520181E3,1.513439E3,1.0049215E3,8.483924E2,-8.916691E1,6.6184045E2,-8.6453406E2,-1.4922587E3,1.4604661E3,2.128804E3,-5.0377716E1,1.0734913E3,6.0646387E2,7.643432E2,9.914312E2,1.1887659E3,1.3267938E3,1.6996804E3,7.044037E2,1.3120547E3,1.0807682E3,5.6943896E2,3.0195538E2,-4.5363956E2,9.3755096E2,1.6977693E2,2.0187068E3,5.5794617E2,1.641532E3,2.7220842E3,6.592317E2,-5.731161E2,4.5732224E2,1.2833916E3],"categories":[],"categories_nodes":[],"categories_segments":[],"categories_sizes":[],"default_left":[true,true,true,true,true,true,true,true,true,true,true,true,true,true,true,true,true,false,false,false,true,true,true,true,true,false,false,true,true,true,true,false,false,false,false,false,false,false,false,false,false,false,false,false,false,false,false,false,false,false,false,false,false],"id":22,"left_children":[1,3,5,7,9,11,13,15,17,19,21,23,25,27,29,31,33,-1,-1,-1,35,37,39,41,43,-1,-1,45,47,49,51,-1,-1,-1,-1,-1,-1,-1,-1,-1,-1,-1,-1,-1,-1,-1,-1,-1,-1,-1,-1,-1,-1],"loss_changes":[7.002714E7,2.7238656E7,8.1267096E7,2.1884832E7,2.9628288E7,8.900891E7,5.4171344E7,3.535328E7,5.9010412E7,1.4756768E7,4.576128E6,3.3168448E7,2.88156E6,3.768144E6,2.6092516E7,9.69536E5,2.04144E6,0E0,0E0,0E0,3.172096E6,3.8467296E7,2.9445472E7,1.29683E7,2.3164496E7,0E0,0E0,1.5474072E7,4.16064E6,1.4843617E7,5.215704E6,0E0,0E0,0E0,0E0,0E0,0E0,0E0,0E0,0E0,0E0,0E0,0E0,0E0,0E0,0E0,0E0,0E0,0E0,0E0,0E0,0E0,0E0],"parents":[2147483647,0,0,1,1,2,2,3,3,4,4,5,5,6,6,7,7,8,8,9,9,10,10,11,11,12,12,13,13,14,14,15,15,16,16,20,20,21,21,22,22,23,23,24,24,27,27,28,28,29,29,30,30],"right_children":[2,4,6,8,10,12,14,16,18,20,22,24,26,28,30,32,34,-1,-1,-1,36,38,40,42,44,-1,-1,46,48,50,52,-1,-1,-1,-1,-1,-1,-1,-1,-1,-1,-1,-1,-1,-1,-1,-1,-1,-1,-1,-1,-1,-1],"split_conditions":[5E-1,4.5E0,7.5E0,3.5E0,6.5E0,6.5E0,9.5E0,5E-1,5E-1,5E-1,9.5E0,1.5E0,5E-1,8.5E0,5E-1,2.5E0,1.5E0,1.0665082E2,-2.4787329E1,1.05201805E2,5.5E0,5E-1,5E-1,5E-1,4.5E0,-8.645341E1,-1.4922588E2,5E-1,5E-1,1.05E1,1.05E1,6.064639E1,7.643432E1,9.914312E1,1.1887659E2,1.3267938E2,1.6996805E2,7.044037E1,1.3120547E2,1.0807682E2,5.6943897E1,3.019554E1,-4.5363956E1,9.37551E1,1.6977694E1,2.0187068E2,5.5794617E1,1.641532E2,2.7220844E2,6.592317E1,-5.731161E1,4.5732224E1,1.2833916E2],"split_indices":[8,2,2,2,2,2,2,4,4,4,2,2,4,2,4,2,2,0,0,0,2,4,4,4,2,0,0,4,4,2,2,0,0,0,0,0,0,0,0,0,0,0,0,0,0,0,0,0,0,0,0,0,0],"split_type":[0,0,0,0,0,0,0,0,0,0,0,0,0,0,0,0,0,0,0,0,0,0,0,0,0,0,0,0,0,0,0,0,0,0,0,0,0,0,0,0,0,0,0,0,0,0,0,0,0,0,0,0,0],"sum_hessian":[2.48E3,2.035E3,4.45E2,8.39E2,1.196E3,3.02E2,1.43E2,7.04E2,1.35E2,3.07E2,8.89E2,2.6E2,4.2E1,6.1E1,8.2E1,3.72E2,3.32E2,6.7E1,6.8E1,1.51E2,1.56E2,4.26E2,4.63E2,8.9E1,1.71E2,2.5E1,1.7E1,3.2E1,2.9E1,3.8E1,4.4E1,3.05E2,6.7E1,1.72E2,1.6E2,8.2E1,7.4E1,2.17E2,2.09E2,2.51E2,2.12E2,4.3E1,4.6E1,1.09E2,6.2E1,1.9E1,1.3E1,1.8E1,1.1E1,1.6E1,2.2E1,1.2E1,3.2E1],"tree_param":{"num_deleted":"0","num_feature":"16","num_nodes":"53","size_leaf_vector":"0"}},{"base_weights":[7.5935223E2,7.194869E2,9.744905E2,8.2570667E2,5.7505804E2,2.3994998E2,1.7755377E3,7.1819867E2,1.6135211E3,-7.007448E1,7.097877E2,4.8484103E2,-9.420971E2,1.4296036E3,2.8764004E3,6.444177E2,1.029441E3,1.3853639E3,2.2356147E3,-3.5011716E2,1.1583909E3,8.2302704E2,2.4491998E2,6.816015E2,-1.4101707E2,-6.400924E2,-1.6320996E3,2.2263125E3,1.27285E3,4.1193687E3,1.3776066E3,4.547795E2,7.611768E2,1.763202E3,7.42842E2,-4.6852966E1,-1.3287762E3,9.10857E2,1.6930603E3,6.350273E2,1.3321268E3,6.553081E2,-4.662099E2,-2.236097E3,6.066247E2,5.172851E2,1.5993811E3,-6.3463135E0,2.0707505E3],"categories":[],"categories_nodes":[],"categories_segments":[],"categories_sizes":[],"default_left":[true,true,true,true,true,true,true,true,true,true,true,true,true,true,true,true,true,false,false,true,true,true,true,false,true,false,false,false,true,false,true,false,false,false,false,false,false,false,false,false,false,false,false,false,false,false,false,false,false],"id":23,"left_children":[1,3,5,7,9,11,13,15,17,19,21,23,25,27,29,31,33,-1,-1,35,37,39,41,-1,43,-1,-1,-1,45,-1,47,-1,-1,-1,-1,-1,-1,-1,-1,-1,-1,-1,-1,-1,-1,-1,-1,-1,-1],"loss_changes":[2.0560256E7,3.1681664E7,2.2608845E8,1.0096166E8,7.758742E7,5.8925696E7,6.59168E7,2.3730304E7,1.7305312E7,5.372102E7,3.8637024E7,2.078974E7,6.226024E6,1.4865216E7,7.437715E7,1.8728064E7,4.11448E7,0E0,0E0,3.76166E7,2.269936E6,5.5890784E7,4.291593E7,0E0,6.5593904E7,0E0,0E0,0E0,2.900408E7,0E0,2.017864E7,0E0,0E0,0E0,0E0,0E0,0E0,0E0,0E0,0E0,0E0,0E0,0E0,0E0,0E0,0E0,0E0,0E0,0E0],"parents":[2147483647,0,0,1,1,2,2,3,3,4,4,5,5,6,6,7,7,8,8,9,9,10,10,11,11,12,12,13,13,14,14,15,15,16,16,19,19,20,20,21,21,22,22,24,24,28,28,30,30],"right_children":[2,4,6,8,10,12,14,16,18,20,22,24,26,28,30,32,34,-1,-1,36,38,40,42,-1,44,-1,-1,-1,46,-1,48,-1,-1,-1,-1,-1,-1,-1,-1,-1,-1,-1,-1,-1,-1,-1,-1,-1,-1],"split_conditions":[5E-1,6.5E0,6.5E0,5.5E0,7.5E0,5.5E0,5E-1,5E-1,5E-1,5E-1,5E-1,5E-1,5E-1,7.5E0,9.5E0,1.5E0,1.5E0,1.3853639E2,2.2356148E2,5E-1,5E-1,5E-1,1.05E1,6.816015E1,1.5E0,-6.400924E1,-1.6320996E2,2.2263126E2,9.5E0,4.1193686E2,1.05E1,4.547795E1,7.611768E1,1.763202E2,7.42842E1,-4.6852965E0,-1.3287762E2,9.10857E1,1.6930603E2,6.3502728E1,1.3321269E2,6.5530815E1,-4.662099E1,-2.236097E2,6.066247E1,5.172851E1,1.5993811E2,-6.3463134E-1,2.0707506E2],"split_indices":[9,2,2,2,2,2,12,6,12,6,6,12,12,2,2,2,2,0,0,12,12,12,2,0,2,0,0,0,2,0,2,0,0,0,0,0,0,0,0,0,0,0,0,0,0,0,0,0,0],"split_type":[0,0,0,0,0,0,0,0,0,0,0,0,0,0,0,0,0,0,0,0,0,0,0,0,0,0,0,0,0,0,0,0,0,0,0,0,0,0,0,0,0,0,0,0,0,0,0,0,0],"sum_hessian":[2.48E3,2.096E3,3.84E2,1.205E3,8.91E2,2.01E2,1.83E2,1.062E3,1.43E2,1.54E2,7.37E2,1.67E2,3.4E1,1.41E2,4.2E1,8.61E2,2.01E2,1.07E2,3.6E1,1.26E2,2.8E1,5.92E2,1.45E2,1.27E2,4E1,2.5E1,9E0,2.1E1,1.2E2,2.2E1,2E1,3.3E2,5.31E2,5.5E1,1.46E2,9.7E1,2.9E1,2.1E1,7E0,4.34E2,1.58E2,9.2E1,5.3E1,1E1,3E1,3.7E1,8.3E1,7E0,1.3E1],"tree_param":{"num_deleted":"0","num_feature":"16","num_nodes":"49","size_leaf_vector":"0"}},{"base_weights":[6.841478E2,7.267405E2,4.303363E2,6.7694214E2,7.800187E2,3.1643063E2,1.2822809E3,7.196818E2,4.774745E2,7.481449E2,9.325707E2,5.642966E2,5.5350002E1,2.217947E2,2.0679873E3],"categories":[],"categories_nodes":[],"categories_segments":[],"categories_sizes":[],"default_left":[true,true,true,true,true,true,true,false,false,false,false,false,false,false,false],"id":24,"left_children":[1,3,5,7,9,11,13,-1,-1,-1,-1,-1,-1,-1,-1],"loss_changes":[2.6496512E7,5.090048E6,3.4416096E7,9.064736E6,4.24032E6,2.0541298E7,3.451413E7,0E0,0E0,0E0,0E0,0E0,0E0,0E0,0E0],"parents":[2147483647,0,0,1,1,2,2,3,3,4,4,5,5,6,6],"right_children":[2,4,6,8,10,12,14,-1,-1,-1,-1,-1,-1,-1,-1],"split_conditions":[2.0205E3,5E-1,5E-1,5E-1,5E-1,5E-1,5E-1,7.1968185E1,4.7747448E1,7.481449E1,9.325707E1,5.6429657E1,5.5350003E0,2.217947E1,2.0679874E2],"split_indices":[3,4,6,6,6,4,4,0,0,0,0,0,0,0,0],"split_type":[0,0,0,0,0,0,0,0,0,0,0,0,0,0,0],"sum_hessian":[2.48E3,2.122E3,3.58E2,1.104E3,1.018E3,3.17E2,4.1E1,9.07E2,1.97E2,8.47E2,1.71E2,1.62E2,1.55E2,1.8E1,2.3E1],"tree_param":{"num_deleted":"0","num_feature":"16","num_nodes":"15","size_leaf_vector":"0"}},{"base_weights":[6.159691E2,5.7189264E2,8.4726434E2,6.1188336E2,3.4238828E2,7.824434E2,1.02333496E3,5.591775E2,6.682472E2,1.9061209E2,6.717708E2,5.944495E2,9.7809576E2,1.172275E3,-9.7194374E1,5.257543E2,6.643265E2,6.989265E2,5.7093427E2,2.310516E2,1.5402103E2,9.954189E2,2.6824268E2,6.140482E2,4.502731E2,8.986066E2,1.5905299E3,1.4653712E3,7.6169324E2,-1.3774231E1,-1.905555E2],"categories":[],"categories_nodes":[],"categories_segments":[],"categories_sizes":[],"default_left":[true,true,true,true,true,true,true,true,true,true,true,true,true,true,true,false,false,false,false,false,false,false,false,false,false,false,false,false,false,false,false],"id":25,"left_children":[1,3,5,7,9,11,13,15,17,19,21,23,25,27,29,-1,-1,-1,-1,-1,-1,-1,-1,-1,-1,-1,-1,-1,-1,-1,-1],"loss_changes":[2.479424E7,1.8935552E7,3.689408E6,4.890048E6,1.5460964E7,1.0179808E7,1.7314536E7,2.886144E6,2.13488E6,2.787035E5,1.251926E7,1.42368E5,5.458672E6,9.812504E6,9.6578516E4,0E0,0E0,0E0,0E0,0E0,0E0,0E0,0E0,0E0,0E0,0E0,0E0,0E0,0E0,0E0,0E0],"parents":[2147483647,0,0,1,1,2,2,3,3,4,4,5,5,6,6,7,7,8,8,9,9,10,10,11,11,12,12,13,13,14,14],"right_children":[2,4,6,8,10,12,14,16,18,20,22,24,26,28,30,-1,-1,-1,-1,-1,-1,-1,-1,-1,-1,-1,-1,-1,-1,-1,-1],"split_conditions":[5E-1,2.0205E3,5E-1,5E-1,5E-1,5E-1,2.0205E3,5E-1,5E-1,5E-1,5E-1,2.0205E3,2.0205E3,5E-1,5E-1,5.2575428E1,6.643265E1,6.9892654E1,5.7093426E1,2.3105162E1,1.5402102E1,9.954189E1,2.6824268E1,6.1404823E1,4.502731E1,8.9860664E1,1.59053E2,1.4653712E2,7.616933E1,-1.3774232E0,-1.905555E1],"split_indices":[10,3,13,4,13,4,3,13,13,4,4,3,3,4,4,0,0,0,0,0,0,0,0,0,0,0,0,0,0,0,0],"split_type":[0,0,0,0,0,0,0,0,0,0,0,0,0,0,0,0,0,0,0,0,0,0,0,0,0,0,0,0,0,0,0],"sum_hessian":[2.48E3,2.086E3,3.94E2,1.775E3,3.11E2,2.92E2,1.02E2,9.23E2,8.52E2,2.14E2,9.7E1,1.51E2,1.41E2,9E1,1.2E1,7.05E2,2.18E2,6.43E2,2.09E2,9.9E1,1.15E2,5.3E1,4.4E1,1.3E2,2.1E1,1.27E2,1.4E1,5.1E1,3.9E1,7E0,5E0],"tree_param":{"num_deleted":"0","num_feature":"16","num_nodes":"31","size_leaf_vector":"0"}},{"base_weights":[5.547671E2,4.1547842E2,7.585696E2,4.9916095E2,4.4858444E1,7.9876245E2,5.61735E2,6.1487195E2,1.041387E2,-1.079892E2,8.2190845E2,6.282469E2,8.785145E2,3.1699866E2,1.9422726E3,6.913762E2,-3.495538E1,1.8926919E3,7.76367E0,1.055912E2,-1.5849434E3,1.1196737E3,2.1160428E2,8.492379E2,-5.055068E1,9.417126E2,5.858039E2,9.5512146E2,-7.004892E2,2.3203013E3,1.451798E3,5.3881476E2,8.474364E2,-1.6839967E2,3.4580743E2,-8.0135803E2,2.9704675E2,-6.233822E2,2.6310596E2,-2.0817107E3,-9.8184656E2,6.389519E2,1.2947949E3,7.1146014E2,1.4284978E3,1.9069844E2,-1.0681007E3,1.0087886E3,7.090224E2,2.730099E2,1.7937135E3,1.7097855E3,6.7864233E2,-3.1728714E2,-1.1932245E3],"categories":[],"categories_nodes":[],"categories_segments":[],"categories_sizes":[],"default_left":[true,true,true,true,true,true,true,true,true,true,true,true,true,true,true,true,true,false,true,true,true,true,false,true,true,true,true,true,true,false,false,false,false,false,false,false,false,false,false,false,false,false,false,false,false,false,false,false,false,false,false,false,false,false,false],"id":26,"left_children":[1,3,5,7,9,11,13,15,17,19,21,23,25,27,29,31,33,-1,35,37,39,41,-1,43,45,47,49,51,53,-1,-1,-1,-1,-1,-1,-1,-1,-1,-1,-1,-1,-1,-1,-1,-1,-1,-1,-1,-1,-1,-1,-1,-1,-1,-1],"loss_changes":[7.010214E7,4.5749456E7,7.496512E6,5.4961696E7,3.252018E7,1.076096E7,5.815069E7,4.6314976E7,4.719619E7,7.241985E7,7.92749E6,4.0403136E7,9.884832E6,9.741465E7,1.414416E6,1.9362208E7,5.0867115E6,0E0,6.132402E7,2.3240052E7,6.613808E6,1.678888E6,0E0,1.516352E7,1.6659824E7,6.494048E6,3.84058E7,1.8011472E7,1.0557698E7,0E0,0E0,0E0,0E0,0E0,0E0,0E0,0E0,0E0,0E0,0E0,0E0,0E0,0E0,0E0,0E0,0E0,0E0,0E0,0E0,0E0,0E0,0E0,0E0,0E0,0E0],"parents":[2147483647,0,0,1,1,2,2,3,3,4,4,5,5,6,6,7,7,8,8,9,9,10,10,11,11,12,12,13,13,14,14,15,15,16,16,18,18,19,19,20,20,21,21,23,23,24,24,25,25,26,26,27,27,28,28],"right_children":[2,4,6,8,10,12,14,16,18,20,22,24,26,28,30,32,34,-1,36,38,40,42,-1,44,46,48,50,52,54,-1,-1,-1,-1,-1,-1,-1,-1,-1,-1,-1,-1,-1,-1,-1,-1,-1,-1,-1,-1,-1,-1,-1,-1,-1,-1],"split_conditions":[1.85E1,5E-1,5E-1,5E-1,1.55E1,2.25E1,2.95E1,1.65E1,1.5E0,1.35E1,1.75E1,2.15E1,2.95E1,2.55E1,3.05E1,8.5E0,5E-1,1.892692E2,5.5E0,2.5E0,1.45E1,1.65E1,2.1160429E1,5E-1,5E-1,5E-1,5E-1,2.05E1,2.75E1,2.3203014E2,1.451798E2,5.3881477E1,8.4743645E1,-1.6839968E1,3.4580746E1,-8.01358E1,2.9704676E1,-6.2338223E1,2.6310596E1,-2.0817107E2,-9.8184654E1,6.389519E1,1.2947949E2,7.114602E1,1.4284978E2,1.9069845E1,-1.06810074E2,1.0087886E2,7.0902245E1,2.730099E1,1.7937135E2,1.7097856E2,6.7864235E1,-3.1728714E1,-1.1932245E2],"split_indices":[1,8,8,7,1,1,1,1,1,1,1,1,1,1,1,1,10,0,1,1,1,1,0,10,7,10,10,1,1,0,0,0,0,0,0,0,0,0,0,0,0,0,0,0,0,0,0,0,0,0,0,0,0,0,0],"split_type":[0,0,0,0,0,0,0,0,0,0,0,0,0,0,0,0,0,0,0,0,0,0,0,0,0,0,0,0,0,0,0,0,0,0,0,0,0,0,0,0,0,0,0,0,0,0,0,0,0,0,0,0,0,0,0],"sum_hessian":[2.48E3,1.475E3,1.005E3,1.203E3,2.72E2,8.32E2,1.73E2,9.3E2,2.73E2,2.28E2,4.4E1,2.68E2,5.64E2,1.48E2,2.5E1,8.32E2,9.8E1,1.3E1,2.6E2,2E2,2.8E1,2.9E1,1.5E1,2.02E2,6.6E1,4.62E2,1.02E2,9.1E1,5.7E1,1.2E1,1.3E1,4.23E2,4.09E2,7.3E1,2.5E1,6.8E1,1.92E2,3.5E1,1.65E2,1.4E1,1.4E1,9E0,2E1,1.65E2,3.7E1,5.4E1,1.2E1,3.56E2,1.06E2,8.2E1,2E1,2.3E1,6.8E1,3.3E1,2.4E1],"tree_param":{"num_deleted":"0","num_feature":"16","num_nodes":"55","size_leaf_vector":"0"}},{"base_weights":[4.9975314E2,3.7404605E2,6.836835E2,9.565652E1,4.087642E2,6.4840295E2,8.521095E2,-1.6866237E2,2.1361416E3,6.4100104E2,3.287866E2,9.027257E2,6.239704E2,7.3920636E2,1.6228837E3,1.02720314E2,-3.679382E2,1.2654309E3,4.319046E3,9.3834283E2,-1.7874417E2,-2.7623547E2,4.5103455E2,1.0287664E3,4.4125748E2,4.3338345E2,6.932874E2,9.088918E2,2.4178808E1,8.7191406E2,3.8496038E3,-4.5902383E2,1.9315698E3,9.324554E1,-1.478909E3,1.568031E3,5.4852563E2,1.0758464E3,1.3228575E2,-4.05631E2,7.507827E2,-5.676159E2,1.4588586E3,4.959479E2,-5.6968765E1,9.1620734E2,1.354919E3,6.8954193E2,-1.2718766E2,7.653879E2,-9.7161975E2,4.992132E2,1.4916201E3,1.5597833E3,4.3508127E2,-1.4050563E3,7.0409174E2,1.5427523E3,-6.134146E2],"categories":[],"categories_nodes":[],"categories_segments":[],"categories_sizes":[],"default_left":[true,true,true,true,true,true,true,true,true,true,true,true,true,true,true,true,true,true,false,true,true,true,true,true,true,true,true,true,true,true,false,false,false,false,false,false,false,false,false,false,false,false,false,false,false,false,false,false,false,false,false,false,false,false,false,false,false,false,false],"id":27,"left_children":[1,3,5,7,9,11,13,15,17,19,21,23,25,27,29,31,33,35,-1,37,39,41,43,45,47,49,51,53,55,57,-1,-1,-1,-1,-1,-1,-1,-1,-1,-1,-1,-1,-1,-1,-1,-1,-1,-1,-1,-1,-1,-1,-1,-1,-1,-1,-1,-1,-1],"loss_changes":[5.709779E7,1.4221648E7,5.410304E6,8.937086E7,2.414832E7,4.61616E6,1.3657632E7,7.990209E6,3.0591584E7,8.182971E7,7.246189E7,3.660976E6,9.807872E6,1.828948E7,3.171244E7,6.562413E7,4.37025E7,2.372762E6,0E0,2.7111216E7,1.9281858E7,8.423862E7,1.8604976E7,7.55028E5,2.492638E6,9.730034E7,8.599949E7,3.6926136E7,3.0134942E7,1.78947E7,0E0,0E0,0E0,0E0,0E0,0E0,0E0,0E0,0E0,0E0,0E0,0E0,0E0,0E0,0E0,0E0,0E0,0E0,0E0,0E0,0E0,0E0,0E0,0E0,0E0,0E0,0E0,0E0,0E0],"parents":[2147483647,0,0,1,1,2,2,3,3,4,4,5,5,6,6,7,7,8,8,9,9,10,10,11,11,12,12,13,13,14,14,15,15,16,16,17,17,19,19,20,20,21,21,22,22,23,23,24,24,25,25,26,26,27,27,28,28,29,29],"right_children":[2,4,6,8,10,12,14,16,18,20,22,24,26,28,30,32,34,36,-1,38,40,42,44,46,48,50,52,54,56,58,-1,-1,-1,-1,-1,-1,-1,-1,-1,-1,-1,-1,-1,-1,-1,-1,-1,-1,-1,-1,-1,-1,-1,-1,-1,-1,-1,-1,-1],"split_conditions":[1.85E1,2.5E0,5E-1,5E-1,6.5E0,1.95E1,2.95E1,1.5E0,5E-1,5E-1,8.5E0,5E-1,2.25E1,5E-1,5E-1,5E-1,5E-1,1.5E0,4.319046E2,5E-1,5E-1,5E-1,1.75E1,5E-1,5E-1,5E-1,5E-1,2.35E1,2.25E1,3.05E1,3.849604E2,-4.5902386E1,1.9315698E2,9.3245535E0,-1.4789091E2,1.568031E2,5.4852566E1,1.0758465E2,1.3228576E1,-4.0563103E1,7.507827E1,-5.6761593E1,1.4588586E2,4.959479E1,-5.6968765E0,9.1620735E1,1.354919E2,6.895419E1,-1.2718766E1,7.653879E1,-9.716198E1,4.992132E1,1.4916202E2,1.5597833E2,4.350813E1,-1.4050563E2,7.040917E1,1.5427524E2,-6.134146E1],"split_indices":[1,1,10,10,1,1,1,1,14,14,1,11,1,14,14,14,14,1,0,11,11,11,1,14,14,11,11,1,1,1,0,0,0,0,0,0,0,0,0,0,0,0,0,0,0,0,0,0,0,0,0,0,0,0,0,0,0,0,0],"split_type":[0,0,0,0,0,0,0,0,0,0,0,0,0,0,0,0,0,0,0,0,0,0,0,0,0,0,0,0,0,0,0,0,0,0,0,0,0,0,0,0,0,0,0,0,0,0,0,0,0,0,0,0,0,0,0,0,0,0,0],"sum_hessian":[2.48E3,1.475E3,1.005E3,1.64E2,1.311E3,8.35E2,1.7E2,1.46E2,1.8E1,3.34E2,9.77E2,7E1,7.65E2,1.5E2,2E1,6.2E1,8.4E1,1.4E1,4E0,2.45E2,8.9E1,1.64E2,8.13E2,5.4E1,1.6E1,2.06E2,5.59E2,1.21E2,2.9E1,1.6E1,4E0,4.8E1,1.4E1,6E1,2.4E1,9E0,5E0,2.09E2,3.6E1,7.2E1,1.7E1,1.41E2,2.3E1,7.47E2,6.6E1,4.3E1,1.1E1,1.1E1,5E0,1.67E2,3.9E1,4.51E2,1.08E2,5E1,7.1E1,9E0,2E1,1.1E1,5E0],"tree_param":{"num_deleted":"0","num_feature":"16","num_nodes":"59","size_leaf_vector":"0"}},{"base_weights":[4.5059235E2,4.349355E2,2.034922E3,3.6168155E2,6.616591E2,4.8043975E3,1.0527233E3,4.2118805E2,-3.2944247E2,5.0588312E2,1.5975764E3,1.5489445E3,6.042388E3,-2.3304302E3,1.8333414E3,4.034874E2,3.1223762E3,-2.5744187E3,1.7001492E2,2.5870608E3,4.296239E2,1.0832134E3,3.0208335E3,4.567763E3,1.1157267E3,7.292474E2,3.1375858E2,2.0408029E3,4.502429E3,-1.0627186E3,-4.3746504E3,3.869673E3,-2.313897E2,3.4192463E1,3.565534E3,4.604476E2,-3.4897126E3,1.7820927E3,-7.792195E1,1.7109656E3,4.17425E3,2.0915889E2,4.366756E3],"categories":[],"categories_nodes":[],"categories_segments":[],"categories_sizes":[],"default_left":[true,true,true,true,true,true,true,true,true,true,true,false,false,false,true,true,true,true,true,true,true,true,true,false,true,false,false,false,false,false,false,false,false,false,false,false,false,false,false,false,false,false,false],"id":28,"left_children":[1,3,5,7,9,11,13,15,17,19,21,-1,-1,-1,23,25,27,29,31,33,35,37,39,-1,41,-1,-1,-1,-1,-1,-1,-1,-1,-1,-1,-1,-1,-1,-1,-1,-1,-1,-1],"loss_changes":[6.063293E7,4.057392E7,6.0167944E7,7.663475E7,8.650106E7,1.4746064E7,5.444557E7,8.060832E7,1.6640968E8,8.059348E7,5.891277E7,0E0,0E0,0E0,2.6242968E7,4.9539584E7,7.164912E6,6.87747E7,1.8210909E8,4.4804504E7,6.1739104E7,5.209147E7,2.6037264E7,0E0,4.030279E7,0E0,0E0,0E0,0E0,0E0,0E0,0E0,0E0,0E0,0E0,0E0,0E0,0E0,0E0,0E0,0E0,0E0,0E0],"parents":[2147483647,0,0,1,1,2,2,3,3,4,4,5,5,6,6,7,7,8,8,9,9,10,10,14,14,15,15,16,16,17,17,18,18,19,19,20,20,21,21,22,22,24,24],"right_children":[2,4,6,8,10,12,14,16,18,20,22,-1,-1,-1,24,26,28,30,32,34,36,38,40,-1,42,-1,-1,-1,-1,-1,-1,-1,-1,-1,-1,-1,-1,-1,-1,-1,-1,-1,-1],"split_conditions":[1.022E2,7.8535E1,1.0253E2,7.216E1,5E-1,1.0228999E2,1.0269501E2,7.181E1,7.3215E1,7.931E1,5E-1,1.5489445E2,6.0423883E2,-2.3304301E2,1.02854996E2,1.722E1,7.208E1,7.2875E1,7.344E1,5E-1,1.01905E2,9.5705E1,5E-1,4.5677634E2,1.03395004E2,7.2924736E1,3.1375858E1,2.0408029E2,4.5024292E2,-1.06271866E2,-4.3746506E2,3.8696732E2,-2.313897E1,3.4192464E0,3.565534E2,4.604476E1,-3.4897128E2,1.7820927E2,-7.7921953E0,1.7109656E2,4.1742502E2,2.091589E1,4.366756E2],"split_indices":[0,0,0,0,11,0,0,0,0,0,13,0,0,0,0,0,0,0,0,5,0,0,5,0,0,0,0,0,0,0,0,0,0,0,0,0,0,0,0,0,0,0,0],"split_type":[0,0,0,0,0,0,0,0,0,0,0,0,0,0,0,0,0,0,0,0,0,0,0,0,0,0,0,0,0,0,0,0,0,0,0,0,0,0,0,0,0,0,0],"sum_hessian":[2.48E3,2.457E3,2.3E1,1.859E3,5.98E2,5E0,1.8E1,1.712E3,1.47E2,5.14E2,8.4E1,2E0,3E0,3E0,1.5E1,1.702E3,1E1,2.6E1,1.21E2,1.7E1,4.97E2,6.3E1,2.1E1,2E0,1.3E1,3.66E2,1.336E3,7E0,3E0,1.5E1,1.1E1,1.1E1,1.1E2,5E0,1.2E1,4.94E2,3E0,3.9E1,2.4E1,1.1E1,1E1,1.1E1,2E0],"tree_param":{"num_deleted":"0","num_feature":"16","num_nodes":"43","size_leaf_vector":"0"}},{"base_weights":[4.0667938E2,3.920113E2,1.8915739E3,4.5246112E2,1.1294373E2,7.1308887E2,4.1581577E3,5.3524426E2,1.5568059E2,1.9733617E3,5.741117E-1,2.8100747E3,6.230085E1,-6.2677014E2,5.7130914E2,4.966111E3,1.1147238E2,6.749402E2,3.8524998E3,-5.225683E2,4.319785E2,7.681787E2,3.231314E3,-1.0270323E3,1.6875839E3,1.810904E2,-2.2544343E3,1.2382817E3,5.1425464E2,-3.3567844E2,5.1192883E2,1.5940612E3,-3.8359375E3,5.6144326E3,1.7404725E3,1.2992807E1,-1.4256998E3,2.7043535E3,2.0043114E2,-1.7335638E3,9.6055206E2,2.826565E3,-3.902523E2],"categories":[],"categories_nodes":[],"categories_segments":[],"categories_sizes":[],"default_left":[true,true,true,true,true,true,false,true,true,true,true,true,true,true,true,false,true,true,true,true,true,false,false,true,true,false,false,false,false,false,false,false,false,false,false,false,false,false,false,false,false,false,false],"id":29,"left_children":[1,3,5,7,9,11,-1,13,15,17,19,21,23,25,27,-1,29,31,33,35,37,-1,-1,39,41,-1,-1,-1,-1,-1,-1,-1,-1,-1,-1,-1,-1,-1,-1,-1,-1,-1,-1],"loss_changes":[5.3273216E7,4.140867E7,6.1093384E7,4.953795E7,9.175403E7,2.2995994E7,0E0,6.6530176E7,9.339157E7,5.835235E7,9.38845E7,9.18286E5,2.6526452E7,6.3545416E7,5.7644096E7,0E0,7.878289E7,7.242897E7,2.7367184E7,9.09649E7,1.1939395E8,0E0,0E0,1.4311529E7,1.5327134E7,0E0,0E0,0E0,0E0,0E0,0E0,0E0,0E0,0E0,0E0,0E0,0E0,0E0,0E0,0E0,0E0,0E0,0E0],"parents":[2147483647,0,0,1,1,2,2,3,3,4,4,5,5,7,7,8,8,9,9,10,10,11,11,12,12,13,13,14,14,16,16,17,17,18,18,19,19,20,20,23,23,24,24],"right_children":[2,4,6,8,10,12,-1,14,16,18,20,22,24,26,28,-1,30,32,34,36,38,-1,-1,40,42,-1,-1,-1,-1,-1,-1,-1,-1,-1,-1,-1,-1,-1,-1,-1,-1,-1,-1],"split_conditions":[1.022E2,5E-1,5E-1,5E-1,7.54E0,1.02494995E2,4.1581577E2,5.495E0,4.235E0,6.0299997E0,5.2559998E1,1.02225E2,1.0331E2,5E-1,1.2389999E1,4.9661108E2,5.3614998E1,5.825E0,6.7E0,3.6695E1,5.6025E1,7.681787E1,3.231314E2,5E-1,5E-1,1.810904E1,-2.2544344E2,1.2382818E2,5.1425465E1,-3.3567844E1,5.1192883E1,1.5940611E2,-3.8359375E2,5.614433E2,1.7404726E2,1.2992808E0,-1.4256999E2,2.7043536E2,2.0043114E1,-1.7335638E2,9.605521E1,2.826565E2,-3.902523E1],"split_indices":[0,8,7,7,0,0,0,0,0,0,0,0,0,11,0,0,0,0,0,0,0,0,0,11,8,0,0,0,0,0,0,0,0,0,0,0,0,0,0,0,0,0,0],"split_type":[0,0,0,0,0,0,0,0,0,0,0,0,0,0,0,0,0,0,0,0,0,0,0,0,0,0,0,0,0,0,0,0,0,0,0,0,0,0,0,0,0,0,0],"sum_hessian":[2.48E3,2.457E3,2.3E1,2.019E3,4.38E2,1.6E1,7E0,1.578E3,4.41E2,2.4E1,4.14E2,3E0,1.3E1,4.7E1,1.531E3,3E0,4.38E2,1.5E1,9E0,1.87E2,2.27E2,1E0,2E0,8E0,5E0,3.2E1,1.5E1,1.19E2,1.412E3,2.07E2,2.31E2,1.3E1,2E0,4E0,5E0,1.18E2,6.9E1,2E1,2.07E2,6E0,2E0,3E0,2E0],"tree_param":{"num_deleted":"0","num_feature":"16","num_nodes":"43","size_leaf_vector":"0"}},{"base_weights":[3.6687146E2,2.5116954E2,5.3625433E2,6.265489E0,2.8177014E2,8.379156E1,6.5911865E2,8.4707227E2,-5.4862964E2,4.9235245E2,2.0933984E2,5.61339E2,-2.1837218E2,7.8689514E2,3.420564E2,5.5406335E2,2.4315156E3,-1.384531E3,1.2706149E3,3.2111102E2,1.0815746E3,-3.3733908E2,3.1990823E2,1.2317897E2,2.5679963E3,-9.0053856E1,-1.1504465E3,6.3729584E2,1.9853132E3,-1.2068291E3,4.641174E2,-3.095407E2,8.988733E2,1.2188887E3,4.8513486E3,-1.5599269E3,3.90393E2,2.608872E3,2.1712991E2,1.0228185E3,-6.046663E1,5.751855E2,3.6913516E3,-1.2048287E3,2.2418733E2,2.8145206E2,9.275332E2,-3.9746185E2,7.192751E2,1.917467E3,3.8750854E3,1.4628379E1,-6.7299005E2,4.8071863E2,-3.9508416E3,5.748563E2,2.0396078E3,3.2724907E3,1.3841387E3,-3.691424E2,-4.989653E3,3.0360132E2,1.1505094E3],"categories":[],"categories_nodes":[],"categories_segments":[],"categories_sizes":[],"default_left":[true,true,true,true,true,true,true,true,true,true,true,true,true,true,true,true,true,true,true,true,true,true,true,true,true,true,true,true,true,true,true,false,false,false,false,false,false,false,false,false,false,false,false,false,false,false,false,false,false,false,false,false,false,false,false,false,false,false,false,false,false,false,false],"id":30,"left_children":[1,3,5,7,9,11,13,15,17,19,21,23,25,27,29,31,33,35,37,39,41,43,45,47,49,51,53,55,57,59,61,-1,-1,-1,-1,-1,-1,-1,-1,-1,-1,-1,-1,-1,-1,-1,-1,-1,-1,-1,-1,-1,-1,-1,-1,-1,-1,-1,-1,-1,-1,-1,-1],"loss_changes":[4.8479904E7,1.1056816E7,5.586243E7,7.745004E7,1.9901248E7,3.1294272E7,3.1765408E7,2.9263816E7,1.5383125E8,3.3439904E7,5.9223356E7,7.351268E7,1.5791086E7,9.964458E7,4.384709E7,1.725755E7,2.3369596E7,2.2101368E7,4.451995E7,6.995576E7,9.6951304E7,8.065445E7,1.8747544E7,2.2013742E7,5.266224E6,7.21715E6,7.502045E7,4.2756336E7,4.3400576E7,5.1974484E7,2.3103852E7,0E0,0E0,0E0,0E0,0E0,0E0,0E0,0E0,0E0,0E0,0E0,0E0,0E0,0E0,0E0,0E0,0E0,0E0,0E0,0E0,0E0,0E0,0E0,0E0,0E0,0E0,0E0,0E0,0E0,0E0,0E0,0E0],"parents":[2147483647,0,0,1,1,2,2,3,3,4,4,5,5,6,6,7,7,8,8,9,9,10,10,11,11,12,12,13,13,14,14,15,15,16,16,17,17,18,18,19,19,20,20,21,21,22,22,23,23,24,24,25,25,26,26,27,27,28,28,29,29,30,30],"right_children":[2,4,6,8,10,12,14,16,18,20,22,24,26,28,30,32,34,36,38,40,42,44,46,48,50,52,54,56,58,60,62,-1,-1,-1,-1,-1,-1,-1,-1,-1,-1,-1,-1,-1,-1,-1,-1,-1,-1,-1,-1,-1,-1,-1,-1,-1,-1,-1,-1,-1,-1,-1,-1],"split_conditions":[1.85E1,2.5E0,1.5E0,3.5E0,6.5E0,2.35E1,9.5E0,5E-1,9.5E0,5.5E0,8.5E0,2.25E1,3.05E1,8.5E0,1.95E1,1.5E0,1.5E0,5E-1,1.05E1,3.5E0,5E-1,4.5E0,1.15E1,2.05E1,5E-1,5E-1,5E-1,3.05E1,2.15E1,5E-1,5E-1,-3.0954071E1,8.988733E1,1.2188887E2,4.8513486E2,-1.5599269E2,3.9039303E1,2.608872E2,2.1712992E1,1.0228185E2,-6.046663E0,5.751855E1,3.6913516E2,-1.2048287E2,2.2418734E1,2.8145206E1,9.275332E1,-3.9746185E1,7.192751E1,1.917467E2,3.8750854E2,1.4628379E0,-6.7299E1,4.8071865E1,-3.9508417E2,5.7485634E1,2.0396078E2,3.2724908E2,1.3841386E2,-3.691424E1,-4.989653E2,3.0360132E1,1.1505094E2],"split_indices":[1,1,2,2,1,1,2,10,2,1,1,1,1,2,1,2,1,10,2,2,10,2,2,1,13,10,13,1,1,10,10,0,0,0,0,0,0,0,0,0,0,0,0,0,0,0,0,0,0,0,0,0,0,0,0,0,0,0,0,0,0,0,0],"split_type":[0,0,0,0,0,0,0,0,0,0,0,0,0,0,0,0,0,0,0,0,0,0,0,0,0,0,0,0,0,0,0,0,0,0,0,0,0,0,0,0,0,0,0,0,0,0,0,0,0,0,0,0,0,0,0,0,0,0,0,0,0,0,0],"sum_hessian":[2.48E3,1.475E3,1.005E3,1.64E2,1.311E3,2.15E2,7.9E2,6.5E1,9.9E1,3.34E2,9.77E2,8.3E1,1.32E2,5.62E2,2.28E2,5.6E1,9E0,6.8E1,3.1E1,2.6E2,7.4E1,1.64E2,8.13E2,6.9E1,1.4E1,1.17E2,1.5E1,5.01E2,6.1E1,1.6E1,2.12E2,1.6E1,4E1,7E0,2E0,6.2E1,6E0,1.3E1,1.8E1,9.1E1,1.69E2,6.3E1,1.1E1,6.4E1,1E2,7.66E2,4.7E1,3.7E1,3.2E1,1.1E1,3E0,1E2,1.7E1,1E1,5E0,4.81E2,2E1,1.8E1,4.3E1,1.4E1,2E0,1.73E2,3.9E1],"tree_param":{"num_deleted":"0","num_feature":"16","num_nodes":"63","size_leaf_vector":"0"}},{"base_weights":[3.3096042E2,3.171965E2,1.7264083E3,2.1575815E2,4.6461905E2,-8.701465E2,2.6408235E3,2.3592007E3,1.8581053E2,1.2734879E3,2.5851764E2,1.3302687E3,-2.0183663E3,5.2974785E3,1.7556608E3,-2.4375288E3,2.7404775E3,-2.1393913E2,3.7749326E2,9.772391E2,3.7939668E3,3.141828E2,-1.3443591E3,-1.5997928E3,2.3957146E3,3.3286797E3,1.2551769E3,-1.415885E2,-3.505204E3,1.4536146E3,2.5529497E2,1.5700747E3,-6.309053E2,4.1188853E3,-1.3472034E3,7.934124E1,1.0343053E3,-3.8749463E3,-8.6616296E2,8.944662E2,4.616819E3],"categories":[],"categories_nodes":[],"categories_segments":[],"categories_sizes":[],"default_left":[true,true,true,true,true,true,true,true,true,true,true,false,false,false,true,false,true,true,true,true,true,true,true,false,true,false,false,false,false,false,false,false,false,false,false,false,false,false,false,false,false],"id":31,"left_children":[1,3,5,7,9,11,13,15,17,19,21,-1,-1,-1,23,-1,25,27,29,31,33,35,37,-1,39,-1,-1,-1,-1,-1,-1,-1,-1,-1,-1,-1,-1,-1,-1,-1,-1],"loss_changes":[4.7084096E7,3.665061E7,5.929952E7,9.312665E7,1.665312E8,2.0377772E7,3.2957184E7,4.326065E7,1.1034592E8,1.4782253E8,7.170234E7,0E0,0E0,0E0,3.6055668E7,0E0,1.2375568E7,1.10671656E8,1.2756149E8,1.7546582E8,4.0656416E7,1.3063246E8,2.9269412E7,0E0,3.916288E7,0E0,0E0,0E0,0E0,0E0,0E0,0E0,0E0,0E0,0E0,0E0,0E0,0E0,0E0,0E0,0E0],"parents":[2147483647,0,0,1,1,2,2,3,3,4,4,5,5,6,6,7,7,8,8,9,9,10,10,14,14,16,16,17,17,18,18,19,19,20,20,21,21,22,22,24,24],"right_children":[2,4,6,8,10,12,14,16,18,20,22,-1,-1,-1,24,-1,26,28,30,32,34,36,38,-1,40,-1,-1,-1,-1,-1,-1,-1,-1,-1,-1,-1,-1,-1,-1,-1,-1],"split_conditions":[1.022E2,1.85E1,4.5E0,4.38E0,2.3544998E1,1.0245E2,1.0253E2,3E0,3.4295E1,2.114E1,9.989E1,1.3302687E2,-2.0183664E2,5.2974786E2,1.0269501E2,-2.4375288E2,3.8649998E0,3.3510002E1,4.0885002E1,2.75E1,5E-1,8.2455E1,1.00225E2,-1.599793E2,1.3E1,3.3286798E2,1.2551769E2,-1.4158851E1,-3.5052042E2,1.4536147E2,2.5529497E1,1.5700748E2,-6.3090527E1,4.1188852E2,-1.3472034E2,7.934124E0,1.03430534E2,-3.8749463E2,-8.6616295E1,8.944662E1,4.616819E2],"split_indices":[0,1,1,0,0,0,0,1,0,0,0,0,0,0,0,0,0,0,0,1,8,0,0,0,1,0,0,0,0,0,0,0,0,0,0,0,0,0,0,0,0],"split_type":[0,0,0,0,0,0,0,0,0,0,0,0,0,0,0,0,0,0,0,0,0,0,0,0,0,0,0,0,0,0,0,0,0,0,0,0,0,0,0,0,0],"sum_hessian":[2.48E3,2.457E3,2.3E1,1.457E3,1E3,6E0,1.7E1,1.9E1,1.438E3,2.02E2,7.98E2,2E0,4E0,3E0,1.4E1,1E0,1.8E1,4.66E2,9.72E2,1.82E2,2E1,7.72E2,2.6E1,2E0,1.2E1,1.2E1,6E0,4.57E2,9E0,9.8E1,8.74E2,1.33E2,4.9E1,1.9E1,1E0,5.83E2,1.89E2,3E0,2.3E1,8E0,4E0],"tree_param":{"num_deleted":"0","num_feature":"16","num_nodes":"41","size_leaf_vector":"0"}},{"base_weights":[2.9822043E2,2.4707576E2,6.2172906E2,2.8707632E2,-7.37189E2,3.242636E3,5.6456616E2,2.62814E2,2.4250696E3,-1.4685535E3,-1.2997545E2,3.9733782E3,-5.659082E2,-3.3405994E3,6.1035974E2,2.3080309E2,8.683465E2,-1.8009016E2,3.1592854E3,-2.4048818E3,-3.0171936E1,3.355306E2,-2.4425088E3,-3.8198162E3,-9.4647437E2,5.806546E2,3.6414365E3,2.4543112E2,-1.7963231E3,1.3734576E3,-7.4193396E2,-1.1791321E3,1.2086625E3,4.0154526E3,7.7604266E2,-1.5054296E3,-3.6356487E3,2.891811E3,-9.276919E2,4.867836E3,-3.0299875E2,-3.7946655E3,3.506294E3,7.046787E2,-2.1200047E2],"categories":[],"categories_nodes":[],"categories_segments":[],"categories_sizes":[],"default_left":[true,true,true,true,true,true,true,true,true,true,true,false,false,true,true,true,true,true,true,true,true,true,true,false,false,true,false,false,false,false,false,false,false,false,false,false,false,false,false,false,false,false,false,false,false],"id":32,"left_children":[1,3,5,7,9,11,13,15,17,19,21,-1,-1,23,25,27,29,31,33,35,37,39,41,-1,-1,43,-1,-1,-1,-1,-1,-1,-1,-1,-1,-1,-1,-1,-1,-1,-1,-1,-1,-1,-1],"loss_changes":[4.088768E7,8.461886E7,4.876993E7,1.0624549E8,3.7097076E7,2.1764088E7,6.138376E7,3.931184E7,4.4591984E7,5.108139E7,5.1436024E7,0E0,0E0,9.262E5,2.746608E7,5.789263E7,8.398913E7,9.749409E6,3.3564096E7,1.9936736E7,4.4623676E7,1.1728099E8,7.76578E7,0E0,0E0,3.230116E7,0E0,0E0,0E0,0E0,0E0,0E0,0E0,0E0,0E0,0E0,0E0,0E0,0E0,0E0,0E0,0E0,0E0,0E0,0E0],"parents":[2147483647,0,0,1,1,2,2,3,3,4,4,5,5,6,6,7,7,8,8,9,9,10,10,13,13,14,14,15,15,16,16,17,17,18,18,19,19,20,20,21,21,22,22,25,25],"right_children":[2,4,6,8,10,12,14,16,18,20,22,-1,-1,24,26,28,30,32,34,36,38,40,42,-1,-1,44,-1,-1,-1,-1,-1,-1,-1,-1,-1,-1,-1,-1,-1,-1,-1,-1,-1,-1,-1],"split_conditions":[9.014E1,8.683E1,9.047E1,8.5945E1,5.5E0,5E-1,9.0625E1,8.15E1,1.5E0,8.8270004E1,5E-1,3.9733783E2,-5.659082E1,9.0615005E1,1.03395004E2,8.09E1,8.5065E1,8.647E1,5E-1,5E-1,8.8375E1,8.728E1,1.15E1,-3.8198163E2,-9.464744E1,1.05E1,3.6414365E2,2.4543112E1,-1.7963231E2,1.3734576E2,-7.41934E1,-1.1791321E2,1.2086625E2,4.0154526E2,7.760427E1,-1.5054295E2,-3.6356488E2,2.8918112E2,-9.276919E1,4.867836E2,-3.0299875E1,-3.7946655E2,3.506294E2,7.046787E1,-2.1200048E1],"split_indices":[0,0,0,0,2,12,0,0,2,0,12,0,0,0,0,0,0,0,12,10,0,0,2,0,0,2,0,0,0,0,0,0,0,0,0,0,0,0,0,0,0,0,0,0,0],"split_type":[0,0,0,0,0,0,0,0,0,0,0,0,0,0,0,0,0,0,0,0,0,0,0,0,0,0,0,0,0,0,0,0,0,0,0,0,0,0,0,0,0,0,0,0,0],"sum_hessian":[2.48E3,2.143E3,3.37E2,2.06E3,8.3E1,6E0,3.31E2,2.038E3,2.2E1,3.7E1,4.6E1,5E0,1E0,3E0,3.28E2,1.937E3,1.01E2,5E0,1.7E1,2.2E1,1.5E1,3.9E1,7E0,2E0,1E0,3.26E2,2E0,1.924E3,1.3E1,7.7E1,2.4E1,3E0,2E0,1.2E1,5E0,1.4E1,8E0,3E0,1.2E1,4E0,3.5E1,6E0,1E0,2.82E2,4.4E1],"tree_param":{"num_deleted":"0","num_feature":"16","num_nodes":"45","size_leaf_vector":"0"}},{"base_weights":[2.6871112E2,3.202611E2,3.275935E1,2.937546E2,4.331403E2,-6.0401123E1,2.8356558E2,2.5340704E2,4.2148495E2,3.909914E2,5.630168E2,2.0897995E2,3.9769284E2,5.78212E2,-1.679176E1],"categories":[],"categories_nodes":[],"categories_segments":[],"categories_sizes":[],"default_left":[true,true,true,true,true,false,false,true,true,false,false,false,false,false,false],"id":33,"left_children":[1,3,5,7,9,-1,-1,11,13,-1,-1,-1,-1,-1,-1],"loss_changes":[3.0163152E7,5.95728E6,1.044025E7,8.400208E6,1.877872E6,0E0,0E0,7.974848E6,2.71478E7,0E0,0E0,0E0,0E0,0E0,0E0],"parents":[2147483647,0,0,1,1,2,2,3,3,4,4,7,7,8,8],"right_children":[2,4,6,8,10,-1,-1,12,14,-1,-1,-1,-1,-1,-1],"split_conditions":[5E-1,5E-1,5E-1,5E-1,5E-1,-6.0401125E0,2.8356558E1,5E-1,5E-1,3.909914E1,5.6301678E1,2.0897995E1,3.9769283E1,5.7821198E1,-1.679176E0],"split_indices":[8,9,12,10,12,0,0,12,12,0,0,0,0,0,0],"split_type":[0,0,0,0,0,0,0,0,0,0,0,0,0,0,0],"sum_hessian":[2.48E3,2.035E3,4.45E2,1.651E3,3.84E2,3.25E2,1.2E2,1.257E3,3.94E2,2.93E2,9.1E1,9.63E2,2.94E2,2.9E2,1.04E2],"tree_param":{"num_deleted":"0","num_feature":"16","num_nodes":"15","size_leaf_vector":"0"}},{"base_weights":[2.4193562E2,2.8834058E2,2.9531187E1,3.5635248E2,2.25249E2,1.3428288E2,-3.9803006E2,2.616355E2,7.50321E2,3.022581E2,-8.1990265E1,5.5897163E1,2.0765163E2,-7.710371E2,1.0024675E1,8.248502E2,2.91962E2,3.639672E2,-1.324628E2,-3.1086258E2,1.131804E3],"categories":[],"categories_nodes":[],"categories_segments":[],"categories_sizes":[],"default_left":[true,true,true,true,true,true,true,false,true,true,true,false,false,false,false,false,false,false,false,false,false],"id":34,"left_children":[1,3,5,7,9,11,13,-1,15,17,19,-1,-1,-1,-1,-1,-1,-1,-1,-1,-1],"loss_changes":[2.4442576E7,8.650336E6,2.0026156E7,3.6288144E7,2.5083156E7,2.0503885E6,1.340958E7,0E0,6.204464E6,2.2772352E7,5.9515852E7,0E0,0E0,0E0,0E0,0E0,0E0,0E0,0E0,0E0,0E0],"parents":[2147483647,0,0,1,1,2,2,3,3,4,4,5,5,6,6,8,8,9,9,10,10],"right_children":[2,4,6,8,10,12,14,-1,16,18,20,-1,-1,-1,-1,-1,-1,-1,-1,-1,-1],"split_conditions":[5E-1,5E-1,2.0205E3,5E-1,5E-1,5E-1,5E-1,2.616355E1,2.0205E3,2.0205E3,2.0205E3,5.5897164E0,2.0765163E1,-7.7103714E1,1.0024675E0,8.248502E1,2.9196201E1,3.639672E1,-1.324628E1,-3.1086258E1,1.131804E2],"split_indices":[8,5,3,11,11,5,5,0,3,3,3,0,0,0,0,0,0,0,0,0,0],"split_type":[0,0,0,0,0,0,0,0,0,0,0,0,0,0,0,0,0,0,0,0,0],"sum_hessian":[2.48E3,2.035E3,4.45E2,9.77E2,1.058E3,3.58E2,8.7E1,7.89E2,1.88E2,8.46E2,2.12E2,1.74E2,1.84E2,4.5E1,4.2E1,1.61E2,2.7E1,7.41E2,1.05E2,1.79E2,3.3E1],"tree_param":{"num_deleted":"0","num_feature":"16","num_nodes":"21","size_leaf_vector":"0"}},{"base_weights":[2.1782172E2,1.2301983E2,3.5668826E2,2.150526E2,3.9257484E1,2.816582E2,4.2851093E2,3.1930023E2,-8.956302E1,-9.328981E1,4.6181775E2,7.733721E1,3.8355405E2,7.318154E2,3.3478305E2,1.0077469E3,2.6945343E2,-3.822857E3,3.889028E1,-1.9831486E1,-5.6121375E2,-9.722176E2,7.6816644E2,-1.3777336E2,7.3676636E2,5.115724E2,1.6943135E2,4.6352206E2,1.5209115E3,4.554952E2,-1.8617449E1,1.8058759E3,-5.2273468E1,-1.1159271E3,3.5904553E2,1.1706957E3,-3.3859705E2,-1.2886784E2,1.9388618E2,-1.194702E3,-2.6820624E2,-1.2473186E3,-3.8601428E2,1.3432747E3,-6.417217E2,-5.125213E2,4.816613E2,1.9621089E3,3.7995276E2,1.9761673E2,1.5406844E3,5.558369E2,-1.3980244E3,1.5828857E2,1.1442871E3,1.8004392E3,7.8081226E2,2.8772937E2,1.2272998E3,-1.4786719E3,1.401778E2],"categories":[],"categories_nodes":[],"categories_segments":[],"categories_sizes":[],"default_left":[true,true,true,true,true,true,true,true,true,true,true,true,true,true,true,true,true,false,true,true,true,true,true,true,true,true,true,true,true,true,true,false,false,false,false,false,false,false,false,false,false,false,false,false,false,false,false,false,false,false,false,false,false,false,false,false,false,false,false,false,false],"id":35,"left_children":[1,3,5,7,9,11,13,15,17,19,21,23,25,27,29,31,33,-1,35,37,39,41,43,45,47,49,51,53,55,57,59,-1,-1,-1,-1,-1,-1,-1,-1,-1,-1,-1,-1,-1,-1,-1,-1,-1,-1,-1,-1,-1,-1,-1,-1,-1,-1,-1,-1,-1,-1],"loss_changes":[3.2613224E7,1.1367322E7,5.2934E6,2.235498E7,4.3397904E7,1.0271356E7,1.4299512E7,1.7697724E7,8.6506216E7,2.0263078E7,8.201803E7,2.3654626E7,8.952352E6,2.4680292E7,1.6778128E7,2.9723088E7,6.1211492E7,0E0,7.51721E7,1.1932166E7,1.4514288E7,4.823932E6,1.2492728E8,2.9495784E7,1.7157044E7,6.6235836E7,7.647786E7,1.8714944E7,4.774736E6,3.757008E7,2.363748E7,0E0,0E0,0E0,0E0,0E0,0E0,0E0,0E0,0E0,0E0,0E0,0E0,0E0,0E0,0E0,0E0,0E0,0E0,0E0,0E0,0E0,0E0,0E0,0E0,0E0,0E0,0E0,0E0,0E0,0E0],"parents":[2147483647,0,0,1,1,2,2,3,3,4,4,5,5,6,6,7,7,8,8,9,9,10,10,11,11,12,12,13,13,14,14,15,15,16,16,18,18,19,19,20,20,21,21,22,22,23,23,24,24,25,25,26,26,27,27,28,28,29,29,30,30],"right_children":[2,4,6,8,10,12,14,16,18,20,22,24,26,28,30,32,34,-1,36,38,40,42,44,46,48,50,52,54,56,58,60,-1,-1,-1,-1,-1,-1,-1,-1,-1,-1,-1,-1,-1,-1,-1,-1,-1,-1,-1,-1,-1,-1,-1,-1,-1,-1,-1,-1,-1,-1],"split_conditions":[1.85E1,5E-1,5E-1,5E-1,5E-1,2.25E1,2.15E1,1.5E0,1.5E0,1.55E1,4.5E0,5E-1,2.75E1,5E-1,5E-1,5E-1,2.5E0,-3.822857E2,5.5E0,5E-1,1.65E1,3.5E0,1.45E1,5E-1,1.95E1,5E-1,5E-1,5E-1,2.05E1,2.95E1,2.25E1,1.8058759E2,-5.227347E0,-1.1159271E2,3.5904552E1,1.1706957E2,-3.3859707E1,-1.2886785E1,1.9388618E1,-1.1947021E2,-2.6820623E1,-1.24731865E2,-3.860143E1,1.3432747E2,-6.417217E1,-5.1252132E1,4.816613E1,1.9621089E2,3.7995277E1,1.9761673E1,1.5406845E2,5.558369E1,-1.3980244E2,1.5828857E1,1.1442871E2,1.8004393E2,7.808123E1,2.8772938E1,1.2272998E2,-1.4786719E2,1.4017779E1],"split_indices":[1,5,5,13,13,1,1,1,1,1,1,15,1,15,15,15,1,0,1,15,1,1,1,13,1,13,13,13,1,1,1,0,0,0,0,0,0,0,0,0,0,0,0,0,0,0,0,0,0,0,0,0,0,0,0,0,0,0,0,0,0],"split_type":[0,0,0,0,0,0,0,0,0,0,0,0,0,0,0,0,0,0,0,0,0,0,0,0,0,0,0,0,0,0,0,0,0,0,0,0,0,0,0,0,0,0,0,0,0,0,0,0,0,0,0,0,0,0,0,0,0,0,0,0,0],"sum_hessian":[2.48E3,1.475E3,1.005E3,7.02E2,7.73E2,4.94E2,5.11E2,5.23E2,1.79E2,5.89E2,1.84E2,1.65E2,3.29E2,1.19E2,3.92E2,3.4E1,4.89E2,5E0,1.74E2,5.1E2,7.9E1,3.2E1,1.52E2,1.25E2,4E1,2.05E2,1.24E2,9E1,2.9E1,2.92E2,1E2,1.9E1,1.5E1,2.9E1,4.6E2,4.3E1,1.31E2,3.38E2,1.72E2,2.4E1,5.5E1,2.1E1,1.1E1,1.08E2,4.4E1,7.8E1,4.7E1,8E0,3.2E1,1.58E2,4.7E1,1E2,2.4E1,6.3E1,2.7E1,2E1,9E0,2.41E2,5.1E1,9E0,9.1E1],"tree_param":{"num_deleted":"0","num_feature":"16","num_nodes":"61","size_leaf_vector":"0"}},{"base_weights":[1.9615984E2,1.838284E2,1.4505138E3,-2.8029421E3,1.8862402E2,-9.013639E2,2.2851045E3,1.703728E2,-3.8541714E3,1.5612119E3,1.7271336E2,1.1892089E3,-1.9774348E3,4.8531133E3,1.4472952E3,2.2913079E3,-5.491918E2,-1.4138651E3,1.9651366E2,-1.6052614E3,2.0411702E3,-2.3163862E3,2.638012E3,-1.7423114E3,5.131423E2,-2.8785383E3,4.76076E1,3.665186E3,1.8625508E2,6.7700507E2,4.086433E3],"categories":[],"categories_nodes":[],"categories_segments":[],"categories_sizes":[],"default_left":[true,true,true,true,true,true,true,false,false,true,true,false,false,false,true,true,true,true,true,false,true,false,false,false,false,false,false,false,false,false,false],"id":36,"left_children":[1,3,5,7,9,11,13,-1,-1,15,17,-1,-1,-1,19,21,23,25,27,-1,29,-1,-1,-1,-1,-1,-1,-1,-1,-1,-1],"loss_changes":[3.8093064E7,3.5709536E7,4.918207E7,1.3196026E7,5.3327224E7,1.8106698E7,3.1640128E7,0E0,0E0,4.441811E7,9.194947E7,0E0,0E0,0E0,3.0473524E7,3.966151E7,1.1046278E7,7.722622E7,8.443047E7,0E0,3.3456824E7,0E0,0E0,0E0,0E0,0E0,0E0,0E0,0E0,0E0,0E0],"parents":[2147483647,0,0,1,1,2,2,3,3,4,4,5,5,6,6,9,9,10,10,14,14,15,15,16,16,17,17,18,18,20,20],"right_children":[2,4,6,8,10,12,14,-1,-1,16,18,-1,-1,-1,20,22,24,26,28,-1,30,-1,-1,-1,-1,-1,-1,-1,-1,-1,-1],"split_conditions":[1.022E2,3.315E0,4.5E0,1.8E1,4.27E0,1.0245E2,1.0253E2,1.7037281E1,-3.8541714E2,2.35E1,5.51E0,1.1892089E2,-1.9774348E2,4.8531134E2,1.0269501E2,3E0,3.54E0,1.35E1,5.825E0,-1.6052614E2,1.3E1,-2.3163863E2,2.638012E2,-1.7423114E2,5.1314228E1,-2.8785385E2,4.7607603E0,3.6651862E2,1.862551E1,6.770051E1,4.086433E2],"split_indices":[0,0,1,1,0,0,0,0,0,1,0,0,0,0,0,1,0,1,0,0,1,0,0,0,0,0,0,0,0,0,0],"split_type":[0,0,0,0,0,0,0,0,0,0,0,0,0,0,0,0,0,0,0,0,0,0,0,0,0,0,0,0,0,0,0],"sum_hessian":[2.48E3,2.457E3,2.3E1,3E0,2.454E3,6E0,1.7E1,1E0,2E0,2.7E1,2.427E3,2E0,4E0,3E0,1.4E1,2E1,7E0,3.5E1,2.392E3,2E0,1.2E1,1E0,1.9E1,3E0,4E0,1.7E1,1.8E1,6E0,2.386E3,8E0,4E0],"tree_param":{"num_deleted":"0","num_feature":"16","num_nodes":"31","size_leaf_vector":"0"}},{"base_weights":[1.7669203E2,1.0900101E2,3.78812E2,1.24958336E2,-2.1670103E3,1.9342731E3,3.2923822E2,-2.7204712E1,2.9981216E2,-3.493829E3,-1.1879987E3,-1.5769092E2,2.6933809E3,-8.295345E2,3.828154E2,1.3983221E3,-7.020479E1,2.6824026E2,4.107327E3,1.424477E3,-2.733316E3,2.489891E3,-1.1871855E3,3.2323364E3,1.0747937E3,-3.0432952E3,3.9350195E3,2.8834656E3,3.470921E2,6.9302374E2,4.6431494E3,-3.5368958E3,-2.2631355E1,4.8028894E2,-4.9061945E2,1.7947002E3,1.5190381E2,2.2922607E1,-3.2911482E3,-1.9932605E3,1.0135571E3,1.2940653E3,4.307173E3,-5.7541504E1,2.8070674E3,-2.0154841E3,-4.2033496E3,5.182924E3,-3.0191084E3,-1.8477701E1,3.8555261E3,-1.054198E3,3.868107E2],"categories":[],"categories_nodes":[],"categories_segments":[],"categories_sizes":[],"default_left":[true,true,true,true,true,true,true,true,true,false,true,true,true,true,true,true,true,true,false,true,true,false,true,true,true,true,true,true,true,false,false,false,false,false,false,false,false,false,false,false,false,false,false,false,false,false,false,false,false,false,false,false,false],"id":37,"left_children":[1,3,5,7,9,11,13,15,17,-1,19,21,23,25,27,29,31,33,-1,35,37,-1,39,41,43,45,47,49,51,-1,-1,-1,-1,-1,-1,-1,-1,-1,-1,-1,-1,-1,-1,-1,-1,-1,-1,-1,-1,-1,-1,-1,-1],"loss_changes":[3.3898144E7,6.780382E7,4.7303016E7,4.917931E7,1.2689144E7,3.0622584E7,3.7811704E7,6.0708376E7,1.02235576E8,0E0,4.0240572E7,1.9296966E7,8.695688E6,2.9675123E8,5.060049E7,6.30974E7,1.5837478E8,1.3765712E8,0E0,1.5924565E6,9.333236E6,0E0,1.0899898E7,1.5203472E7,9.996591E6,1.4120048E7,9.377224E7,2.2676532E7,3.2181416E7,0E0,0E0,0E0,0E0,0E0,0E0,0E0,0E0,0E0,0E0,0E0,0E0,0E0,0E0,0E0,0E0,0E0,0E0,0E0,0E0,0E0,0E0,0E0,0E0],"parents":[2147483647,0,0,1,1,2,2,3,3,4,4,5,5,6,6,7,7,8,8,10,10,11,11,12,12,13,13,14,14,15,15,16,16,17,17,19,19,20,20,22,22,23,23,24,24,25,25,26,26,27,27,28,28],"right_children":[2,4,6,8,10,12,14,16,18,-1,20,22,24,26,28,30,32,34,-1,36,38,-1,40,42,44,46,48,50,52,-1,-1,-1,-1,-1,-1,-1,-1,-1,-1,-1,-1,-1,-1,-1,-1,-1,-1,-1,-1,-1,-1,-1,-1],"split_conditions":[7.8535E1,7.7795E1,7.931E1,1.65E1,7.803E1,5E-1,8.0270004E1,4.9449997E0,7.7165E1,-3.493829E2,7.825E1,1E1,5E-1,2.15E1,8.0520004E1,4.6899996E0,5.51E0,6.05E1,4.1073273E2,7.817E1,8.5E0,2.4898912E2,7.9005005E1,7E0,7.9145004E1,1.55E1,8.016499E1,8.0365005E1,1.5E0,6.9302376E1,4.6431494E2,-3.5368958E2,-2.2631357E0,4.8028896E1,-4.9061947E1,1.7947002E2,1.5190381E1,2.292261E0,-3.2911484E2,-1.9932605E2,1.0135571E2,1.2940654E2,4.307173E2,-5.7541504E0,2.8070676E2,-2.0154842E2,-4.2033496E2,5.182924E2,-3.0191086E2,-1.8477701E0,3.855526E2,-1.054198E2,3.8681072E1],"split_indices":[0,0,0,1,0,5,0,0,0,0,0,1,8,1,0,0,0,0,0,0,1,0,0,1,0,1,0,0,1,0,0,0,0,0,0,0,0,0,0,0,0,0,0,0,0,0,0,0,0,0,0,0,0],"split_type":[0,0,0,0,0,0,0,0,0,0,0,0,0,0,0,0,0,0,0,0,0,0,0,0,0,0,0,0,0,0,0,0,0,0,0,0,0,0,0,0,0,0,0,0,0,0,0,0,0,0,0,0,0],"sum_hessian":[2.48E3,1.859E3,6.21E2,1.847E3,1.2E1,1.8E1,6.03E2,9.88E2,8.59E2,4E0,8E0,5E0,1.3E1,2.6E1,5.77E2,2.8E1,9.6E2,8.53E2,6E0,3E0,5E0,1E0,4E0,9E0,4E0,1.8E1,8E0,7E0,5.7E2,2.4E1,4E0,1.2E1,9.48E2,6.67E2,1.86E2,2E0,1E0,1E0,4E0,3E0,1E0,4E0,5E0,3E0,1E0,1.1E1,7E0,7E0,1E0,2E0,5E0,1.5E1,5.55E2],"tree_param":{"num_deleted":"0","num_feature":"16","num_nodes":"53","size_leaf_vector":"0"}},{"base_weights":[1.59428E2,8.424302E1,2.695707E2,1.40689E2,-1.6497018E2,-1.2652456E2,3.7740512E2,1.6516547E2,-4.045427E2,-2.9448804E2,4.9757553E2,1.0491721E2,-1.008557E3,4.909845E2,9.647675E1,2.476403E2,2.1153067E1,-6.9510144E2,4.569617E3,-9.262266E1,-1.6831244E3,2.2662332E2,4.212032E3,4.0622925E2,-3.971846E2,9.94149E1,-1.685162E3,3.578617E2,1.5607693E3,-1.3370505E3,2.1048373E2,-4.7384758E1,5.2185406E2,3.150037E2,-3.050769E2,3.625098E2,-9.68817E2,4.2939496E2,-4.135245E2,-2.5626006E3,2.4314058E2,7.005746E2,-3.5135215E3,-4.449878E2,7.706231E2,-2.0061885E2,-1.3429965E3,-1.6323846E3,2.0137017E3,-3.6877163E3,-8.415621E2,3.0398248E2,1.5770005E3,1.917443E3,-8.432471E1,-5.644858E2,-4.7508574E3,6.486604E1,8.384086E2],"categories":[],"categories_nodes":[],"categories_segments":[],"categories_sizes":[],"default_left":[true,true,true,true,true,true,true,true,true,true,true,true,true,true,true,true,true,true,false,true,true,true,false,true,true,true,true,true,true,true,true,false,false,false,false,false,false,false,false,false,false,false,false,false,false,false,false,false,false,false,false,false,false,false,false,false,false,false,false],"id":38,"left_children":[1,3,5,7,9,11,13,15,17,19,21,23,25,27,29,31,33,35,-1,37,39,41,-1,43,45,47,49,51,53,55,57,-1,-1,-1,-1,-1,-1,-1,-1,-1,-1,-1,-1,-1,-1,-1,-1,-1,-1,-1,-1,-1,-1,-1,-1,-1,-1,-1,-1],"loss_changes":[2.0519112E7,2.0785984E7,4.301923E7,1.6132216E7,2.3571038E7,4.420891E7,2.518572E7,1.3686714E7,7.829246E7,6.401907E7,4.4290884E7,2.61832E7,3.3918052E7,7.960064E7,3.769612E7,5.932912E7,4.045447E7,1.4831502E7,0E0,3.3848204E7,4.9775296E7,7.865715E7,0E0,3.384543E7,1.1799558E7,6.2963844E7,4.415319E7,3.2476304E7,3.655925E7,4.2100628E7,1.941266E7,0E0,0E0,0E0,0E0,0E0,0E0,0E0,0E0,0E0,0E0,0E0,0E0,0E0,0E0,0E0,0E0,0E0,0E0,0E0,0E0,0E0,0E0,0E0,0E0,0E0,0E0,0E0,0E0],"parents":[2147483647,0,0,1,1,2,2,3,3,4,4,5,5,6,6,7,7,8,8,9,9,10,10,11,11,12,12,13,13,14,14,15,15,16,16,17,17,19,19,20,20,21,21,23,23,24,24,25,25,26,26,27,27,28,28,29,29,30,30],"right_children":[2,4,6,8,10,12,14,16,18,20,22,24,26,28,30,32,34,36,-1,38,40,42,-1,44,46,48,50,52,54,56,58,-1,-1,-1,-1,-1,-1,-1,-1,-1,-1,-1,-1,-1,-1,-1,-1,-1,-1,-1,-1,-1,-1,-1,-1,-1,-1,-1,-1],"split_conditions":[1.85E1,5E-1,1.5E0,1.75E1,1.55E1,5E-1,9.5E0,7.5E0,1.15E1,1.35E1,1.15E1,2.65E1,2.35E1,8.5E0,1.95E1,8.5E0,9.5E0,1.5E0,4.5696173E2,3.5E0,6.5E0,1.05E1,4.2120322E2,2.05E1,3.05E1,2.15E1,2.55E1,3.05E1,5E-1,5E-1,5E-1,-4.738476E0,5.2185406E1,3.150037E1,-3.050769E1,3.625098E1,-9.688171E1,4.2939495E1,-4.135245E1,-2.5626007E2,2.4314058E1,7.005746E1,-3.5135214E2,-4.449878E1,7.706231E1,-2.0061886E1,-1.3429965E2,-1.6323846E2,2.0137016E2,-3.6877164E2,-8.415621E1,3.0398249E1,1.5770006E2,1.9174431E2,-8.432471E0,-5.6448578E1,-4.7508575E2,6.486604E0,8.3840866E1],"split_indices":[1,8,2,1,1,8,2,2,2,1,2,1,1,2,1,1,1,2,0,2,2,2,0,1,1,1,1,1,10,10,10,0,0,0,0,0,0,0,0,0,0,0,0,0,0,0,0,0,0,0,0,0,0,0,0,0,0,0,0],"split_type":[0,0,0,0,0,0,0,0,0,0,0,0,0,0,0,0,0,0,0,0,0,0,0,0,0,0,0,0,0,0,0,0,0,0,0,0,0,0,0,0,0,0,0,0,0,0,0,0,0,0,0,0,0,0,0,0,0,0,0],"sum_hessian":[2.48E3,1.475E3,1.005E3,1.203E3,2.72E2,2.15E2,7.9E2,1.152E3,5.1E1,2.28E2,4.4E1,1.71E2,4.4E1,5.62E2,2.28E2,7.32E2,4.2E2,4.9E1,2E0,2E2,2.8E1,4.2E1,2E0,1.07E2,6.4E1,1.7E1,2.7E1,5.01E2,6.1E1,1.6E1,2.12E2,3.53E2,3.79E2,2.21E2,1.99E2,1E1,3.9E1,7.6E1,1.24E2,1.9E1,9E0,3.8E1,4E0,3.2E1,7.5E1,5.4E1,1E1,9E0,8E0,7E0,2E1,4.81E2,2E1,5E1,1.1E1,1.4E1,2E0,1.73E2,3.9E1],"tree_param":{"num_deleted":"0","num_feature":"16","num_nodes":"59","size_leaf_vector":"0"}},{"base_weights":[1.4338315E2,1.80295E2,-2.5419353E1,1.301497E2,3.281219E2,9.864148E1,-3.9197598E2,1.561341E2,-4.847616E1,2.8316534E2,5.725256E2,1.5498538E2,-1.7771368E2,-2.3471613E2,-7.8239264E2,1.1429187E2,2.3814014E2,3.070923E2,-5.591248E2,2.6466364E2,-8.471384E1,-3.68288E2,1.6604646E2],"categories":[],"categories_nodes":[],"categories_segments":[],"categories_sizes":[],"default_left":[true,true,true,true,true,true,true,true,true,false,false,true,true,false,false,false,false,false,false,false,false,false,false],"id":39,"left_children":[1,3,5,7,9,11,13,15,17,-1,-1,19,21,-1,-1,-1,-1,-1,-1,-1,-1,-1,-1],"loss_changes":[1.5464776E7,1.504522E7,2.0323592E7,7.072986E6,5.487908E6,5.2280055E6,6.744036E6,4.529478E6,3.5398908E7,0E0,0E0,7.332781E6,3.797351E6,0E0,0E0,0E0,0E0,0E0,0E0,0E0,0E0,0E0,0E0],"parents":[2147483647,0,0,1,1,2,2,3,3,4,4,5,5,6,6,7,7,8,8,11,11,12,12],"right_children":[2,4,6,8,10,12,14,16,18,-1,-1,20,22,-1,-1,-1,-1,-1,-1,-1,-1,-1,-1],"split_conditions":[5E-1,5E-1,5E-1,2.0205E3,2.0205E3,2.0205E3,2.0205E3,5E-1,5E-1,2.8316534E1,5.725256E1,5E-1,5E-1,-2.3471613E1,-7.8239265E1,1.1429187E1,2.3814014E1,3.0709229E1,-5.5912483E1,2.6466364E1,-8.471384E0,-3.68288E1,1.6604647E1],"split_indices":[8,13,13,3,3,3,3,15,15,0,0,15,15,0,0,0,0,0,0,0,0,0,0],"split_type":[0,0,0,0,0,0,0,0,0,0,0,0,0,0,0,0,0,0,0,0,0,0,0],"sum_hessian":[2.48E3,2.035E3,4.45E2,1.521E3,5.14E2,3.33E2,1.12E2,1.328E3,1.93E2,4.36E2,7.8E1,2.77E2,5.6E1,8.1E1,3.1E1,8.81E2,4.47E2,1.14E2,7.9E1,1.9E2,8.7E1,3.6E1,2E1],"tree_param":{"num_deleted":"0","num_feature":"16","num_nodes":"23","size_leaf_vector":"0"}},{"base_weights":[1.2904195E2,1.6570338E2,-3.722031E1,1.8864655E2,9.285494E1,-6.773646E1,7.124826E1,1.7402696E2,2.1778328E2,7.9598755E1,1.3617111E2,2.0060802E2,6.143505E1,1.568991E2,4.9762222E2],"categories":[],"categories_nodes":[],"categories_segments":[],"categories_sizes":[],"default_left":[true,true,true,true,true,false,false,true,true,false,false,false,false,false,false],"id":40,"left_children":[1,3,5,7,9,-1,-1,11,13,-1,-1,-1,-1,-1,-1],"loss_changes":[1.5130176E7,3.377568E6,1.4910005E6,6.163E5,2.677905E5,0E0,0E0,3.079624E6,8.638714E6,0E0,0E0,0E0,0E0,0E0,0E0],"parents":[2147483647,0,0,1,1,2,2,3,3,4,4,7,7,8,8],"right_children":[2,4,6,8,10,-1,-1,12,14,-1,-1,-1,-1,-1,-1],"split_conditions":[5E-1,5E-1,5E-1,5E-1,5E-1,-6.773646E0,7.124826E0,5E-1,5E-1,7.9598756E0,1.3617111E1,2.0060802E1,6.143505E0,1.568991E1,4.9762222E1],"split_indices":[7,14,12,12,11,0,0,11,11,0,0,0,0,0,0],"split_type":[0,0,0,0,0,0,0,0,0,0,0,0,0,0,0],"sum_hessian":[2.48E3,2.032E3,4.48E2,1.544E3,4.88E2,3.5E2,9.8E1,1.033E3,5.11E2,3.76E2,1.12E2,8.35E2,1.98E2,4.21E2,9E1],"tree_param":{"num_deleted":"0","num_feature":"16","num_nodes":"15","size_leaf_vector":"0"}},{"base_weights":[1.16185555E2,4.878808E1,2.1494548E2,-3.0682522E1,4.8623062E2,2.7455237E2,-1.0424691E2,-6.943177E1,2.9796213E2,6.580014E2,-2.945632E3,5.8383344E2,1.8128494E2,-5.90658E2,9.9954663E2,-2.6440897E0,-3.5511E2,-1.7507227E1,5.95279E2,-1.9420122E1,1.596293E3,-3.8324E3,-1.5662589E3,5.341273E2,7.761869E2,-7.878631E2,2.9345352E2,8.8698074E1,-1.1910854E3,1.4270515E3,2.4890453E2,4.0028555E2,-3.1128347E1,-5.1056918E2,1.3285231E2,4.6833813E2,-1.5353048E3,2.8844098E2,2.1581267E3,-1.1557917E3,3.5946854E2,1.9405114E3,-4.348019E2,3.5782404E2,6.9935986E2,3.0649246E2,1.5587708E3,-1.0619227E3,-5.432917E2,6.4364417E2,1.1713426E2,1.314061E3,-1.0519496E3,-1.803356E3,-6.875525E2,6.679027E2,2.5725454E3,1.932275E3,-4.8960455E2],"categories":[],"categories_nodes":[],"categories_segments":[],"categories_sizes":[],"default_left":[true,true,true,true,true,true,true,true,true,true,true,true,true,true,true,true,true,true,true,true,true,false,false,true,true,true,true,true,true,true,true,false,false,false,false,false,false,false,false,false,false,false,false,false,false,false,false,false,false,false,false,false,false,false,false,false,false,false,false],"id":41,"left_children":[1,3,5,7,9,11,13,15,17,19,21,23,25,27,29,31,33,35,37,39,41,-1,-1,43,45,47,49,51,53,55,57,-1,-1,-1,-1,-1,-1,-1,-1,-1,-1,-1,-1,-1,-1,-1,-1,-1,-1,-1,-1,-1,-1,-1,-1,-1,-1,-1,-1],"loss_changes":[1.6500834E7,5.1330876E7,1.9170548E7,1.5936821E7,1.3573043E8,2.4347792E7,8.5953E7,2.1345764E7,1.2397055E7,1.3797606E8,7.398504E6,1.446296E6,7.121254E7,4.5394012E7,1.5352296E7,1.0430023E7,1.6153552E7,4.8661676E7,3.1961834E7,5.510434E7,6.4480576E7,0E0,0E0,4.371016E6,1.3471456E7,3.964864E6,3.6099776E7,7.546344E7,1.69248E7,2.5206992E7,2.458098E7,0E0,0E0,0E0,0E0,0E0,0E0,0E0,0E0,0E0,0E0,0E0,0E0,0E0,0E0,0E0,0E0,0E0,0E0,0E0,0E0,0E0,0E0,0E0,0E0,0E0,0E0,0E0,0E0],"parents":[2147483647,0,0,1,1,2,2,3,3,4,4,5,5,6,6,7,7,8,8,9,9,10,10,11,11,12,12,13,13,14,14,15,15,16,16,17,17,18,18,19,19,20,20,23,23,24,24,25,25,26,26,27,27,28,28,29,29,30,30],"right_children":[2,4,6,8,10,12,14,16,18,20,22,24,26,28,30,32,34,36,38,40,42,-1,-1,44,46,48,50,52,54,56,58,-1,-1,-1,-1,-1,-1,-1,-1,-1,-1,-1,-1,-1,-1,-1,-1,-1,-1,-1,-1,-1,-1,-1,-1,-1,-1,-1,-1],"split_conditions":[1.85E1,5E-1,5E-1,1.65E1,1.75E1,2.15E1,2.65E1,1.35E1,5E-1,9.5E0,5E-1,5E-1,2.25E1,5E-1,2.95E1,1.5E0,5E-1,5E-1,5E-1,2.5E0,1.65E1,-3.8324E2,-1.566259E2,5E-1,2.05E1,5E-1,2.55E1,2.25E1,2.15E1,2.85E1,5E-1,4.0028557E1,-3.1128347E0,-5.105692E1,1.3285232E1,4.6833813E1,-1.5353049E2,2.8844099E1,2.1581267E2,-1.1557918E2,3.5946854E1,1.9405113E2,-4.348019E1,3.5782406E1,6.993599E1,3.0649246E1,1.5587708E2,-1.06192276E2,-5.432917E1,6.436442E1,1.1713427E1,1.3140611E2,-1.0519496E2,-1.803356E2,-6.875525E1,6.6790276E1,2.5725455E2,1.9322751E2,-4.8960457E1],"split_indices":[1,9,9,1,1,1,1,1,4,1,4,10,1,4,1,1,10,10,10,1,1,0,0,4,1,4,1,1,1,1,4,0,0,0,0,0,0,0,0,0,0,0,0,0,0,0,0,0,0,0,0,0,0,0,0,0,0,0,0],"split_type":[0,0,0,0,0,0,0,0,0,0,0,0,0,0,0,0,0,0,0,0,0,0,0,0,0,0,0,0,0,0,0,0,0,0,0,0,0,0,0,0,0,0,0,0,0,0,0,0,0,0,0,0,0,0,0,0,0,0,0],"sum_hessian":[2.48E3,1.475E3,1.005E3,1.249E3,2.26E2,8.47E2,1.58E2,1.118E3,1.31E2,2.16E2,1E1,1.95E2,6.52E2,1.1E2,4.8E1,9.07E2,2.11E2,6.4E1,6.7E1,1.26E2,9E1,5E0,5E0,1.58E2,3.7E1,6.7E1,5.85E2,5.2E1,5.8E1,3E1,1.8E1,5.9E1,8.48E2,1.6E2,5.1E1,4.9E1,1.5E1,5.7E1,1E1,3.1E1,9.5E1,7.7E1,1.3E1,7.8E1,8E1,2.4E1,1.3E1,3E1,3.7E1,1.95E2,3.9E2,2.5E1,2.7E1,2.5E1,3.3E1,1.9E1,1.1E1,5E0,1.3E1],"tree_param":{"num_deleted":"0","num_feature":"16","num_nodes":"59","size_leaf_vector":"0"}},{"base_weights":[1.046172E2,-1.853273E1,1.4945161E2,1.4028105E2,-4.987724E2,1.0902661E2,2.1604417E2,2.4135317E1,7.9643646E2,-6.82292E2,5.5582916E2,1.4340955E2,-3.3370822E2,2.6326297E2,-4.3218975E0,2.2972943E2,-1.5786893E2,1.3609902E3,-1.5518448E3,-8.8316736E2,-4.8834854E2,-3.1083112E2,8.463972E2,9.431773E1,3.0927338E2,-4.987129E2,3.259398E2,3.2381604E2,-1.1390805E1,-3.8018835E2,1.3977307E3,-8.193796E1,1.5187137E3,-2.9316832E1,-9.359873E2,1.9059088E3,-4.6087784E1,-4.0327792E2,