{"learner":{"attributes":{"scikit_learn":"{\"n_estimators\": 100, \"objective\": \"reg:squarederror\", \"max_depth\": 5, \"learning_rate\": 0.1, \"verbosity\": null, \"booster\": null, \"tree_method\": null, \"gamma\": null, \"min_child_weight\": null, \"max_delta_step\": null, \"subsample\": null, \"colsample_bytree\": 0.3, \"colsample_bylevel\": null, \"colsample_bynode\": null, \"reg_alpha\": null, \"reg_lambda\": null, \"scale_pos_weight\": null, \"base_score\": null, \"missing\": NaN, \"num_parallel_tree\": null, \"kwargs\": {\"alpha\": 10}, \"random_state\": null, \"n_jobs\": null, \"monotone_constraints\": null, \"interaction_constraints\": null, \"importance_type\": \"gain\", \"gpu_id\": null, \"validate_parameters\": null, \"_estimator_type\": \"regressor\"}"},"feature_names":["Amount spent (MYR)","Day","Month","Year","camp_CNY Campaign","camp_None","camp_Raya Campaign","camp_Year End Campaign","gdr_female","gdr_male","age_13-17","age_25-34","age_35-44","age_45-54","age_55-64","age_65+","dis_0","dis_20","dis_50","dis_70"],"feature_types":["float","int","int","int","int","int","int","int","int","int","int","int","int","int","int","int","int","int","int","int"],"gradient_booster":{"model":{"gbtree_model_param":{"num_trees":"100","size_leaf_vector":"0"},"tree_info":[0,0,0,0,0,0,0,0,0,0,0,0,0,0,0,0,0,0,0,0,0,0,0,0,0,0,0,0,0,0,0,0,0,0,0,0,0,0,0,0,0,0,0,0,0,0,0,0,0,0,0,0,0,0,0,0,0,0,0,0,0,0,0,0,0,0,0,0,0,0,0,0,0,0,0,0,0,0,0,0,0,0,0,0,0,0,0,0,0,0,0,0,0,0,0,0,0,0,0,0],"trees":[{"base_weights":[6.7352295E3,7.004605E3,4.6776094E3,4.3294336E3,8.3568125E3,4.664365E3,2.878762E3,1.126125E3,3.10775E3],"categories":[],"categories_nodes":[],"categories_segments":[],"categories_sizes":[],"default_left":[true,false,true,true,false,false,true,false,false],"id":0,"left_children":[1,-1,3,5,-1,-1,7,-1,-1],"loss_changes":[4.5543424E8,0E0,9.819904E7,3.411277E7,0E0,0E0,4.885936E6,0E0,0E0],"parents":[2147483647,0,0,2,2,3,3,6,6],"right_children":[2,-1,4,6,-1,-1,8,-1,-1],"split_conditions":[2.0205E3,7.004605E2,5E-1,2.5E0,8.356813E2,4.6643652E2,3.5E0,1.126125E2,3.10775E2],"split_indices":[3,0,10,2,0,0,2,0,0],"split_type":[0,0,0,0,0,0,0,0,0],"sum_hessian":[8.8E2,7.76E2,1.04E2,9.7E1,7E0,7.7E1,2E1,3E0,1.7E1],"tree_param":{"num_deleted":"0","num_feature":"20","num_nodes":"9","size_leaf_vector":"0"}},{"base_weights":[6.0644644E3,4.330879E3,6.3507036E3,3.0045881E3,6.2113306E3,7.0625146E3,6.0983696E3,2.608422E3,4.932286E3,5.629716E3,9.144608E3,6.607097E3,7.6786665E3,1.6977482E3,6.1426274E3,1.7650051E3,3.018273E3,5.729842E3,5.570198E2,8.1074824E3,6.0892124E3,9.426752E3,6.871422E3,2.2602317E3,1.9102635E2,8.310034E3,6.0999927E3,4.6473594E3,1.2912748E3,6.343535E3,2.6100398E3,6.4090776E3,4.6327373E3,8.63693E2,7.0816436E3,-2.3498026E2,5.265198E2,2.843533E3,6.1245874E3],"categories":[],"categories_nodes":[],"categories_segments":[],"categories_sizes":[],"default_left":[true,true,true,true,true,true,true,true,false,true,false,true,true,true,true,true,true,false,false,false,true,false,true,false,true,false,true,false,false,false,false,false,false,false,false,false,false,false,false],"id":1,"left_children":[1,3,5,7,9,11,13,15,-1,17,-1,19,21,23,25,27,29,-1,-1,-1,31,-1,33,-1,35,-1,37,-1,-1,-1,-1,-1,-1,-1,-1,-1,-1,-1,-1],"loss_changes":[4.0955904E8,3.0048077E8,9.222963E7,4.5863104E7,3.708467E7,2.719744E6,9.933824E7,1.7439424E7,0E0,2.0109312E7,0E0,4.140237E7,4.089651E7,5.476266E6,7.29088E5,2.6710608E7,4.172531E7,0E0,0E0,0E0,1.259264E7,0E0,6.3266816E7,0E0,5.554044E5,0E0,2.6626048E7,0E0,0E0,0E0,0E0,0E0,0E0,0E0,0E0,0E0,0E0,0E0,0E0],"parents":[2147483647,0,0,1,1,2,2,3,3,4,4,5,5,6,6,7,7,9,9,11,11,12,12,13,13,14,14,15,15,16,16,20,20,22,22,24,24,26,26],"right_children":[2,4,6,8,10,12,14,16,-1,18,-1,20,22,24,26,28,30,-1,-1,-1,32,-1,34,-1,36,-1,38,-1,-1,-1,-1,-1,-1,-1,-1,-1,-1,-1,-1],"split_conditions":[5E-1,6.189E1,2.7814999E1,5E-1,9.628E1,1.7865E1,2.8985E1,3.713375E1,4.932286E2,9.6100006E1,9.144609E2,6.6099997E0,2.1485E1,5E-1,3.022E1,1.0105E1,3.8766293E1,5.729842E2,5.5701977E1,8.107482E2,5E-1,9.4267523E2,2.169E1,2.2602318E2,2.8625E1,8.310034E2,3.0595001E1,4.6473593E2,1.2912749E2,6.343535E2,2.61004E2,6.409078E2,4.6327374E2,8.63693E1,7.0816437E2,-2.3498026E1,5.2651978E1,2.843533E2,6.1245874E2],"split_indices":[5,0,0,7,0,0,0,0,0,0,0,0,0,19,0,0,0,0,0,0,18,0,0,0,0,0,0,0,0,0,0,0,0,0,0,0,0,0,0],"split_type":[0,0,0,0,0,0,0,0,0,0,0,0,0,0,0,0,0,0,0,0,0,0,0,0,0,0,0,0,0,0,0,0,0,0,0,0,0,0,0],"sum_hessian":[8.8E2,1.27E2,7.53E2,7.6E1,5.1E1,1.9E2,5.63E2,6.5E1,1.1E1,4.5E1,6E0,1.16E2,7.4E1,6E0,5.57E2,2.3E1,4.2E1,4.4E1,1E0,2.6E1,9E1,2E1,5.4E1,4E0,2E0,7E0,5.5E2,2E0,2.1E1,3E0,3.9E1,7.1E1,1.9E1,2E0,5.2E1,1E0,1E0,5E0,5.45E2],"tree_param":{"num_deleted":"0","num_feature":"20","num_nodes":"39","size_leaf_vector":"0"}},{"base_weights":[5.4684355E3,5.6434326E3,4.625433E3,5.517723E3,6.033457E3],"categories":[],"categories_nodes":[],"categories_segments":[],"categories_sizes":[],"default_left":[true,true,false,false,false],"id":2,"left_children":[1,3,-1,-1,-1],"loss_changes":[1.0376192E8,2.14016E6,0E0,0E0,0E0],"parents":[2147483647,0,0,1,1],"right_children":[2,4,-1,-1,-1],"split_conditions":[5E-1,5E-1,4.625433E2,5.5177234E2,6.033457E2],"split_indices":[12,19,0,0,0],"split_type":[0,0,0,0,0],"sum_hessian":[8.8E2,7.24E2,1.56E2,5.59E2,1.65E2],"tree_param":{"num_deleted":"0","num_feature":"20","num_nodes":"5","size_leaf_vector":"0"}},{"base_weights":[4.92343E3,5.080684E3,4.165836E3,4.9081265E3,5.785398E3,6.349881E3,3.5558413E3,4.932928E3,4.5106384E1,2.1625276E3,3.8654155E3,6.3882183E3,4.859396E3,-8.001277E2,1.2954043E3,4.0799402E3,1.341769E3,8.684604E3,3.4695237E3,7.265601E3,3.614329E3,4.7146357E3,5.1762666E3,1.22181E3,4.97683E3,-1.1479428E2,1.6226743E3,2.1354966E3,4.144966E3],"categories":[],"categories_nodes":[],"categories_segments":[],"categories_sizes":[],"default_left":[true,true,true,true,false,false,true,true,true,true,true,true,true,false,false,true,true,false,true,false,false,false,false,false,false,false,false,false,false],"id":3,"left_children":[1,3,5,7,-1,-1,9,11,13,15,17,19,21,-1,-1,23,25,-1,27,-1,-1,-1,-1,-1,-1,-1,-1,-1,-1],"loss_changes":[8.369971E7,5.966029E7,1.8648576E8,7.076864E7,0E0,0E0,4.5497344E7,3.1553536E7,5.268619E6,3.381477E7,1.6244275E8,3.447501E7,1.275904E6,0E0,0E0,1.180128E7,7.975324E6,0E0,7.668608E7,0E0,0E0,0E0,0E0,0E0,0E0,0E0,0E0,0E0,0E0],"parents":[2147483647,0,0,1,1,2,2,3,3,6,6,7,7,8,8,9,9,10,10,11,11,12,12,15,15,16,16,18,18],"right_children":[2,4,6,8,-1,-1,10,12,14,16,18,20,22,-1,-1,24,26,-1,28,-1,-1,-1,-1,-1,-1,-1,-1,-1,-1],"split_conditions":[5E-1,8.3425E1,3.317E1,8.3195E1,5.785398E2,6.349881E2,4.5730003E1,6.6099997E0,8.3350006E1,3.6775E1,4.6855003E1,5E-1,5.783E1,-8.001277E1,1.2954044E2,3.444E1,3.78E1,8.684604E2,6.5305E1,7.265601E2,3.6143292E2,4.714636E2,5.1762665E2,1.2218101E2,4.97683E2,-1.1479428E1,1.6226744E2,2.1354967E2,4.1449658E2],"split_indices":[12,0,0,0,0,0,0,0,0,0,0,17,0,0,0,0,0,0,0,0,0,0,0,0,0,0,0,0,0],"split_type":[0,0,0,0,0,0,0,0,0,0,0,0,0,0,0,0,0,0,0,0,0,0,0,0,0,0,0,0,0],"sum_hessian":[8.8E2,7.24E2,1.56E2,5.88E2,1.36E2,3.2E1,1.24E2,5.85E2,3E0,2.4E1,1E2,2.4E1,5.61E2,2E0,1E0,6E0,1.8E1,6E0,9.4E1,1.7E1,7E0,3.96E2,1.65E2,2E0,4E0,3E0,1.5E1,3.3E1,6.1E1],"tree_param":{"num_deleted":"0","num_feature":"20","num_nodes":"29","size_leaf_vector":"0"}},{"base_weights":[4.4374634E3,4.6805E3,2.4247695E3,2.2690623E3,5.4752E3,1.6796661E3,3.0569373E3,6.443048E3,1.2808281E3,1.4036957E3,3.7438044E3,1.2262319E3,1.7146329E3],"categories":[],"categories_nodes":[],"categories_segments":[],"categories_sizes":[],"default_left":[true,false,true,true,true,true,false,false,false,true,false,false,false],"id":4,"left_children":[1,-1,3,5,7,9,-1,-1,-1,11,-1,-1,-1],"loss_changes":[4.195287E8,0E0,3.357152E7,3.84688E7,7.908384E6,2.659328E7,0E0,0E0,0E0,6.8224E5,0E0,0E0,0E0],"parents":[2147483647,0,0,2,2,3,3,4,4,5,5,9,9],"right_children":[2,-1,4,6,8,10,-1,-1,-1,12,-1,-1,-1],"split_conditions":[5E-1,4.6805002E2,5E-1,5E-1,5E-1,5E-1,3.0569373E2,6.443048E2,1.2808281E2,5E-1,3.7438046E2,1.2262319E2,1.714633E2],"split_indices":[4,0,14,11,17,15,0,0,0,17,0,0,0],"split_type":[0,0,0,0,0,0,0,0,0,0,0,0,0],"sum_hessian":[8.8E2,7.84E2,9.6E1,9.3E1,3E0,5.5E1,3.8E1,2E0,1E0,5E1,5E0,3.5E1,1.5E1],"tree_param":{"num_deleted":"0","num_feature":"20","num_nodes":"13","size_leaf_vector":"0"}},{"base_weights":[3.9962375E3,4.2130464E3,2.2003499E3,4.889424E3,3.9811936E3,1.2890281E3,4.9181606E3,4.5741987E3,5.96932E3,2.7144678E2,4.0188257E3,8.781255E1,1.7953536E3,3.7535112E3,7.208951E3,3.9115906E3,5.4654224E3,6.308094E3,2.2665237E3,9.689334E2,-9.781799E2,3.783624E3,4.2318257E3,-5.0160992E2,4.1878325E3,4.8321885E3,1.5106047E3,3.888278E3,7.2623804E2,4.3305903E3,1.4434205E3,6.9552607E3,4.867201E3,2.4588203E3,-8.405979E2,4.258343E3,3.41695E3,5.166706E3,4.00371E3,1.0797954E3,-6.3517E2,7.677263E2,2.2520312E3],"categories":[],"categories_nodes":[],"categories_segments":[],"categories_sizes":[],"default_left":[true,true,true,true,true,true,true,true,true,true,true,true,true,true,false,true,true,false,false,true,false,true,true,true,false,false,true,false,false,false,false,false,false,false,false,false,false,false,false,false,false,false,false],"id":5,"left_children":[1,3,5,7,9,11,13,15,17,19,21,23,25,27,-1,29,31,-1,-1,33,-1,35,37,39,-1,-1,41,-1,-1,-1,-1,-1,-1,-1,-1,-1,-1,-1,-1,-1,-1,-1,-1],"loss_changes":[3.3369498E8,1.0354893E8,2.338479E8,3.9310336E7,8.123392E7,4.483077E7,3.686272E7,7.065062E7,3.704768E7,7.0488835E6,1.3165568E7,5.772033E7,3.760328E7,4.4736E6,0E0,8.986842E7,2.3069312E7,0E0,0E0,1.5563044E7,0E0,3.532979E7,4.2774016E7,5.116871E6,0E0,0E0,2.5229552E7,0E0,0E0,0E0,0E0,0E0,0E0,0E0,0E0,0E0,0E0,0E0,0E0,0E0,0E0,0E0,0E0],"parents":[2147483647,0,0,1,1,2,2,3,3,4,4,5,5,6,6,7,7,8,8,9,9,10,10,11,11,12,12,13,13,15,15,16,16,19,19,21,21,22,22,23,23,26,26],"right_children":[2,4,6,8,10,12,14,16,18,20,22,24,26,28,-1,30,32,-1,-1,34,-1,36,38,40,-1,-1,42,-1,-1,-1,-1,-1,-1,-1,-1,-1,-1,-1,-1,-1,-1,-1,-1],"split_conditions":[5E-1,2.7814999E1,7.1515E1,5E-1,2.8985E1,3.713375E1,9.069E1,1.781E1,2.3465E1,5E-1,6.451E1,5E-1,3.8766293E1,8.9479996E1,7.2089514E2,5E-1,2.1485E1,6.3080945E2,2.2665237E2,5E-1,-9.7817986E1,4.2925003E1,7.186E1,7.785E0,4.1878326E2,4.8321884E2,5.4135002E1,3.8882782E2,7.26238E1,4.3305905E2,1.4434206E2,6.9552606E2,4.8672012E2,2.4588203E2,-8.405979E1,4.258343E2,3.41695E2,5.166706E2,4.00371E2,1.07979546E2,-6.3517E1,7.677264E1,2.2520312E2],"split_indices":[4,0,0,19,0,0,0,0,0,16,0,10,0,0,0,10,0,0,0,19,0,0,0,0,0,0,0,0,0,0,0,0,0,0,0,0,0,0,0,0,0,0,0],"split_type":[0,0,0,0,0,0,0,0,0,0,0,0,0,0,0,0,0,0,0,0,0,0,0,0,0,0,0,0,0,0,0,0,0,0,0,0,0,0,0,0,0,0,0],"sum_hessian":[8.8E2,7.84E2,9.6E1,1.95E2,5.89E2,7.3E1,2.3E1,1.55E2,4E1,6E0,5.83E2,2.2E1,5.1E1,1.7E1,6E0,9.2E1,6.3E1,3.6E1,4E0,4E0,2E0,2.86E2,2.97E2,2E1,2E0,3E0,4.8E1,1.6E1,1E0,7.8E1,1.4E1,1.5E1,4.8E1,2E0,2E0,1.2E2,1.66E2,5.4E1,2.43E2,1E0,1.9E1,2.5E1,2.3E1],"tree_param":{"num_deleted":"0","num_feature":"20","num_nodes":"43","size_leaf_vector":"0"}},{"base_weights":[3.6043452E3,2.437423E3,3.79765E3,1.3432452E3,3.820058E3,4.382585E3,3.592809E3,1.104502E3,2.2697703E3,3.3598313E3,6.56024E3,3.9971428E3,4.925307E3,2.5315977E2,3.6282476E3,2.736702E3,9.0618005E2,4.721451E3,1.7172217E3,3.447387E3,-4.6019788E2,5.299539E3,3.5666829E3,6.447253E3,4.254468E3,8.271585E2,-7.8455804E2,5.889693E3,3.5888105E3,-3.370675E2,4.3603535E3,7.851349E2,2.7392522E3,6.2380945E2,1.9818644E3,2.9696152E3,5.0127354E3,3.754712E3,2.0151002E3,5.021498E3,7.789204E3,-5.0589062E2,4.443838E3,-6.6472595E2,1.368811E3,-9.52631E2,-2.1920605E2,9.9658905E2,3.6107053E3],"categories":[],"categories_nodes":[],"categories_segments":[],"categories_sizes":[],"default_left":[true,true,true,true,true,true,true,true,true,true,false,true,true,true,true,true,true,false,true,true,false,false,true,true,true,true,true,false,true,false,false,false,false,false,false,false,false,false,false,false,false,false,false,false,false,false,false,false,false],"id":6,"left_children":[1,3,5,7,9,11,13,15,17,19,-1,21,23,25,27,29,31,-1,33,35,-1,-1,37,39,41,43,45,-1,47,-1,-1,-1,-1,-1,-1,-1,-1,-1,-1,-1,-1,-1,-1,-1,-1,-1,-1,-1,-1],"loss_changes":[1.894103E8,1.884617E8,7.45175E7,1.3607008E7,4.848141E7,2.0178688E7,6.5793536E7,1.690568E7,1.0793264E7,1.8339584E7,0E0,4.660301E7,4.903693E7,4.818921E6,2.853376E7,3.1454348E7,1.0017728E7,0E0,2.499364E6,2.1680384E7,0E0,0E0,1.89248E7,9.37536E5,5.186829E7,4.9573405E6,6.4520375E4,0E0,2.7628032E7,0E0,0E0,0E0,0E0,0E0,0E0,0E0,0E0,0E0,0E0,0E0,0E0,0E0,0E0,0E0,0E0,0E0,0E0,0E0,0E0],"parents":[2147483647,0,0,1,1,2,2,3,3,4,4,5,5,6,6,7,7,8,8,9,9,11,11,12,12,13,13,14,14,15,15,16,16,18,18,19,19,22,22,23,23,24,24,25,25,26,26,28,28],"right_children":[2,4,6,8,10,12,14,16,18,20,-1,22,24,26,28,30,32,-1,34,36,-1,-1,38,40,42,44,46,-1,48,-1,-1,-1,-1,-1,-1,-1,-1,-1,-1,-1,-1,-1,-1,-1,-1,-1,-1,-1,-1],"split_conditions":[5E-1,5.9735E1,2.7814999E1,5.4135002E1,9.628E1,1.7865E1,2.8985E1,1.471E1,5.4735E1,9.6100006E1,6.5602405E2,6.6099997E0,2.1485E1,5E-1,3.022E1,5E-1,5E-1,4.721451E2,5.618E1,5E-1,-4.6019787E1,5.299539E2,1.679E1,1.959E1,2.169E1,5E-1,2.8625E1,5.889693E2,3.0595001E1,-3.3706753E1,4.3603537E2,7.851349E1,2.7392523E2,6.2380947E1,1.9818645E2,2.9696152E2,5.0127353E2,3.754712E2,2.0151003E2,5.021498E2,7.789204E2,-5.058906E1,4.443838E2,-6.6472595E1,1.368811E2,-9.52631E1,-2.1920607E1,9.9658905E1,3.6107053E2],"split_indices":[5,0,0,0,0,0,0,0,0,0,0,0,0,19,0,8,14,0,0,7,0,0,0,0,0,8,0,0,0,0,0,0,0,0,0,0,0,0,0,0,0,0,0,0,0,0,0,0,0],"split_type":[0,0,0,0,0,0,0,0,0,0,0,0,0,0,0,0,0,0,0,0,0,0,0,0,0,0,0,0,0,0,0,0,0,0,0,0,0,0,0,0,0,0,0,0,0,0,0,0,0],"sum_hessian":[8.8E2,1.27E2,7.53E2,7.2E1,5.5E1,1.9E2,5.63E2,5.9E1,1.3E1,4.9E1,6E0,1.16E2,7.4E1,6E0,5.57E2,5E0,5.4E1,1E0,1.2E1,4.8E1,1E0,2.6E1,9E1,2E1,5.4E1,4E0,2E0,7E0,5.5E2,2E0,3E0,5.2E1,2E0,3E0,9E0,3.9E1,9E0,7.9E1,1.1E1,1.2E1,8E0,2E0,5.2E1,1E0,3E0,1E0,1E0,5E0,5.45E2],"tree_param":{"num_deleted":"0","num_feature":"20","num_nodes":"49","size_leaf_vector":"0"}},{"base_weights":[3.251507E3,2.2163506E3,3.4229111E3,2.078654E3,3.8049316E3,3.2781013E3,4.111947E3,2.3994211E3,1.6419863E3,3.1204504E3,3.42774E3,4.5774375E3,3.5156917E3,2.6115632E3,1.0811018E3,1.4551355E3,2.118582E3,3.3857107E3,2.29217E3,3.2404512E3,3.905315E3,3.1580186E3,4.174261E3,2.8128906E3,1.971799E3,1.6732781E3,4.682486E2,9.9760474E2,5.519305E3],"categories":[],"categories_nodes":[],"categories_segments":[],"categories_sizes":[],"default_left":[true,true,true,true,false,true,true,true,true,true,true,false,true,true,false,true,true,false,false,false,false,false,false,false,false,false,false,false,false],"id":7,"left_children":[1,3,5,7,-1,9,11,13,15,17,19,-1,21,23,-1,25,27,-1,-1,-1,-1,-1,-1,-1,-1,-1,-1,-1,-1],"loss_changes":[1.4867251E8,2.003104E7,6.168064E7,1.2828E7,0E0,4.052992E6,1.90752E7,1.5877664E7,1.690256E6,6.18304E7,1.5180288E7,0E0,8.7744E5,1.747392E6,0E0,8.23692E6,4.398649E7,0E0,0E0,0E0,0E0,0E0,0E0,0E0,0E0,0E0,0E0,0E0,0E0],"parents":[2147483647,0,0,1,1,2,2,3,3,5,5,6,6,7,7,8,8,9,9,10,10,12,12,13,13,15,15,16,16],"right_children":[2,4,6,8,-1,10,12,14,16,18,20,-1,22,24,-1,26,28,-1,-1,-1,-1,-1,-1,-1,-1,-1,-1,-1,-1],"split_conditions":[5E-1,5E-1,5E-1,5E-1,3.8049316E2,5E-1,5E-1,5E-1,5E-1,5E-1,5E-1,4.5774374E2,5E-1,5E-1,1.0811018E2,5E-1,5E-1,3.3857108E2,2.29217E2,3.2404514E2,3.905315E2,3.1580185E2,4.1742612E2,2.8128906E2,1.971799E2,1.673278E2,4.682486E1,9.9760475E1,5.5193054E2],"split_indices":[5,15,13,8,0,8,8,13,16,16,16,0,16,16,0,13,13,0,0,0,0,0,0,0,0,0,0,0,0],"split_type":[0,0,0,0,0,0,0,0,0,0,0,0,0,0,0,0,0,0,0,0,0,0,0,0,0,0,0,0,0],"sum_hessian":[8.8E2,1.27E2,7.53E2,1.19E2,8E0,6.27E2,1.26E2,6.6E1,5.3E1,3.16E2,3.11E2,6.7E1,5.9E1,5.6E1,1E1,4.1E1,1.2E1,2.37E2,7.9E1,2.29E2,8.2E1,4.2E1,1.7E1,4E1,1.6E1,3.3E1,8E0,1E1,2E0],"tree_param":{"num_deleted":"0","num_feature":"20","num_nodes":"29","size_leaf_vector":"0"}},{"base_weights":[2.9312603E3,3.0675854E3,1.8944419E3,3.0122654E3,3.6465725E3,9.3592847E2,4.0514902E3,2.823832E3,3.1162844E3,1.1793982E3,5.973934E2,4.428509E3,1.677991E3,3.611838E3,2.7339727E3,3.4110896E3,2.9022158E3,1.2015215E3,1.3117181E2,4.2034564E2,9.123666E2,3.9173328E3,1.6426343E2,2.429981E3,2.894857E3,3.5619023E3,2.5515322E3,1.000658E3,1.4823077E3,1.3824584E3,6.531842E2],"categories":[],"categories_nodes":[],"categories_segments":[],"categories_sizes":[],"default_left":[true,true,true,true,false,true,true,true,true,true,true,false,false,true,true,true,false,true,false,false,true,false,false,false,false,false,false,false,false,false,false],"id":8,"left_children":[1,3,5,7,-1,9,11,13,15,17,19,-1,-1,21,23,25,-1,27,-1,-1,29,-1,-1,-1,-1,-1,-1,-1,-1,-1,-1],"loss_changes":[1.1866368E8,1.3835776E7,2.13252E8,5.155328E6,0E0,5.376972E6,2.1143264E7,8.826624E6,1.8499072E7,8.03056E5,1.443419E6,0E0,0E0,2.4592896E7,4.747776E6,1.4703104E7,0E0,8.04276E5,0E0,0E0,4.16878E5,0E0,0E0,0E0,0E0,0E0,0E0,0E0,0E0,0E0,0E0],"parents":[2147483647,0,0,1,1,2,2,3,3,5,5,6,6,7,7,8,8,9,9,10,10,13,13,14,14,15,15,17,17,20,20],"right_children":[2,4,6,8,-1,10,12,14,16,18,20,-1,-1,22,24,26,-1,28,-1,-1,30,-1,-1,-1,-1,-1,-1,-1,-1,-1,-1],"split_conditions":[2.0205E3,1.15E1,5E-1,4.5E0,3.6465726E2,5E-1,5E-1,5E-1,7.5E0,1E1,1.5E0,4.428509E2,1.677991E2,5E-1,2.5E0,5E-1,2.902216E2,1.5E0,1.3117182E1,4.2034565E1,2.5E0,3.9173328E2,1.6426344E1,2.429981E2,2.894857E2,3.5619025E2,2.5515323E2,1.000658E2,1.4823077E2,1.3824583E2,6.531842E1],"split_indices":[3,2,5,2,0,12,12,5,2,2,2,0,0,12,2,12,0,2,0,0,2,0,0,0,0,0,0,0,0,0,0],"split_type":[0,0,0,0,0,0,0,0,0,0,0,0,0,0,0,0,0,0,0,0,0,0,0,0,0,0,0,0,0,0,0],"sum_hessian":[8.8E2,7.76E2,1.04E2,7.14E2,6.2E1,7.3E1,3.1E1,2.64E2,4.5E2,4.1E1,3.2E1,2.6E1,5E0,2.3E1,2.41E2,1.83E2,2.67E2,4E1,1E0,2.2E1,1E1,2.1E1,2E0,8.9E1,1.52E2,1.53E2,3E1,2.6E1,1.4E1,2E0,8E0],"tree_param":{"num_deleted":"0","num_feature":"20","num_nodes":"31","size_leaf_vector":"0"}},{"base_weights":[2.6419248E3,1.8093455E3,2.7797473E3,3.068025E3,8.492547E2,2.648807E3,3.4052654E3,2.1661824E3,3.9226697E3,1.7916448E3,-3.1184088E2,2.598429E3,3.5994287E3,3.826647E3,2.8707788E3,2.5597437E3,1.3944922E3,2.0933982E3,-7.976594E2,-1.3648947E2,-1.1057325E3,2.418142E3,2.7741824E3,3.9643535E3,1.5381583E3,2.8503403E3,1.5331258E2,8.52297E2,2.7336458E3,3.3432024E3,9.8149005E2,-7.865208E1,-2.0085455E2],"categories":[],"categories_nodes":[],"categories_segments":[],"categories_sizes":[],"default_left":[true,true,true,true,true,true,true,true,false,true,true,true,true,false,false,true,true,true,false,true,false,false,false,false,false,false,false,false,false,false,false,false,false],"id":9,"left_children":[1,3,5,7,9,11,13,15,-1,17,19,21,23,-1,-1,25,27,29,-1,31,-1,-1,-1,-1,-1,-1,-1,-1,-1,-1,-1,-1,-1],"loss_changes":[9.601792E7,1.5203642E8,5.2676096E7,3.383341E7,8.154467E7,2.0660736E7,1.7550848E7,5.198432E6,0E0,3.371736E7,4.569797E6,1.2251648E7,1.5661184E7,0E0,0E0,1.2120392E7,6.347254E6,4.809312E7,0E0,8.9365875E4,0E0,0E0,0E0,0E0,0E0,0E0,0E0,0E0,0E0,0E0,0E0,0E0,0E0],"parents":[2147483647,0,0,1,1,2,2,3,3,4,4,5,5,6,6,7,7,9,9,10,10,11,11,12,12,15,15,16,16,17,17,19,19],"right_children":[2,4,6,8,10,12,14,16,-1,18,20,22,24,-1,-1,26,28,30,-1,32,-1,-1,-1,-1,-1,-1,-1,-1,-1,-1,-1,-1,-1],"split_conditions":[5E-1,2.0205E3,5E-1,5E-1,5E-1,2.0205E3,5E-1,5E-1,3.9226697E2,5E-1,5E-1,5E-1,5E-1,3.826647E2,2.8707788E2,5E-1,5E-1,5E-1,-7.9765945E1,5E-1,-1.1057326E2,2.4181421E2,2.7741824E2,3.9643536E2,1.5381584E2,2.8503403E2,1.5331258E1,8.52297E1,2.733646E2,3.3432025E2,9.814901E1,-7.8652077E0,-2.0085455E1],"split_indices":[5,3,13,8,8,3,8,7,0,13,13,8,12,0,0,12,12,12,0,12,0,0,0,0,0,0,0,0,0,0,0,0,0],"split_type":[0,0,0,0,0,0,0,0,0,0,0,0,0,0,0,0,0,0,0,0,0,0,0,0,0,0,0,0,0,0,0,0,0],"sum_hessian":[8.8E2,1.27E2,7.53E2,5.4E1,7.3E1,6.27E2,1.26E2,2.8E1,2.6E1,4E1,3.3E1,5.99E2,2.8E1,6.7E1,5.9E1,1.7E1,1.1E1,3.6E1,4E0,2.8E1,5E0,3.03E2,2.96E2,2.3E1,5E0,1.5E1,2E0,9E0,2E0,1.6E1,2E1,1.6E1,1.2E1],"tree_param":{"num_deleted":"0","num_feature":"20","num_nodes":"33","size_leaf_vector":"0"}},{"base_weights":[2.3811519E3,3.8007444E3,2.3318079E3,4.2270684E3,-1.1576464E3,2.2274844E3,2.8264822E3,4.468457E3,8.8360223E2,-2.175497E3,4.340276E2,2.1603853E3,3.0348096E3,2.2201516E3,3.559023E3,2.2554126E2,4.642691E3,-1.5294355E3,2.8598389E3,2.0827559E3,2.9589167E3,3.9924731E3,1.9232047E3,1.1893221E3,2.7324463E3,3.7636748E3,2.3577253E3,2.11116E3,-1.0983813E3,2.67166E3,5.3526055E3,-1.812727E3,4.285855E3,7.462827E2,3.0419512E3,2.0027075E3,-5.553808E2,2.8660073E3,-2.1681465E3,2.8534414E3,4.1139673E3,6.9534424E2,3.1007478E3],"categories":[],"categories_nodes":[],"categories_segments":[],"categories_sizes":[],"default_left":[true,true,true,true,true,true,true,true,true,false,false,true,true,true,true,false,false,false,false,true,true,true,true,true,true,true,true,false,false,false,false,false,false,false,false,false,false,false,false,false,false,false,false],"id":10,"left_children":[1,3,5,7,9,11,13,15,17,-1,-1,19,21,23,25,-1,-1,-1,-1,27,29,31,33,35,37,39,41,-1,-1,-1,-1,-1,-1,-1,-1,-1,-1,-1,-1,-1,-1,-1,-1],"loss_changes":[5.2788736E7,6.411283E7,3.772467E7,1.6982112E7,5.8219E6,3.1853056E7,5.644416E7,1.66464E7,1.8693446E7,0E0,0E0,3.4637824E7,4.761875E7,4.001424E7,6.79936E6,0E0,0E0,0E0,0E0,5.6904704E7,2.4125216E7,5.3778624E7,3.1925568E7,4.2281104E7,4.156547E7,5.090304E6,1.2628192E7,0E0,0E0,0E0,0E0,0E0,0E0,0E0,0E0,0E0,0E0,0E0,0E0,0E0,0E0,0E0,0E0],"parents":[2147483647,0,0,1,1,2,2,3,3,4,4,5,5,6,6,7,7,8,8,11,11,12,12,13,13,14,14,19,19,20,20,21,21,22,22,23,23,24,24,25,25,26,26],"right_children":[2,4,6,8,10,12,14,16,18,-1,-1,20,22,24,26,-1,-1,-1,-1,28,30,32,34,36,38,40,42,-1,-1,-1,-1,-1,-1,-1,-1,-1,-1,-1,-1,-1,-1,-1,-1],"split_conditions":[6.6099997E0,5E-1,5E-1,5E-1,4.6099997E0,1.15E1,6.5E0,1.5E0,5.96E0,-2.1754971E2,4.340276E1,9.468E1,5E-1,3.5449997E1,1.15E1,2.2554127E1,4.642691E2,-1.5294356E2,2.859839E2,9.3365E1,1.05E1,7.3999996E0,5.7364998E1,2.6229664E1,1.02774994E2,5E-1,4.6440002E1,2.11116E2,-1.09838135E2,2.67166E2,5.3526056E2,-1.812727E2,4.285855E2,7.462827E1,3.0419513E2,2.0027075E2,-5.5538082E1,2.8660074E2,-2.1681465E2,2.8534415E2,4.1139673E2,6.9534424E1,3.100748E2],"split_indices":[0,10,13,13,0,2,2,2,0,0,0,0,9,0,2,0,0,0,0,0,2,0,0,0,0,9,0,0,0,0,0,0,0,0,0,0,0,0,0,0,0,0,0],"split_type":[0,0,0,0,0,0,0,0,0,0,0,0,0,0,0,0,0,0,0,0,0,0,0,0,0,0,0,0,0,0,0,0,0,0,0,0,0,0,0,0,0,0,0],"sum_hessian":[8.8E2,2.7E1,8.53E2,2.5E1,2E0,7.09E2,1.44E2,2.3E1,2E0,1E0,1E0,6.58E2,5.1E1,8.1E1,6.3E1,1E0,2.2E1,1E0,1E0,6.03E2,5.5E1,2.6E1,2.5E1,2.8E1,5.3E1,5.2E1,1.1E1,5.98E2,5E0,5.1E1,4E0,1E0,2.5E1,1.3E1,1.2E1,1.9E1,9E0,5.2E1,1E0,1.7E1,3.5E1,4E0,7E0],"tree_param":{"num_deleted":"0","num_feature":"20","num_nodes":"43","size_leaf_vector":"0"}},{"base_weights":[2.1467544E3,2.2711008E3,1.1182114E3,2.232335E3,3.1132358E3,2.761077E3,5.701441E2,1.1072745E3,2.263043E3,3.536825E3,2.2213113E3,3.8958252E3,1.671555E3,7.758242E2,4.8271828E1,1.4864861E3,8.08946E1,2.1235615E3,2.355827E3,-8.295541E2,3.2205261E3,-2.9719702E2,1.846628E3,4.0290677E2,1.6123893E3,-1.507568E2,7.5712054E2,2.2605503E3,4.2860303E2,2.1218067E1,1.500573E2,2.3237085E3,9.546163E2,3.370387E3,2.2046309E3,1.484452E3,4.65771E3,2.3990713E3,1.200217E3,6.784899E2,-3.3429648E2,2.2994333E3,1.090148E3,-5.069677E2,-1.2055995E1,1.2772048E3,-1.2003947E1],"categories":[],"categories_nodes":[],"categories_segments":[],"categories_sizes":[],"default_left":[true,true,true,true,true,true,true,true,true,false,true,false,true,true,true,true,true,true,true,false,true,false,true,true,true,true,true,false,false,false,false,false,false,false,false,false,false,false,false,false,false,false,false,false,false,false,false],"id":11,"left_children":[1,3,5,7,9,11,13,15,17,-1,19,-1,21,23,25,27,29,31,33,-1,35,-1,37,39,41,43,45,-1,-1,-1,-1,-1,-1,-1,-1,-1,-1,-1,-1,-1,-1,-1,-1,-1,-1,-1,-1],"loss_changes":[1.1010253E8,1.8624E7,8.573138E7,2.3510016E7,4.175936E6,2.310424E7,7.897376E6,8.426812E6,4.438528E6,0E0,4.2325624E7,0E0,5.38976E6,1.58646E7,3.2239908E6,1.210614E7,2.3995047E4,6.86391E7,5.8628096E7,0E0,1.7975008E7,0E0,1.726972E6,7.9503695E6,3.200228E6,8.780191E5,2.0280315E6,0E0,0E0,0E0,0E0,0E0,0E0,0E0,0E0,0E0,0E0,0E0,0E0,0E0,0E0,0E0,0E0,0E0,0E0,0E0,0E0],"parents":[2147483647,0,0,1,1,2,2,3,3,4,4,5,5,6,6,7,7,8,8,10,10,12,12,13,13,14,14,15,15,16,16,17,17,18,18,20,20,22,22,23,23,24,24,25,25,26,26],"right_children":[2,4,6,8,10,12,14,16,18,-1,20,-1,22,24,26,28,30,32,34,-1,36,-1,38,40,42,44,46,-1,-1,-1,-1,-1,-1,-1,-1,-1,-1,-1,-1,-1,-1,-1,-1,-1,-1,-1,-1],"split_conditions":[5E-1,2.0205E3,2.0205E3,1.5E0,7.5E0,1.95E1,2.45E1,5E-1,1.35E1,3.536825E2,8.5E0,3.8958252E2,2.05E1,1.85E1,5E-1,5E-1,5E-1,1.15E1,1.55E1,-8.295541E1,5E-1,-2.9719702E1,2.3E1,1.35E1,2.05E1,2.55E1,2.95E1,2.2605504E2,4.2860302E1,2.1218069E0,1.500573E1,2.3237085E2,9.546163E1,3.370387E2,2.2046309E2,1.484452E2,4.65771E2,2.3990714E2,1.20021706E2,6.784899E1,-3.342965E1,2.2994334E2,1.0901479E2,-5.0696774E1,-1.2055995E0,1.2772048E2,-1.2003947E0],"split_indices":[4,3,3,1,1,1,1,17,1,0,1,0,1,1,16,16,10,1,1,0,16,0,1,1,1,1,1,0,0,0,0,0,0,0,0,0,0,0,0,0,0,0,0,0,0,0,0],"split_type":[0,0,0,0,0,0,0,0,0,0,0,0,0,0,0,0,0,0,0,0,0,0,0,0,0,0,0,0,0,0,0,0,0,0,0,0,0,0,0,0,0,0,0,0,0,0,0],"sum_hessian":[8.8E2,7.84E2,9.6E1,7.53E2,3.1E1,2.3E1,7.3E1,2.1E1,7.32E2,1.9E1,1.2E1,1E1,1.3E1,5.2E1,2.1E1,1.5E1,6E0,3.02E2,4.3E2,3E0,9E0,1E0,1.2E1,3.7E1,1.5E1,1.7E1,4E0,8E0,7E0,4E0,2E0,2.57E2,4.5E1,5.3E1,3.77E2,5E0,4E0,5E0,7E0,2.7E1,1E1,5E0,1E1,4E0,1.3E1,2E0,2E0],"tree_param":{"num_deleted":"0","num_feature":"20","num_nodes":"47","size_leaf_vector":"0"}},{"base_weights":[1.9357511E3,1.2873547E3,2.043243E3,7.054565E2,2.9408357E3,2.453126E3,1.8095004E3,3.8179404E2,1.7763303E3,2.3855464E3,4.6611187E3,2.3795417E3,4.329734E3,1.1561451E3,1.9537598E3,-5.2790454E2,7.223736E2,8.92594E2,3.5411091E3,2.6782786E3,3.026587E1,2.404173E3,-2.031937E3,1.4800819E3,-1.9226277E3,1.4959847E3,2.1480398E3,1.9180372E3,-8.868477E2,3.3044243E3,5.0967023E2,3.3523523E3,-5.2932825E2,4.4570806E3,1.7373605E3,2.2737317E3,4.1300796E3,2.9488943E3,-1.9222417E3,3.3444263E3,2.2863723E3,3.2005034E3,1.0469949E3,-1.1352872E3,-2.6204814E3,-8.792047E1,1.8888883E3,3.4494214E3,2.0542888E3],"categories":[],"categories_nodes":[],"categories_segments":[],"categories_sizes":[],"default_left":[true,true,true,true,true,true,true,true,true,true,false,true,false,true,true,true,true,true,true,true,true,true,false,true,true,true,true,false,false,false,false,false,false,false,false,false,false,false,false,false,false,false,false,false,false,false,false,false,false],"id":12,"left_children":[1,3,5,7,9,11,13,15,17,19,-1,21,-1,23,25,27,29,31,33,35,37,39,-1,41,43,45,47,-1,-1,-1,-1,-1,-1,-1,-1,-1,-1,-1,-1,-1,-1,-1,-1,-1,-1,-1,-1,-1,-1],"loss_changes":[5.873971E7,1.210451E8,6.775706E7,3.2573984E7,2.0333632E7,2.7052032E7,4.3328256E7,2.3620146E7,3.1106072E7,1.8507456E7,0E0,3.3466624E7,0E0,9.2600696E7,3.1880064E7,2.0127732E7,2.8484292E7,5.776409E7,3.759784E6,4.640992E6,2.8473332E7,2.1316992E7,0E0,5.770419E7,1.932478E6,7.548506E7,2.6410496E7,0E0,0E0,0E0,0E0,0E0,0E0,0E0,0E0,0E0,0E0,0E0,0E0,0E0,0E0,0E0,0E0,0E0,0E0,0E0,0E0,0E0,0E0],"parents":[2147483647,0,0,1,1,2,2,3,3,4,4,5,5,6,6,7,7,8,8,9,9,11,11,13,13,14,14,15,15,16,16,17,17,18,18,19,19,20,20,21,21,23,23,24,24,25,25,26,26],"right_children":[2,4,6,8,10,12,14,16,18,20,-1,22,-1,24,26,28,30,32,34,36,38,40,-1,42,44,46,48,-1,-1,-1,-1,-1,-1,-1,-1,-1,-1,-1,-1,-1,-1,-1,-1,-1,-1,-1,-1,-1,-1],"split_conditions":[5E-1,7.591066E1,3.7265E1,7.5E0,9.628E1,3.623E1,4.7510002E1,3.713375E1,5.647E1,9.3634995E1,4.6611188E2,3.6155E1,4.329734E2,4.703E1,3.5E0,1.0105E1,3.8766293E1,2.4875E1,5E-1,9.069E1,5E0,6.6099997E0,-2.0319371E2,3.5E0,4.7315002E1,5.9545E1,5.028E1,1.9180373E2,-8.868478E1,3.3044244E2,5.0967022E1,3.3523523E2,-5.2932827E1,4.4570807E2,1.7373605E2,2.2737317E2,4.1300797E2,2.9488943E2,-1.9222417E2,3.3444263E2,2.2863724E2,3.2005035E2,1.04699486E2,-1.13528725E2,-2.6204816E2,-8.7920475E0,1.8888884E2,3.4494214E2,2.0542888E2],"split_indices":[5,0,0,2,0,0,0,0,0,0,0,0,0,0,2,0,0,0,16,0,2,0,0,2,0,0,0,0,0,0,0,0,0,0,0,0,0,0,0,0,0,0,0,0,0,0,0,0,0],"split_type":[0,0,0,0,0,0,0,0,0,0,0,0,0,0,0,0,0,0,0,0,0,0,0,0,0,0,0,0,0,0,0,0,0,0,0,0,0,0,0,0,0,0,0,0,0,0,0,0,0],"sum_hessian":[8.8E2,1.27E2,7.53E2,9.5E1,3.2E1,2.7E2,4.83E2,7.4E1,2.1E1,2.6E1,6E0,2.62E2,8E0,8.9E1,3.94E2,2E1,5.4E1,1.5E1,6E0,2.3E1,3E0,2.61E2,1E0,8.1E1,8E0,1.2E2,2.74E2,2E0,1.8E1,3E0,5.1E1,5E0,1E1,3E0,3E0,2E1,3E0,1E0,2E0,2.6E1,2.35E2,1.5E1,6.6E1,5E0,3E0,2.4E1,9.6E1,1.6E1,2.58E2],"tree_param":{"num_deleted":"0","num_feature":"20","num_nodes":"49","size_leaf_vector":"0"}},{"base_weights":[1.7469183E3,1.8444575E3,9.394415E2,1.8012744E3,2.310599E3,1.3580442E3,1.5882986E2,1.8663783E3,1.6264446E3,2.5534668E3,1.5610146E3,1.579754E3,3.8302524E2,1.0295508E2,1.0242864E3,1.6862817E3,2.0570637E3,1.7517833E3,1.0131105E3,1.7827239E3,-1.3843929E2,1.3237733E3,2.7889285E3,-8.520649E2,6.859566E2,-1.7938969E1,4.418762E2,1.5401915E3,2.3557756E3,2.1919727E3,1.2535682E3,1.8602773E3,1.1903684E3,-3.1104724E2,1.585679E3,1.9952396E3,1.9340918E2,1.1224862E3,3.0535227E3,3.7923E3,1.8207546E3,-1.8697876E2,7.92948E2,-6.589296E1,9.694412E1,5.0132053E2,-1.1839233E1],"categories":[],"categories_nodes":[],"categories_segments":[],"categories_sizes":[],"default_left":[true,true,true,true,true,true,true,true,true,false,true,true,true,true,false,true,true,true,true,true,false,true,true,false,true,true,true,false,false,false,false,false,false,false,false,false,false,false,false,false,false,false,false,false,false,false,false],"id":13,"left_children":[1,3,5,7,9,11,13,15,17,-1,19,21,23,25,-1,27,29,31,33,35,-1,37,39,-1,41,43,45,-1,-1,-1,-1,-1,-1,-1,-1,-1,-1,-1,-1,-1,-1,-1,-1,-1,-1,-1,-1],"loss_changes":[6.762778E7,1.1598336E7,3.1465448E7,5.158656E6,7.441984E6,1.2994072E7,1.5757742E6,1.4351488E7,1.388E7,0E0,7.045364E6,1.2052752E7,5.446736E6,1.4052668E6,0E0,2.3033856E7,2.4100672E7,7.988E6,2.8558296E7,4.996284E6,0E0,1.1850456E7,8.10528E5,0E0,1.1816865E6,1.493141E5,2.5356738E5,0E0,0E0,0E0,0E0,0E0,0E0,0E0,0E0,0E0,0E0,0E0,0E0,0E0,0E0,0E0,0E0,0E0,0E0,0E0,0E0],"parents":[2147483647,0,0,1,1,2,2,3,3,4,4,5,5,6,6,7,7,8,8,10,10,11,11,12,12,13,13,15,15,16,16,17,17,18,18,19,19,21,21,22,22,24,24,25,25,26,26],"right_children":[2,4,6,8,10,12,14,16,18,-1,20,22,24,26,-1,28,30,32,34,36,-1,38,40,-1,42,44,46,-1,-1,-1,-1,-1,-1,-1,-1,-1,-1,-1,-1,-1,-1,-1,-1,-1,-1,-1,-1],"split_conditions":[5E-1,1.15E1,5E-1,8.5E0,5E-1,2.5E0,1.05E1,4.5E0,5E-1,2.5534668E2,5E-1,5E-1,5E-1,5E-1,1.0242864E2,5E-1,5E-1,5E-1,9.5E0,5E-1,-1.3843928E1,5E-1,5E-1,-8.520649E1,3.5E0,1.5E0,5E0,1.5401915E2,2.3557756E2,2.1919727E2,1.2535683E2,1.8602774E2,1.1903684E2,-3.1104725E1,1.585679E2,1.9952397E2,1.9340918E1,1.1224862E2,3.0535226E2,3.7923E2,1.8207547E2,-1.8697876E1,7.92948E1,-6.589296E0,9.694412E0,5.0132053E1,-1.1839234E0],"split_indices":[4,2,12,2,16,2,2,2,11,0,11,16,11,16,0,11,11,14,2,12,0,14,11,0,2,2,2,0,0,0,0,0,0,0,0,0,0,0,0,0,0,0,0,0,0,0,0],"split_type":[0,0,0,0,0,0,0,0,0,0,0,0,0,0,0,0,0,0,0,0,0,0,0,0,0,0,0,0,0,0,0,0,0,0,0,0,0,0,0,0,0,0,0,0,0,0,0],"sum_hessian":[8.8E2,7.84E2,9.6E1,7.22E2,6.2E1,6.2E1,3.4E1,5.19E2,2.03E2,4.5E1,1.7E1,5E1,1.2E1,3.3E1,1E0,2.72E2,2.47E2,1.67E2,3.6E1,1.5E1,2E0,4.3E1,7E0,2E0,1E1,2.5E1,8E0,2.26E2,4.6E1,2.1E2,3.7E1,1.38E2,2.9E1,1.1E1,2.5E1,1.3E1,2E0,4E1,3E0,2E0,5E0,1E0,9E0,1.8E1,7E0,7E0,1E0],"tree_param":{"num_deleted":"0","num_feature":"20","num_nodes":"47","size_leaf_vector":"0"}},{"base_weights":[1.5753444E3,1.6500767E3,1.2201451E3,1.5507655E3,1.9751018E3,1.1673173E3,2.1839832E3,2.1173618E3,1.5186987E3,1.3145269E3,8.133953E2,9.551045E2,3.5007864E3,2.1423374E3,1.0924753E3,1.4864078E3,9.115868E2,1.2371135E3,2.5196143E2],"categories":[],"categories_nodes":[],"categories_segments":[],"categories_sizes":[],"default_left":[true,true,true,false,true,true,true,true,false,true,false,false,false,false,true,false,false,false,false],"id":14,"left_children":[1,3,5,-1,7,9,11,13,-1,15,-1,-1,-1,-1,17,-1,-1,-1,-1],"loss_changes":[2.1344E7,2.0303744E7,5.411136E6,0E0,7.526016E6,6.776704E6,7.939166E6,8.01216E5,0E0,5.893088E6,0E0,0E0,0E0,0E0,2.81256E5,0E0,0E0,0E0,0E0],"parents":[2147483647,0,0,1,1,2,2,4,4,5,5,6,6,7,7,9,9,14,14],"right_children":[2,4,6,-1,8,10,12,14,-1,16,-1,-1,-1,-1,18,-1,-1,-1,-1],"split_conditions":[5E-1,5E-1,5E-1,1.5507655E2,5E-1,5E-1,5E-1,5E-1,1.5186987E2,5E-1,8.133953E1,9.551045E1,3.5007864E2,2.1423375E2,5E-1,1.486408E2,9.115868E1,1.2371136E2,2.5196142E1],"split_indices":[12,19,7,0,11,19,19,7,0,18,0,0,0,0,10,0,0,0,0],"split_type":[0,0,0,0,0,0,0,0,0,0,0,0,0,0,0,0,0,0,0],"sum_hessian":[8.8E2,7.24E2,1.56E2,5.59E2,1.65E2,1.5E2,6E0,1.23E2,4.2E1,1.04E2,4.6E1,4E0,2E0,1.19E2,4E0,7.1E1,3.3E1,3E0,1E0],"tree_param":{"num_deleted":"0","num_feature":"20","num_nodes":"19","size_leaf_vector":"0"}},{"base_weights":[1.4194509E3,1.2294552E3,1.5453236E3,1.0854236E3,1.7287548E3,1.654979E3,1.00993823E3,1.2940798E3,3.183559E2,2.071511E3,9.631845E2,1.9978812E3,1.5452754E3,6.935421E2,2.188537E3,8.970983E2,1.7087195E3,1.4140935E3,-2.9200867E2,1.5543901E3,3.2772578E3,-5.8308215E2,1.8166835E3,1.8277892E3,2.3448425E3,1.6273616E3,1.281479E3,4.0045276E2,2.5282686E3,2.5290693E3,-4.6732504E2,1.246475E3,3.1271558E2,2.191737E3,1.1237051E3,9.254169E2,3.3792842E3,-1.5056328E3,1.6238712E2,1.3413877E3,1.9737246E3,-1.4891089E3,6.187664E2,2.0397197E3,8.7145233E2,3.5107524E3,1.8369242E3,1.8518217E3,1.3899065E3,9.0832764E2,2.231214E3,6.445256E2,-7.2833435E1,1.3205876E3,3.469832E3,3.4088667E3,1.8775815E3],"categories":[],"categories_nodes":[],"categories_segments":[],"categories_sizes":[],"default_left":[true,true,true,true,true,true,true,true,true,true,true,true,true,true,true,true,true,true,true,true,false,true,true,false,true,true,true,true,true,true,false,false,false,false,false,false,false,false,false,false,false,false,false,false,false,false,false,false,false,false,false,false,false,false,false,false,false],"id":15,"left_children":[1,3,5,7,9,11,13,15,17,19,21,23,25,27,29,31,33,35,37,39,-1,41,43,-1,45,47,49,51,53,55,-1,-1,-1,-1,-1,-1,-1,-1,-1,-1,-1,-1,-1,-1,-1,-1,-1,-1,-1,-1,-1,-1,-1,-1,-1,-1,-1],"loss_changes":[1.9141632E7,2.3697216E7,2.9182208E7,4.4226784E7,1.8441904E7,1.324096E7,3.2760512E7,3.4489376E7,4.122091E7,2.7903952E7,3.538477E7,1.691968E6,5.117952E6,3.8750936E7,1.838624E7,2.286996E7,2.745664E7,1.7957248E7,2.2316556E7,8.02768E5,0E0,1.1819183E7,1.777324E6,0E0,1.1263152E7,1.0771776E7,2.7711104E7,7.561219E6,6.74096E6,3.290728E6,0E0,0E0,0E0,0E0,0E0,0E0,0E0,0E0,0E0,0E0,0E0,0E0,0E0,0E0,0E0,0E0,0E0,0E0,0E0,0E0,0E0,0E0,0E0,0E0,0E0,0E0,0E0],"parents":[2147483647,0,0,1,1,2,2,3,3,4,4,5,5,6,6,7,7,8,8,9,9,10,10,11,11,12,12,13,13,14,14,15,15,16,16,17,17,18,18,19,19,21,21,22,22,24,24,25,25,26,26,27,27,28,28,29,29],"right_children":[2,4,6,8,10,12,14,16,18,20,22,24,26,28,30,32,34,36,38,40,-1,42,44,-1,46,48,50,52,54,56,-1,-1,-1,-1,-1,-1,-1,-1,-1,-1,-1,-1,-1,-1,-1,-1,-1,-1,-1,-1,-1,-1,-1,-1,-1,-1,-1],"split_conditions":[4.5E0,5E-1,5E-1,5E-1,2.5E0,6.5E0,5E-1,2.5E0,1.5E0,1.5E0,3.5E0,5E-1,5E-1,1.15E1,1.15E1,5E-1,3.5E0,5E-1,2.5E0,5E-1,3.277258E2,5E-1,5E-1,1.8277892E2,5.5E0,9.5E0,1.05E1,5E-1,5E-1,6.5E0,-4.6732506E1,1.246475E2,3.1271559E1,2.191737E2,1.1237051E2,9.254169E1,3.3792844E2,-1.5056328E2,1.6238712E1,1.3413878E2,1.9737247E2,-1.4891089E2,6.1876644E1,2.0397197E2,8.714523E1,3.5107526E2,1.8369243E2,1.8518217E2,1.3899065E2,9.083276E1,2.2312141E2,6.445256E1,-7.283344E0,1.3205876E2,3.4698322E2,3.408867E2,1.8775816E2],"split_indices":[2,11,11,17,2,2,17,2,2,2,2,17,18,2,2,18,2,15,2,18,0,17,18,0,2,2,2,18,18,2,0,0,0,0,0,0,0,0,0,0,0,0,0,0,0,0,0,0,0,0,0,0,0,0,0,0,0],"split_type":[0,0,0,0,0,0,0,0,0,0,0,0,0,0,0,0,0,0,0,0,0,0,0,0,0,0,0,0,0,0,0,0,0,0,0,0,0,0,0,0,0,0,0,0,0,0,0,0,0,0,0,0,0,0,0,0,0],"sum_hessian":[8.8E2,3.55E2,5.25E2,2.78E2,7.7E1,4.34E2,9.1E1,2.18E2,6E1,5.2E1,2.5E1,1.01E2,3.33E2,7.3E1,1.8E1,1.13E2,1.05E2,2.1E1,3.9E1,3.8E1,1.4E1,9E0,1.6E1,7.2E1,2.9E1,2.5E2,8.3E1,6.4E1,9E0,1.6E1,2E0,7E1,4.3E1,5.6E1,4.9E1,1.8E1,3E0,1E1,2.9E1,2.8E1,1E1,5E0,4E0,1.2E1,4E0,7E0,2.2E1,1.25E2,1.25E2,6.1E1,2.2E1,4.2E1,2.2E1,5E0,4E0,5E0,1.1E1],"tree_param":{"num_deleted":"0","num_feature":"20","num_nodes":"57","size_leaf_vector":"0"}},{"base_weights":[1.2820923E3,1.3656793E3,5.923203E2,1.4135808E3,1.215478E3,9.52058E2,-7.184528E1,1.422273E3,6.032766E2,1.2850532E3,8.6834863E2,1.0698792E3,6.6499274E2,-3.104131E1,-2.6222427E2,-6.660195E1,1.2923057E3,2.6422654E3,1.2515115E3,9.8393774E2,1.8844523E3,7.0469446E2,3.175869E2,1.3208271E3,8.9250525E2],"categories":[],"categories_nodes":[],"categories_segments":[],"categories_sizes":[],"default_left":[true,true,true,true,true,true,true,false,true,true,false,true,true,false,false,false,false,false,true,false,false,false,false,false,false],"id":16,"left_children":[1,3,5,7,9,11,13,-1,15,17,-1,19,21,-1,-1,-1,-1,-1,23,-1,-1,-1,-1,-1,-1],"loss_changes":[4.9966336E7,3.903616E6,2.3252964E7,3.270144E6,3.620448E6,1.402E6,2.6081523E5,0E0,3.7908532E6,4.029008E6,0E0,1.127376E6,5.562E4,0E0,0E0,0E0,0E0,0E0,2.780592E6,0E0,0E0,0E0,0E0,0E0,0E0],"parents":[2147483647,0,0,1,1,2,2,3,3,4,4,5,5,6,6,8,8,9,9,11,11,12,12,18,18],"right_children":[2,4,6,8,10,12,14,-1,16,18,-1,20,22,-1,-1,-1,-1,-1,24,-1,-1,-1,-1,-1,-1],"split_conditions":[5E-1,5E-1,5E-1,5E-1,5E-1,5E-1,5E-1,1.422273E2,5E-1,5E-1,8.683486E1,5E-1,5E-1,-3.104131E0,-2.6222427E1,-6.6601954E0,1.2923058E2,2.6422653E2,5E-1,9.8393776E1,1.8844524E2,7.0469444E1,3.1758692E1,1.3208272E2,8.925053E1],"split_indices":[4,18,12,6,15,18,18,0,12,5,0,15,15,0,0,0,0,0,12,0,0,0,0,0,0],"split_type":[0,0,0,0,0,0,0,0,0,0,0,0,0,0,0,0,0,0,0,0,0,0,0,0,0],"sum_hessian":[8.8E2,7.84E2,9.6E1,5.88E2,1.96E2,6.2E1,3.4E1,5.81E2,7E0,1.61E2,3.5E1,4.2E1,2E1,2.9E1,5E0,4E0,3E0,2E0,1.59E2,4E1,2E0,1.7E1,3E0,1.31E2,2.8E1],"tree_param":{"num_deleted":"0","num_feature":"20","num_nodes":"25","size_leaf_vector":"0"}},{"base_weights":[1.1552485E3,5.64129E2,1.2143817E3,1.34028E3,-2.4446782E2,1.3847188E3,1.0696974E3,1.1789838E3,1.8771661E3,4.3749836E1,-7.476284E2,1.2074636E3,2.1965798E3,1.1740044E3,8.641921E1,2.6094757E2,1.4409595E3,-8.610112E2,2.3927646E3,-2.9506268E2,2.0681875E3,1.4099954E3,2.1034012E2,2.384537E3,-4.962226E2,1.3005494E3,4.7319678E2,9.388508E2,-8.508354E2,1.2152615E3,2.838123E3,9.221079E2,-4.480831E2,1.1900388E3,1.8083044E3,5.3209896E1,1.211433E3,3.0762043E3,1.8023116E3,4.2619882E2,-1.2565698E3,1.2002301E3,1.6308495E3,-6.6780615E2,6.075508E2,-1.3878673E2,2.6317078E3],"categories":[],"categories_nodes":[],"categories_segments":[],"categories_sizes":[],"default_left":[true,true,true,true,true,true,true,true,true,true,false,true,true,true,true,false,true,false,false,true,false,true,true,true,true,true,true,true,false,false,false,false,false,false,false,false,false,false,false,false,false,false,false,false,false,false,false],"id":17,"left_children":[1,3,5,7,9,11,13,15,17,19,-1,21,23,25,27,-1,29,-1,-1,31,-1,33,35,37,39,41,43,45,-1,-1,-1,-1,-1,-1,-1,-1,-1,-1,-1,-1,-1,-1,-1,-1,-1,-1,-1],"loss_changes":[3.0092416E7,5.1801264E7,1.8210304E7,1.393392E6,5.985558E6,4.969568E7,4.470592E7,8.024576E6,1.3369914E7,1.9147406E7,0E0,6.047395E7,3.359456E7,3.439693E7,3.5154344E7,0E0,5.024504E6,0E0,0E0,4.8784875E6,0E0,1.9720768E7,8.102594E6,1.8569312E7,4.050655E6,9.081536E6,9.909618E6,4.234876E7,0E0,0E0,0E0,0E0,0E0,0E0,0E0,0E0,0E0,0E0,0E0,0E0,0E0,0E0,0E0,0E0,0E0,0E0,0E0],"parents":[2147483647,0,0,1,1,2,2,3,3,4,4,5,5,6,6,7,7,8,8,9,9,11,11,12,12,13,13,14,14,16,16,19,19,21,21,22,22,23,23,24,24,25,25,26,26,27,27],"right_children":[2,4,6,8,10,12,14,16,18,20,-1,22,24,26,28,-1,30,-1,-1,32,-1,34,36,38,40,42,44,46,-1,-1,-1,-1,-1,-1,-1,-1,-1,-1,-1,-1,-1,-1,-1,-1,-1,-1,-1],"split_conditions":[2.5E0,5E-1,1.55E1,5E-1,2.0205E3,1.35E1,2.0205E3,5E-1,2.0205E3,5E-1,-7.476284E1,1.15E1,2.0205E3,5E-1,5E-1,2.6094757E1,2.0205E3,-8.610113E1,2.3927647E2,5E-1,2.0681876E2,8.5E0,2.0205E3,1.45E1,5E-1,2.75E1,1.75E1,5E-1,-8.508354E1,1.21526146E2,2.8381232E2,9.221079E1,-4.480831E1,1.1900388E2,1.8083044E2,5.3209896E0,1.211433E2,3.0762045E2,1.8023117E2,4.2619884E1,-1.2565698E2,1.2002301E2,1.6308495E2,-6.678062E1,6.0755077E1,-1.3878673E1,2.6317078E2],"split_indices":[1,8,1,11,3,1,3,5,3,11,0,1,3,11,8,0,3,0,0,5,0,1,3,1,11,1,1,11,0,0,0,0,0,0,0,0,0,0,0,0,0,0,0,0,0,0,0],"split_type":[0,0,0,0,0,0,0,0,0,0,0,0,0,0,0,0,0,0,0,0,0,0,0,0,0,0,0,0,0,0,0,0,0,0,0,0,0,0,0,0,0,0,0,0,0,0,0],"sum_hessian":[8.8E2,8.1E1,7.99E2,4.1E1,4E1,3.63E2,4.36E2,3.4E1,7E0,2.6E1,1.4E1,3E2,6.3E1,3.94E2,4.2E1,8E0,2.6E1,1E0,6E0,2.3E1,3E0,2.49E2,5.1E1,5.9E1,4E0,3.33E2,6.1E1,2.2E1,2E1,2.4E1,2E0,2E0,2.1E1,1.63E2,8.6E1,4.5E1,6E0,2.5E1,3.4E1,2E0,2E0,2.59E2,7.4E1,6E0,5.5E1,1.4E1,8E0],"tree_param":{"num_deleted":"0","num_feature":"20","num_nodes":"47","size_leaf_vector":"0"}},{"base_weights":[1.0420455E3,1.4450433E3,9.2308704E2,1.7362782E3,-1.2878502E2,6.420085E2,1.1824735E3,1.959543E3,-8.5888727E2,2.725607E3,-8.9270654E2,9.5090784E2,3.5266547E2,1.0908114E3,1.938044E3,1.494353E3,2.711596E3,-1.5835476E3,2.3227166E3,3.70426E3,1.8264958E2,-2.5903071E3,-1.3041646E2,1.1753094E3,-5.2862816E1,-8.292713E2,6.0828076E2,1.06028E3,3.9398425E3,2.1657288E3,-4.7928735E2,2.5305522E3,1.0220294E3,3.9673232E3,2.0470854E3,6.0069653E2,-3.2172217E2,-2.804815E3,-5.39376E2,-8.4910516E2,1.5665933E3,3.0838934E2,1.4913496E3,-9.617919E2,1.8601744E3,-1.2880455E3,1.2952958E3,2.4294395E3,4.214089E2,1.0807113E3,-2.6827932E3,1.0455172E3,2.7287751E3,5.995153E2,-1.8628477E3],"categories":[],"categories_nodes":[],"categories_segments":[],"categories_sizes":[],"default_left":[true,true,true,true,true,true,true,true,true,true,true,true,true,true,true,true,true,false,false,false,true,true,true,true,true,true,true,true,false,true,true,false,false,false,false,false,false,false,false,false,false,false,false,false,false,false,false,false,false,false,false,false,false,false,false],"id":18,"left_children":[1,3,5,7,9,11,13,15,17,19,21,23,25,27,29,31,33,-1,-1,-1,35,37,39,41,43,45,47,49,-1,51,53,-1,-1,-1,-1,-1,-1,-1,-1,-1,-1,-1,-1,-1,-1,-1,-1,-1,-1,-1,-1,-1,-1,-1,-1],"loss_changes":[4.087757E7,9.14521E7,4.901869E7,9.903475E7,7.219185E7,2.9146304E7,2.2372768E7,5.0132224E7,3.594889E7,1.6705256E7,3.328064E7,3.5887744E7,5.2467056E7,2.3433792E7,2.141928E7,4.534149E7,4.021616E7,0E0,0E0,0E0,8.286003E5,1.973236E6,2.449584E7,3.5139696E7,5.3944564E7,3.1883928E7,4.7273624E7,2.7049696E7,0E0,1.8554144E7,7.0997935E6,0E0,0E0,0E0,0E0,0E0,0E0,0E0,0E0,0E0,0E0,0E0,0E0,0E0,0E0,0E0,0E0,0E0,0E0,0E0,0E0,0E0,0E0,0E0,0E0],"parents":[2147483647,0,0,1,1,2,2,3,3,4,4,5,5,6,6,7,7,8,8,9,9,10,10,11,11,12,12,13,13,14,14,15,15,16,16,20,20,21,21,22,22,23,23,24,24,25,25,26,26,27,27,29,29,30,30],"right_children":[2,4,6,8,10,12,14,16,18,20,22,24,26,28,30,32,34,-1,-1,-1,36,38,40,42,44,46,48,50,-1,52,54,-1,-1,-1,-1,-1,-1,-1,-1,-1,-1,-1,-1,-1,-1,-1,-1,-1,-1,-1,-1,-1,-1,-1,-1],"split_conditions":[2.6305E1,5E-1,6.064E1,5E-1,6.355E0,4.2925003E1,5E-1,1.799E1,5E-1,1.2E1,5.5E0,2.45E1,4.547E1,1.03345E2,2.85E1,1.05E1,2.1485E1,-1.5835477E2,2.3227165E2,3.70426E2,5.01E0,2.523E1,1.781E1,3.2114998E1,2.75E1,5E-1,4.674E1,1.03270004E2,3.9398425E2,8.5E0,8.5E0,2.5305522E2,1.0220294E2,3.9673233E2,2.0470854E2,6.0069653E1,-3.217222E1,-2.804815E2,-5.39376E1,-8.4910515E1,1.5665933E2,3.0838934E1,1.4913496E2,-9.617919E1,1.8601744E2,-1.2880455E2,1.2952959E2,2.4294395E2,4.2140892E1,1.0807113E2,-2.6827933E2,1.0455172E2,2.7287753E2,5.9951534E1,-1.8628477E2],"split_indices":[0,15,0,4,0,0,15,0,10,1,2,1,0,0,1,1,0,0,0,0,0,0,0,0,1,10,0,0,0,1,2,0,0,0,0,0,0,0,0,0,0,0,0,0,0,0,0,0,0,0,0,0,0,0,0],"split_type":[0,0,0,0,0,0,0,0,0,0,0,0,0,0,0,0,0,0,0,0,0,0,0,0,0,0,0,0,0,0,0,0,0,0,0,0,0,0,0,0,0,0,0,0,0,0,0,0,0,0,0,0,0,0,0],"sum_hessian":[8.8E2,1.98E2,6.82E2,1.67E2,3.1E1,3.29E2,3.53E2,1.54E2,1.3E1,6E0,2.5E1,1.58E2,1.71E2,3.17E2,3.6E1,9.7E1,5.7E1,1.1E1,2E0,4E0,2E0,7E0,1.8E1,1.29E2,2.9E1,3E1,1.41E2,3.15E2,2E0,3.3E1,3E0,2.9E1,6.8E1,1.8E1,3.9E1,1E0,1E0,6E0,1E0,1.3E1,5E0,3.5E1,9.4E1,2E1,9E0,2.5E1,5E0,1.2E1,1.29E2,3.14E2,1E0,1.2E1,2.1E1,2E0,1E0],"tree_param":{"num_deleted":"0","num_feature":"20","num_nodes":"55","size_leaf_vector":"0"}},{"base_weights":[9.403559E2,8.650925E2,1.3102078E3,9.177528E2,6.65313E2,1.6776556E3,1.7218262E2,8.824848E2,1.2311941E3,8.8571484E2,-4.793801E1,9.966823E1,1.9818934E3,3.8461533E2,1.4876888E2,1.3113652E3,8.519044E2,5.7581067E2,2.08063E3,7.156926E2,1.5712134E3,-1.0749282E2,2.8593643E2,1.0963041E3,-1.1284054E3,1.4686316E3,-8.867086E2,9.606803E1,6.755552E2,1.492692E3,9.579436E2,8.098602E2,9.662845E2,7.167284E2,4.4601837E1,1.2289402E3,6.5630457E2,-2.2877322E2,9.592111E1],"categories":[],"categories_nodes":[],"categories_segments":[],"categories_sizes":[],"default_left":[true,true,true,true,true,true,true,true,true,true,true,true,false,true,true,true,true,true,false,true,false,true,false,false,false,false,false,false,false,false,false,false,false,false,false,false,false,false,false],"id":19,"left_children":[1,3,5,7,9,11,13,15,17,19,21,23,-1,25,27,29,31,33,-1,35,-1,37,-1,-1,-1,-1,-1,-1,-1,-1,-1,-1,-1,-1,-1,-1,-1,-1,-1],"loss_changes":[2.336864E7,7.106112E6,6.116288E7,5.292864E6,2.4731528E7,5.307088E7,1.214795E5,5.733664E6,2.9950928E7,1.2838624E7,7.8453725E5,2.4491658E7,0E0,5.442475E6,8.990574E5,6.6038E5,1.565728E6,2.430692E6,0E0,2.161704E6,0E0,8.373867E5,0E0,0E0,0E0,0E0,0E0,0E0,0E0,0E0,0E0,0E0,0E0,0E0,0E0,0E0,0E0,0E0,0E0],"parents":[2147483647,0,0,1,1,2,2,3,3,4,4,5,5,6,6,7,7,8,8,9,9,10,10,11,11,13,13,14,14,15,15,16,16,17,17,19,19,21,21],"right_children":[2,4,6,8,10,12,14,16,18,20,22,24,-1,26,28,30,32,34,-1,36,-1,38,-1,-1,-1,-1,-1,-1,-1,-1,-1,-1,-1,-1,-1,-1,-1,-1,-1],"split_conditions":[5E-1,5E-1,5E-1,2.0205E3,2.0205E3,5E-1,5E-1,5E-1,5E-1,5E-1,5E-1,2.0205E3,1.9818935E2,2.0205E3,2.0205E3,5E-1,5E-1,5E-1,2.0806299E2,5E-1,1.5712134E2,5E-1,2.8593643E1,1.0963041E2,-1.1284054E2,1.4686316E2,-8.867086E1,9.606803E0,6.755552E1,1.4926921E2,9.5794365E1,8.098602E1,9.662845E1,7.1672844E1,4.4601836E0,1.2289402E2,6.5630455E1,-2.2877323E1,9.592112E0],"split_indices":[13,12,17,3,3,5,5,5,5,17,5,3,0,3,3,17,17,17,0,5,0,17,0,0,0,0,0,0,0,0,0,0,0,0,0,0,0,0,0],"split_type":[0,0,0,0,0,0,0,0,0,0,0,0,0,0,0,0,0,0,0,0,0,0,0,0,0,0,0,0,0,0,0,0,0,0,0,0,0,0,0],"sum_hessian":[8.8E2,7.34E2,1.46E2,5.78E2,1.56E2,1.1E2,3.6E1,5.23E2,5.5E1,1.19E2,3.7E1,1.8E1,9.2E1,2E0,3.4E1,3.2E1,4.91E2,3.2E1,2.3E1,9.7E1,2.2E1,3.2E1,5E0,1E1,8E0,1E0,1E0,3.2E1,2E0,1.9E1,1.3E1,3.65E2,1.26E2,2.5E1,7E0,8E0,8.9E1,2E1,1.2E1],"tree_param":{"num_deleted":"0","num_feature":"20","num_nodes":"39","size_leaf_vector":"0"}},{"base_weights":[8.479222E2,1.9542565E3,8.1064435E2,2.3376616E3,-2.0166747E3,7.2249384E2,1.188419E3,2.980931E3,7.90272E2,-2.6579392E3,-3.6207275E2,8.1713745E2,4.8879366E0,1.0195927E3,2.6435063E3,3.2016057E3,-3.802705E2,-1.3851008E3,1.2365812E3,1.1569667E3,5.8053235E2,1.2040211E3,-3.2710107E2,1.5921082E3,7.862334E2,1.1699008E3,2.8928076E3,3.5658481E3,1.1238556E3,2.347536E3,4.7334033E2,1.0536854E3,2.7110134E3,6.086897E2,-3.007301E3,1.939728E3,4.067151E1,-9.373595E2,4.6243906E2,1.2445305E3,3.1011235E3,-6.375592E2,1.108322E3,1.3302953E3,3.3935852E2,3.2099846E3,1.3741632E3],"categories":[],"categories_nodes":[],"categories_segments":[],"categories_sizes":[],"default_left":[true,true,true,true,true,true,true,true,true,false,false,true,true,true,true,true,false,false,true,true,true,true,true,true,true,true,true,false,false,false,false,false,false,false,false,false,false,false,false,false,false,false,false,false,false,false,false],"id":20,"left_children":[1,3,5,7,9,11,13,15,17,-1,-1,19,21,23,25,27,-1,-1,29,31,33,35,37,39,41,43,45,-1,-1,-1,-1,-1,-1,-1,-1,-1,-1,-1,-1,-1,-1,-1,-1,-1,-1,-1,-1],"loss_changes":[3.472211E7,4.734683E7,2.7561344E7,2.348664E7,2.190545E6,4.7189984E7,3.65732E7,1.459688E7,1.0449304E7,0E0,0E0,4.867981E7,3.3046724E7,1.809672E7,2.453024E6,8.811296E6,0E0,0E0,5.644016E6,3.739229E7,3.8579256E7,1.5307222E7,3.175675E7,1.76016E7,4.8862996E7,6.47145E4,1.804936E6,0E0,0E0,0E0,0E0,0E0,0E0,0E0,0E0,0E0,0E0,0E0,0E0,0E0,0E0,0E0,0E0,0E0,0E0,0E0,0E0],"parents":[2147483647,0,0,1,1,2,2,3,3,4,4,5,5,6,6,7,7,8,8,11,11,12,12,13,13,14,14,15,15,18,18,19,19,20,20,21,21,22,22,23,23,24,24,25,25,26,26],"right_children":[2,4,6,8,10,12,14,16,18,-1,-1,20,22,24,26,28,-1,-1,30,32,34,36,38,40,42,44,46,-1,-1,-1,-1,-1,-1,-1,-1,-1,-1,-1,-1,-1,-1,-1,-1,-1,-1,-1,-1],"split_conditions":[6.6099997E0,5E-1,8.384E1,5E-1,4.6099997E0,5E-1,2.0205E3,5E-1,4.19E0,-2.657939E2,-3.6207275E1,3.7265E1,2.0205E3,8.969E1,8.647E1,5.775E0,-3.802705E1,-1.3851009E2,4.535E0,3.589E1,8.3685E1,5.777E1,5.223E1,8.9145004E1,9.1715E1,8.643E1,5E-1,3.565848E2,1.1238556E2,2.3475359E2,4.7334034E1,1.05368546E2,2.7110135E2,6.086897E1,-3.007301E2,1.9397281E2,4.067151E0,-9.3735954E1,4.6243908E1,1.2445306E2,3.1011237E2,-6.375592E1,1.1083221E2,1.3302953E2,3.3935852E1,3.2099847E2,1.3741632E2],"split_indices":[0,10,0,14,0,4,3,4,0,0,0,0,3,0,0,0,0,0,0,0,0,0,0,0,0,0,10,0,0,0,0,0,0,0,0,0,0,0,0,0,0,0,0,0,0,0,0],"split_type":[0,0,0,0,0,0,0,0,0,0,0,0,0,0,0,0,0,0,0,0,0,0,0,0,0,0,0,0,0,0,0,0,0,0,0,0,0,0,0,0,0,0,0,0,0,0,0],"sum_hessian":[8.8E2,2.7E1,8.53E2,2.5E1,2E0,6.94E2,1.59E2,1.7E1,8E0,1E0,1E0,6.13E2,8.1E1,1.44E2,1.5E1,1.6E1,1E0,1E0,7E0,2.5E2,3.63E2,1.7E1,6.4E1,4E1,1.04E2,3E0,1.2E1,1.3E1,3E0,2E0,5E0,2.36E2,1.4E1,3.61E2,2E0,1E1,7E0,3.6E1,2.8E1,3.4E1,6E0,1.9E1,8.5E1,2E0,1E0,9E0,3E0],"tree_param":{"num_deleted":"0","num_feature":"20","num_nodes":"47","size_leaf_vector":"0"}},{"base_weights":[7.650319E2,1.7685278E3,7.3122284E2,1.861159E3,-3.6125708E2,6.506618E2,1.0765273E3,3.2031252E3,1.6252767E3,7.356477E2,6.247228E0,9.2348395E2,2.4937144E3,-1.3158457E3,1.8030671E3,1.0427738E3,5.218172E2,1.0946768E3,-2.951063E2,1.7016073E3,6.900492E2,1.3182958E3,3.6472935E3,1.2195868E3,2.380854E3,1.2657498E3,-3.4766903E1,5.479887E2,-2.8068145E3,5.1753033E2,2.9828066E3,-8.4615704E2,4.177897E2,9.608032E2,3.0949607E3,-2.202858E3,8.1536273E2,1.629916E3,-5.8233276E2],"categories":[],"categories_nodes":[],"categories_segments":[],"categories_sizes":[],"default_left":[true,true,true,true,false,true,true,false,true,true,true,true,true,false,true,true,true,true,true,true,true,true,false,false,false,false,false,false,false,false,false,false,false,false,false,false,false,false,false],"id":21,"left_children":[1,3,5,7,-1,9,11,-1,13,15,17,19,21,-1,23,25,27,29,31,33,35,37,-1,-1,-1,-1,-1,-1,-1,-1,-1,-1,-1,-1,-1,-1,-1,-1,-1],"loss_changes":[2.8571712E7,6.21132E6,2.3038912E7,3.292496E6,0E0,3.8050464E7,3.2365504E7,0E0,1.5450008E7,3.976336E7,2.722721E7,2.5321472E7,1.5481208E7,0E0,5.151384E6,6.036304E7,3.3225464E7,1.8036396E7,2.5892522E7,3.1048456E7,4.310957E7,6.290096E6,0E0,0E0,0E0,0E0,0E0,0E0,0E0,0E0,0E0,0E0,0E0,0E0,0E0,0E0,0E0,0E0,0E0],"parents":[2147483647,0,0,1,1,2,2,3,3,5,5,6,6,8,8,9,9,10,10,11,11,12,12,14,14,15,15,16,16,17,17,18,18,19,19,20,20,21,21],"right_children":[2,4,6,8,-1,10,12,-1,14,16,18,20,22,-1,24,26,28,30,32,34,36,38,-1,-1,-1,-1,-1,-1,-1,-1,-1,-1,-1,-1,-1,-1,-1,-1,-1],"split_conditions":[6.6099997E0,5E-1,8.384E1,3.935E0,-3.612571E1,5E-1,5E-1,3.2031253E2,4.125E0,3.7265E1,2.0205E3,8.894E1,9.069E1,-1.3158458E2,5.205E0,5E-1,8.3685E1,5E-1,5.223E1,5E-1,8.9145004E1,8.9479996E1,3.6472934E2,1.2195868E2,2.380854E2,1.26574974E2,-3.4766903E0,5.479887E1,-2.8068146E2,5.1753033E1,2.9828067E2,-8.461571E1,4.1778973E1,9.608032E1,3.0949606E2,-2.202858E2,8.153628E1,1.6299161E2,-5.8233276E1],"split_indices":[0,4,0,0,0,4,4,0,0,0,3,0,0,0,0,15,0,16,0,16,0,0,0,0,0,0,0,0,0,0,0,0,0,0,0,0,0,0,0],"split_type":[0,0,0,0,0,0,0,0,0,0,0,0,0,0,0,0,0,0,0,0,0,0,0,0,0,0,0,0,0,0,0,0,0,0,0,0,0,0,0],"sum_hessian":[8.8E2,2.7E1,8.53E2,2.6E1,1E0,6.94E2,1.59E2,2E0,2.4E1,6.13E2,8.1E1,1.45E2,1.4E1,1E0,2.3E1,2.5E2,3.63E2,1.7E1,6.4E1,3.2E1,1.13E2,8E0,6E0,1.3E1,1E1,2.07E2,4.3E1,3.61E2,2E0,1.4E1,3E0,3.6E1,2.8E1,2.2E1,1E1,4E0,1.09E2,7E0,1E0],"tree_param":{"num_deleted":"0","num_feature":"20","num_nodes":"39","size_leaf_vector":"0"}},{"base_weights":[6.90184E2,1.6099839E3,6.592068E2,9.7506915E2,3.0741372E3,6.4900446E2,3.3336013E3,5.426194E1,1.8063246E3,6.56006E2,-2.649641E3,2.1890967E3,-1.01868823E3,-3.5653613E2,2.3276865E3,5.83873E2,9.5912787E2,-3.4319434E2,3.1509253E3,-1.3775521E3,7.4167944E2,2.0462173E3,-2.5860215E3,2.7211345E3,-4.049485E2,6.0426135E2,-2.328184E3,7.484094E2,1.9404802E3],"categories":[],"categories_nodes":[],"categories_segments":[],"categories_sizes":[],"default_left":[true,true,true,true,false,true,false,true,true,true,false,true,true,true,true,true,true,false,false,false,false,false,false,false,false,false,false,false,false],"id":22,"left_children":[1,3,5,7,-1,9,-1,11,13,15,-1,17,19,21,23,25,27,-1,-1,-1,-1,-1,-1,-1,-1,-1,-1,-1,-1],"loss_changes":[2.4018208E7,2.299116E7,2.1098112E7,1.5957324E7,0E0,2.1395584E7,0E0,2.7437998E7,1.3253584E7,1.8031744E7,0E0,1.0851974E7,6.0819205E6,2.136767E7,1.0801432E7,4.2356304E7,3.2020656E7,0E0,0E0,0E0,0E0,0E0,0E0,0E0,0E0,0E0,0E0,0E0,0E0],"parents":[2147483647,0,0,1,1,2,2,3,3,5,5,7,7,8,8,9,9,11,11,12,12,13,13,14,14,15,15,16,16],"right_children":[2,4,6,8,-1,10,-1,12,14,16,-1,18,20,22,24,26,28,-1,-1,-1,-1,-1,-1,-1,-1,-1,-1,-1,-1],"split_conditions":[6.6099997E0,5E-1,1.03345E2,5.5E0,3.0741373E2,1.03270004E2,3.3336014E2,2.5E0,4.26E0,8.3425E1,-2.649641E2,1.5E0,5.79E0,3.835E0,1.05E1,8.3195E1,1.05E1,-3.4319435E1,3.1509253E2,-1.3775522E2,7.4167946E1,2.0462173E2,-2.5860214E2,2.7211346E2,-4.049485E1,6.0426136E1,-2.328184E2,7.484094E1,1.9404802E2],"split_indices":[0,19,0,2,0,0,0,2,0,0,0,2,0,0,2,0,2,0,0,0,0,0,0,0,0,0,0,0,0],"split_type":[0,0,0,0,0,0,0,0,0,0,0,0,0,0,0,0,0,0,0,0,0,0,0,0,0,0,0,0,0],"sum_hessian":[8.8E2,2.7E1,8.53E2,2E1,7E0,8.51E2,2E0,1E1,1E1,8.5E2,1E0,3E0,7E0,2E0,8E0,6.89E2,1.61E2,1E0,2E0,6E0,1E0,1E0,1E0,7E0,1E0,6.85E2,4E0,1.34E2,2.7E1],"tree_param":{"num_deleted":"0","num_feature":"20","num_nodes":"29","size_leaf_vector":"0"}},{"base_weights":[6.221521E2,5.893807E2,1.0311344E3,6.4341486E2,3.403515E2,1.1730398E3,2.3985915E2,7.5638983E2,4.190656E2,1.0158918E2,8.5106226E2,1.4732987E3,4.3228217E2,-2.7730463E2,1.7147308E3,6.0593677E2,1.02314233E3,5.8903577E2,-3.258741E1,1.8579097E2,-4.4023566E2,3.713288E2,2.3864326E3,5.752646E2,-2.3928614E1,-5.583234E2,4.6750748E2,6.823212E2,3.4975262E2,8.4521045E2,1.468755E3,8.3558307E2,5.161532E2,-4.0381613E2,1.1815989E3,1.847005E1,1.1617848E3,-6.959766E2,7.2613995E2,2.1093971E2,3.067668E3,3.176896E3,-2.7541003E3,8.235698E2,1.1262304E1,-7.539746E2,7.1076025E2],"categories":[],"categories_nodes":[],"categories_segments":[],"categories_sizes":[],"default_left":[true,true,true,true,true,true,true,true,true,true,true,false,true,true,false,true,true,true,true,true,true,true,true,true,true,false,false,false,false,false,false,false,false,false,false,false,false,false,false,false,false,false,false,false,false,false,false],"id":23,"left_children":[1,3,5,7,9,11,13,15,17,19,21,-1,23,25,-1,27,29,31,33,35,37,39,41,43,45,-1,-1,-1,-1,-1,-1,-1,-1,-1,-1,-1,-1,-1,-1,-1,-1,-1,-1,-1,-1,-1,-1],"loss_changes":[1.1184032E7,1.0778272E7,6.890824E6,1.6678336E7,1.7950908E7,1.1354696E7,8.880129E6,1.7223232E7,1.7450992E7,4.7327545E6,3.370499E7,0E0,1.1281912E6,2.1456845E6,0E0,5.367192E6,1.1342368E7,2.52008E6,2.8866044E7,1.4500811E7,4.681135E6,1.5321266E7,5.3451148E7,1.8029575E6,3.2181105E6,0E0,0E0,0E0,0E0,0E0,0E0,0E0,0E0,0E0,0E0,0E0,0E0,0E0,0E0,0E0,0E0,0E0,0E0,0E0,0E0,0E0,0E0],"parents":[2147483647,0,0,1,1,2,2,3,3,4,4,5,5,6,6,7,7,8,8,9,9,10,10,12,12,13,13,15,15,16,16,17,17,18,18,19,19,20,20,21,21,22,22,23,23,24,24],"right_children":[2,4,6,8,10,12,14,16,18,20,22,-1,24,26,-1,28,30,32,34,36,38,40,42,44,46,-1,-1,-1,-1,-1,-1,-1,-1,-1,-1,-1,-1,-1,-1,-1,-1,-1,-1,-1,-1,-1,-1],"split_conditions":[1.15E1,5E-1,5E-1,7.5E0,7.5E0,5E-1,5E-1,4.5E0,5E-1,6.5E0,5E-1,1.4732988E2,5E-1,5E-1,1.7147308E2,5E-1,5E-1,8.5E0,1.05E1,5.5E0,5E-1,5E-1,1.05E1,5E-1,5E-1,-5.5832344E1,4.6750748E1,6.8232124E1,3.497526E1,8.452105E1,1.468755E2,8.355831E1,5.1615322E1,-4.0381615E1,1.1815989E2,1.8470051E0,1.1617848E2,-6.9597664E1,7.2614E1,2.1093971E1,3.067668E2,3.176896E2,-2.7541003E2,8.235699E1,1.1262305E0,-7.539746E1,7.107603E1],"split_indices":[2,12,14,2,2,17,17,2,17,2,17,0,12,7,0,17,17,2,2,2,17,6,2,7,7,0,0,0,0,0,0,0,0,0,0,0,0,0,0,0,0,0,0,0,0,0,0],"split_type":[0,0,0,0,0,0,0,0,0,0,0,0,0,0,0,0,0,0,0,0,0,0,0,0,0,0,0,0,0,0,0,0,0,0,0,0,0,0,0,0,0,0,0,0,0,0,0],"sum_hessian":[8.8E2,8.17E2,6.3E1,6.7E2,1.47E2,5.3E1,1E1,4.44E2,2.26E2,1.01E2,4.6E1,3.7E1,1.6E1,8E0,2E0,2.86E2,1.58E2,1.64E2,6.2E1,8.8E1,1.3E1,3.6E1,1E1,1.2E1,4E0,6E0,2E0,2.19E2,6.7E1,1.15E2,4.3E1,3.5E1,1.29E2,4.8E1,1.4E1,7.6E1,1.2E1,1.1E1,2E0,3.5E1,1E0,9E0,1E0,8E0,4E0,2E0,2E0],"tree_param":{"num_deleted":"0","num_feature":"20","num_nodes":"47","size_leaf_vector":"0"}},{"base_weights":[5.615722E2,1.12836075E2,6.0685315E2,2.181888E2,-2.0310225E2,7.10649E2,4.830476E2,1.26051414E2,2.9142847E3,1.5947619E1,-2.2970498E3,5.652042E2,1.034395E3,5.3341974E2,1.773413E1,-3.706915E1,3.9760144E2,-3.685131E2,1.693354E2,7.4114984E2,-2.913652E2,1.1739036E3,-6.186901E2,2.3800417E2,6.0440857E2,1.180434E3,-2.005138E2,-1.9806433E2,5.204775E2,1.2125211E3,3.8069733E1,4.3671988E2,-5.633423E1,9.2578986E2,9.954807E1,-5.187637E2,5.0902664E2,2.2616018E3,8.732499E2,5.8080426E2,-8.6892145E2,6.2394836E2,-1.0493634E2,1.3183772E3,2.4035913E2,1.3479149E2,-3.595067E2],"categories":[],"categories_nodes":[],"categories_segments":[],"categories_sizes":[],"default_left":[true,true,true,true,true,true,true,true,false,true,false,true,true,true,true,true,true,false,true,true,true,true,false,true,true,true,true,false,false,false,false,false,false,false,false,false,false,false,false,false,false,false,false,false,false,false,false],"id":24,"left_children":[1,3,5,7,9,11,13,15,-1,17,-1,19,21,23,25,27,29,-1,31,33,35,37,-1,39,41,43,45,-1,-1,-1,-1,-1,-1,-1,-1,-1,-1,-1,-1,-1,-1,-1,-1,-1,-1,-1,-1],"loss_changes":[1.7825536E7,2.7738325E6,9.925184E6,1.5003742E7,9.691702E6,1.9788112E7,8.610528E6,2.720363E6,0E0,1.2398421E6,0E0,4.558403E7,3.1404224E7,6.81016E6,9.635495E6,3.6005942E6,6.68009E6,0E0,9.335145E5,2.9513936E7,9.72857E6,3.8217216E7,0E0,2.5545772E7,3.771408E6,4.455905E5,1.7566629E6,0E0,0E0,0E0,0E0,0E0,0E0,0E0,0E0,0E0,0E0,0E0,0E0,0E0,0E0,0E0,0E0,0E0,0E0,0E0,0E0],"parents":[2147483647,0,0,1,1,2,2,3,3,4,4,5,5,6,6,7,7,9,9,11,11,12,12,13,13,14,14,15,15,16,16,18,18,19,19,20,20,21,21,23,23,24,24,25,25,26,26],"right_children":[2,4,6,8,10,12,14,16,-1,18,-1,20,22,24,26,28,30,-1,32,34,36,38,-1,40,42,44,46,-1,-1,-1,-1,-1,-1,-1,-1,-1,-1,-1,-1,-1,-1,-1,-1,-1,-1,-1,-1],"split_conditions":[2.5E0,5E-1,1.85E1,5E-1,5E-1,1.35E1,2.0205E3,2.0205E3,2.9142847E2,1.5E0,-2.2970499E2,1.15E1,2.0205E3,2.05E1,2.05E1,5E-1,5E-1,-3.685131E1,2.0205E3,5E-1,5E-1,1.45E1,-6.1869015E1,5E-1,5E-1,5E-1,2.45E1,-1.9806433E1,5.204775E1,1.2125211E2,3.8069732E0,4.367199E1,-5.633423E0,9.257899E1,9.954807E0,-5.187637E1,5.0902664E1,2.2616019E2,8.732499E1,5.8080425E1,-8.689214E1,6.2394836E1,-1.0493634E1,1.3183772E2,2.4035913E1,1.3479149E1,-3.5950672E1],"split_indices":[1,17,1,6,6,1,3,3,0,1,0,1,3,1,1,18,4,0,3,18,18,1,0,17,6,17,1,0,0,0,0,0,0,0,0,0,0,0,0,0,0,0,0,0,0,0,0],"split_type":[0,0,0,0,0,0,0,0,0,0,0,0,0,0,0,0,0,0,0,0,0,0,0,0,0,0,0,0,0,0,0,0,0,0,0,0,0,0,0,0,0,0,0,0,0,0,0],"sum_hessian":[8.8E2,8.1E1,7.99E2,6.1E1,2E1,4.32E2,3.67E2,6E1,1E0,1.9E1,1E0,3E2,1.32E2,3.31E2,3.6E1,3.8E1,2.2E1,5E0,1.4E1,2.49E2,5.1E1,1.22E2,1E1,6.5E1,2.66E2,5E0,3.1E1,3E1,8E0,6E0,1.6E1,6E0,8E0,1.93E2,5.6E1,4E1,1.1E1,2.5E1,9.7E1,5E1,1.5E1,2.59E2,7E0,4E0,1E0,1E1,2.1E1],"tree_param":{"num_deleted":"0","num_feature":"20","num_nodes":"47","size_leaf_vector":"0"}},{"base_weights":[5.0624902E2,4.4018002E2,8.330821E2,4.926141E2,2.8604446E2,5.426361E2,1.623224E3,5.5088855E2,2.712591E2,1.3606921E2,7.3605334E2,7.062439E2,-7.1910175E2,5.0999298E2,9.182526E2,4.8537427E2,-4.1865204E2,3.5792812E1,6.572594E2,6.747455E2,1.7731072E3,2.1916798E1,-1.0519896E3,4.8025012E2,1.2228638E3,6.223609E2,2.5882095E3,5.140846E2,-5.0568326E2,-1.4006107E3,-2.4439256E2,-9.037073E1,3.8982175E2,2.159109E3,1.19572945E2],"categories":[],"categories_nodes":[],"categories_segments":[],"categories_sizes":[],"default_left":[true,true,true,true,true,true,false,true,true,true,true,false,true,true,true,true,true,true,true,false,false,false,false,false,false,false,false,false,false,false,false,false,false,false,false],"id":25,"left_children":[1,3,5,7,9,11,-1,13,15,17,19,-1,21,23,25,27,29,31,33,-1,-1,-1,-1,-1,-1,-1,-1,-1,-1,-1,-1,-1,-1,-1,-1],"loss_changes":[1.8644464E7,5.791536E6,3.2833072E7,6.89828E6,1.264677E7,2.3008618E7,0E0,6.007592E6,1.7339444E7,7.443164E6,1.767364E6,0E0,3.240146E6,7.685984E6,1.9110404E7,2.792416E6,4.432488E6,5.442754E6,1.82921E7,0E0,0E0,0E0,0E0,0E0,0E0,0E0,0E0,0E0,0E0,0E0,0E0,0E0,0E0,0E0,0E0],"parents":[2147483647,0,0,1,1,2,2,3,3,4,4,5,5,7,7,8,8,9,9,10,10,12,12,13,13,14,14,15,15,16,16,17,17,18,18],"right_children":[2,4,6,8,10,12,-1,14,16,18,20,-1,22,24,26,28,30,32,34,-1,-1,-1,-1,-1,-1,-1,-1,-1,-1,-1,-1,-1,-1,-1,-1],"split_conditions":[5E-1,5E-1,5E-1,5E-1,5E-1,5E-1,1.623224E2,2.0205E3,2.0205E3,2.0205E3,5E-1,7.062439E1,2.0205E3,5E-1,5E-1,5E-1,5E-1,5E-1,5E-1,6.747455E1,1.7731071E2,2.1916797E0,-1.0519897E2,4.8025013E1,1.2228638E2,6.223609E1,2.5882095E2,5.140846E1,-5.0568325E1,-1.4006108E2,-2.4439257E1,-9.037073E0,3.8982174E1,2.1591089E2,1.1957294E1],"split_indices":[13,16,16,12,10,4,0,3,3,3,4,0,3,4,10,4,4,12,4,0,0,0,0,0,0,0,0,0,0,0,0,0,0,0,0],"split_type":[0,0,0,0,0,0,0,0,0,0,0,0,0,0,0,0,0,0,0,0,0,0,0,0,0,0,0,0,0,0,0,0,0,0,0],"sum_hessian":[8.8E2,7.34E2,1.46E2,5.46E2,1.88E2,1.08E2,3.8E1,4.31E2,1.15E2,1.42E2,4.6E1,9.6E1,1.2E1,3.9E2,4.1E1,8.8E1,2.7E1,1.2E2,2.2E1,4.5E1,1E0,4E0,8E0,3.76E2,1.4E1,3.6E1,5E0,8.6E1,2E0,3E0,2.4E1,8.9E1,3.1E1,5E0,1.7E1],"tree_param":{"num_deleted":"0","num_feature":"20","num_nodes":"35","size_leaf_vector":"0"}},{"base_weights":[4.5672205E2,6.2449474E1,4.9655157E2,6.834858E2,-5.750133E2,6.057729E2,4.0441632E2,4.689863E2,1.1798188E3,-1.5073251E2,-1.8742104E3,4.5498724E2,1.3053151E3,4.5353107E2,8.808642E1,2.1870753E2,9.717009E2,1.6508956E3,4.319263E2,-5.023183E2,5.65233E2,-2.2530754E3,-7.40144E2,6.1329193E2,-3.146505E2,1.5904568E3,5.457447E2,3.133092E2,6.07614E2,4.2327075E2,-9.4501794E2,3.9647647E2,-6.778717E2,5.486961E2,2.384372E3,1.09493164E2,2.2435579E3,-5.7301E2,-3.8453247E1,9.2711206E2,-7.0548193E2,4.2031882E2,9.698931E2,-6.295389E2,5.0210506E1,1.3045048E3,2.784416E3,-8.130113E2,1.6087501E3,-1.5166648E3,3.875915E2,7.7201135E2,1.1529097E2,8.439943E2,-2.1849408E2,-1.163831E3,3.1484506E2],"categories":[],"categories_nodes":[],"categories_segments":[],"categories_sizes":[],"default_left":[true,true,true,true,true,true,true,true,true,true,true,true,true,true,true,true,true,true,false,true,true,false,false,true,true,true,true,true,true,true,true,false,false,false,false,false,false,false,false,false,false,false,false,false,false,false,false,false,false,false,false,false,false,false,false,false,false],"id":26,"left_children":[1,3,5,7,9,11,13,15,17,19,21,23,25,27,29,31,33,35,-1,37,39,-1,-1,41,43,45,47,49,51,53,55,-1,-1,-1,-1,-1,-1,-1,-1,-1,-1,-1,-1,-1,-1,-1,-1,-1,-1,-1,-1,-1,-1,-1,-1,-1,-1],"loss_changes":[1.3798352E7,3.2856874E7,7.795408E6,3.901648E6,2.2297444E7,3.7783544E7,6.744072E6,3.6759595E6,3.493884E6,8.338443E6,2.599048E6,3.6868976E7,1.2972104E7,7.967416E6,2.1171602E7,3.7723922E6,4.638041E6,6.125532E6,0E0,6.93262E5,5.714574E6,0E0,0E0,1.678204E7,6.011709E6,1.2031928E7,2.875882E7,2.7763488E7,1.4389768E7,1.261092E7,4.510035E6,0E0,0E0,0E0,0E0,0E0,0E0,0E0,0E0,0E0,0E0,0E0,0E0,0E0,0E0,0E0,0E0,0E0,0E0,0E0,0E0,0E0,0E0,0E0,0E0,0E0,0E0],"parents":[2147483647,0,0,1,1,2,2,3,3,4,4,5,5,6,6,7,7,8,8,9,9,10,10,11,11,12,12,13,13,14,14,15,15,16,16,17,17,19,19,20,20,23,23,24,24,25,25,26,26,27,27,28,28,29,29,30,30],"right_children":[2,4,6,8,10,12,14,16,18,20,22,24,26,28,30,32,34,36,-1,38,40,-1,-1,42,44,46,48,50,52,54,56,-1,-1,-1,-1,-1,-1,-1,-1,-1,-1,-1,-1,-1,-1,-1,-1,-1,-1,-1,-1,-1,-1,-1,-1,-1,-1],"split_conditions":[2.5E0,5E-1,1.55E1,5E-1,5E-1,1.35E1,5E-1,5E-1,5E-1,5E-1,5E-1,1.15E1,5E-1,5E-1,5E-1,5E-1,5E-1,1.5E0,4.319263E1,5E-1,5E-1,-2.2530754E2,-7.40144E1,8.5E0,1.25E1,5E-1,5E-1,1.65E1,5E-1,5E-1,2.65E1,3.9647648E1,-6.778717E1,5.486961E1,2.3843721E2,1.0949317E1,2.2435579E2,-5.7301003E1,-3.8453248E0,9.2711205E1,-7.0548195E1,4.2031883E1,9.698931E1,-6.2953888E1,5.021051E0,1.3045049E2,2.7844162E2,-8.130113E1,1.6087502E2,-1.5166649E2,3.875915E1,7.720113E1,1.1529098E1,8.439944E1,-2.184941E1,-1.1638311E2,3.1484507E1],"split_indices":[1,8,1,17,17,1,4,19,4,19,4,1,17,8,19,10,10,1,0,10,10,0,0,1,1,10,8,1,17,8,1,0,0,0,0,0,0,0,0,0,0,0,0,0,0,0,0,0,0,0,0,0,0,0,0,0,0],"split_type":[0,0,0,0,0,0,0,0,0,0,0,0,0,0,0,0,0,0,0,0,0,0,0,0,0,0,0,0,0,0,0,0,0,0,0,0,0,0,0,0,0,0,0,0,0,0,0,0,0,0,0,0,0,0,0,0,0],"sum_hessian":[8.8E2,8.1E1,7.99E2,4.1E1,4E1,3.63E2,4.36E2,3E1,1.1E1,3.1E1,9E0,3E2,6.3E1,3.77E2,5.9E1,2.1E1,9E0,6E0,5E0,2.1E1,1E1,6E0,3E0,2.49E2,5.1E1,4.5E1,1.8E1,1.99E2,1.78E2,4.5E1,1.4E1,1.8E1,3E0,8E0,1E0,2E0,4E0,1.8E1,3E0,8E0,2E0,1.63E2,8.6E1,2.7E1,2.4E1,3.8E1,7E0,8E0,1E1,7E0,1.92E2,1.33E2,4.5E1,2.7E1,1.8E1,1.2E1,2E0],"tree_param":{"num_deleted":"0","num_feature":"20","num_nodes":"57","size_leaf_vector":"0"}},{"base_weights":[4.118834E2,3.523829E2,7.065159E2,1.562526E2,4.294775E2,9.854329E2,3.2924182E2,3.1700214E2,-5.993129E2,1.01663904E3,3.2825595E2,5.4803766E2,1.6787615E3,8.5680595E1,1.4940659E3,4.9950375E2,-5.6923895E2,-9.4209454E2,1.0029076E3,1.158279E3,3.5330862E2,-3.2818808E2,3.982689E2,1.01033875E3,-1.3080519E3,2.365747E3,1.0124535E3,2.8474738E2,-5.0270645E2,2.2830193E3,8.871797E1,3.339402E2,1.9004209E3,1.5851799E2,-2.0416047E3,1.9045772E2,-1.5750212E3,-8.599622E2,1.922048E3,9.3991516E2,1.9250697E3,-3.685932E2,1.0322969E3,-1.779397E2,-1.2484379E3,1.1649384E3,3.4301147E2,6.1874695E0,1.5476989E3,-2.2875405E3,-4.2012396E2,8.661911E2,2.5290488E3,-1.0847035E3,1.3430171E3,-5.1305005E2,4.643836E2,-8.5221E2,1.0595435E3,3.56159E3,1.0572728E3,-1.5954346E2,3.1074008E2],"categories":[],"categories_nodes":[],"categories_segments":[],"categories_sizes":[],"default_left":[true,true,true,true,true,true,true,true,true,true,true,true,true,true,true,true,true,true,true,true,true,true,true,true,true,true,true,true,true,true,true,false,false,false,false,false,false,false,false,false,false,false,false,false,false,false,false,false,false,false,false,false,false,false,false,false,false,false,false,false,false,false,false],"id":27,"left_children":[1,3,5,7,9,11,13,15,17,19,21,23,25,27,29,31,33,35,37,39,41,43,45,47,49,51,53,55,57,59,61,-1,-1,-1,-1,-1,-1,-1,-1,-1,-1,-1,-1,-1,-1,-1,-1,-1,-1,-1,-1,-1,-1,-1,-1,-1,-1,-1,-1,-1,-1,-1,-1],"loss_changes":[1.5185056E7,1.1040672E7,1.5130936E7,2.5571636E7,3.0974232E7,2.4531432E7,1.8013372E7,2.8264736E7,2.126506E7,6.81012E6,2.085918E7,4.6796428E7,1.2218824E7,6.4658935E6,1.1970034E7,3.2742504E7,3.2488194E7,2.2535316E7,1.3649183E7,8.710632E6,7.739578E6,5.847296E6,1.686992E7,2.3177288E7,8.57874E6,1.448608E6,1.3937748E7,6.113612E6,8.545047E6,7.15866E6,3.2668612E5,0E0,0E0,0E0,0E0,0E0,0E0,0E0,0E0,0E0,0E0,0E0,0E0,0E0,0E0,0E0,0E0,0E0,0E0,0E0,0E0,0E0,0E0,0E0,0E0,0E0,0E0,0E0,0E0,0E0,0E0,0E0,0E0],"parents":[2147483647,0,0,1,1,2,2,3,3,4,4,5,5,6,6,7,7,8,8,9,9,10,10,11,11,12,12,13,13,14,14,15,15,16,16,17,17,18,18,19,19,20,20,21,21,22,22,23,23,24,24,25,25,26,26,27,27,28,28,29,29,30,30],"right_children":[2,4,6,8,10,12,14,16,18,20,22,24,26,28,30,32,34,36,38,40,42,44,46,48,50,52,54,56,58,60,62,-1,-1,-1,-1,-1,-1,-1,-1,-1,-1,-1,-1,-1,-1,-1,-1,-1,-1,-1,-1,-1,-1,-1,-1,-1,-1,-1,-1,-1,-1,-1,-1],"split_conditions":[5E-1,8.5E0,1.95E1,5E-1,1.15E1,1.25E1,2.85E1,7.5E0,5E-1,5E-1,1.35E1,1.05E1,1.55E1,2.65E1,2.95E1,6.5E0,5E-1,2.5E0,5.5E0,5E-1,9.5E0,5E-1,1.45E1,3.5E0,1.15E1,1.35E1,5E-1,2.05E1,5E-1,5E-1,5E-1,3.339402E1,1.900421E2,1.5851799E1,-2.0416048E2,1.9045773E1,-1.5750212E2,-8.599622E1,1.922048E2,9.3991516E1,1.9250697E2,-3.685932E1,1.0322969E2,-1.779397E1,-1.2484379E2,1.16493835E2,3.4301147E1,6.1874694E-1,1.5476988E2,-2.2875406E2,-4.2012398E1,8.661911E1,2.5290489E2,-1.0847035E2,1.3430171E2,-5.1305004E1,4.6438362E1,-8.5221E1,1.05954346E2,3.5615903E2,1.0572729E2,-1.5954346E1,3.1074009E1],"split_indices":[13,1,1,14,1,1,1,1,19,14,1,1,1,1,1,1,11,1,1,19,1,14,1,1,1,1,5,1,19,19,5,0,0,0,0,0,0,0,0,0,0,0,0,0,0,0,0,0,0,0,0,0,0,0,0,0,0,0,0,0,0,0,0],"split_type":[0,0,0,0,0,0,0,0,0,0,0,0,0,0,0,0,0,0,0,0,0,0,0,0,0,0,0,0,0,0,0,0,0,0,0,0,0,0,0,0,0,0,0,0,0,0,0,0,0,0,0,0,0,0,0,0,0,0,0,0,0,0,0],"sum_hessian":[8.8E2,7.34E2,1.46E2,2.08E2,5.26E2,8.3E1,6.3E1,1.72E2,3.6E1,7.6E1,4.5E2,5.2E1,3.1E1,5.3E1,1E1,1.43E2,2.9E1,3E1,6E0,6.2E1,1.4E1,4.3E1,4.07E2,4.2E1,1E1,1.4E1,1.7E1,4E1,1.3E1,6E0,4E0,1.29E2,1.4E1,2E1,9E0,1.1E1,1.9E1,2E0,4E0,5E1,1.2E1,7E0,7E0,3.8E1,5E0,2.6E1,3.81E2,1.5E1,2.7E1,4E0,6E0,2E0,1.2E1,2E0,1.5E1,7E0,3.3E1,1.1E1,2E0,2E0,4E0,2E0,2E0],"tree_param":{"num_deleted":"0","num_feature":"20","num_nodes":"63","size_leaf_vector":"0"}},{"base_weights":[3.719592E2,3.1764377E2,6.409381E2,3.605177E2,1.8910446E2,-9.724904E1,7.5803253E2,3.9343604E2,2.441737E2,4.8896625E2,1.4997072E2,3.9439597E2,-1.1383099E3,6.0739026E2,1.204622E3,3.0379123E2,5.958262E2,4.06766E2,-1.2789284E1,7.906853E2,-3.9544568E2,1.7584593E2,4.7813644E1,1.0867504E3,-1.8681259E2,4.8529575E2,8.766016E2,2.4246765E2,4.5449072E2,7.1786273E2,3.3198785E2,-1.7640504E2,7.319093E2,6.188955E2,-2.1219528E2,1.3217919E3,2.2962556E2,1.922259E2,1.10695465E2],"categories":[],"categories_nodes":[],"categories_segments":[],"categories_sizes":[],"default_left":[true,true,true,true,true,true,true,true,true,true,true,true,false,true,false,true,true,true,true,true,false,true,false,false,false,false,false,false,false,false,false,false,false,false,false,false,false,false,false],"id":28,"left_children":[1,3,5,7,9,11,13,15,17,19,21,23,-1,25,-1,27,29,31,33,35,-1,37,-1,-1,-1,-1,-1,-1,-1,-1,-1,-1,-1,-1,-1,-1,-1,-1,-1],"loss_changes":[1.2657984E7,3.976904E6,1.278666E7,2.003976E6,2.102937E6,1.1204864E7,7.794152E6,7.557148E6,5.1898865E6,5.9203485E6,4.2814925E5,6.248053E6,0E0,2.749288E6,0E0,2.636778E6,3.936912E6,1.4545343E7,6.299385E6,4.448689E6,0E0,1.1655775E5,0E0,0E0,0E0,0E0,0E0,0E0,0E0,0E0,0E0,0E0,0E0,0E0,0E0,0E0,0E0,0E0,0E0],"parents":[2147483647,0,0,1,1,2,2,3,3,4,4,5,5,6,6,7,7,8,8,9,9,10,10,11,11,13,13,15,15,16,16,17,17,18,18,19,19,21,21],"right_children":[2,4,6,8,10,12,14,16,18,20,22,24,-1,26,-1,28,30,32,34,36,-1,38,-1,-1,-1,-1,-1,-1,-1,-1,-1,-1,-1,-1,-1,-1,-1,-1,-1],"split_conditions":[5E-1,5E-1,5E-1,5E-1,5E-1,5E-1,5E-1,5E-1,5E-1,5E-1,5E-1,5E-1,-1.1383099E2,5E-1,1.204622E2,5E-1,5E-1,5E-1,5E-1,5E-1,-3.9544567E1,5E-1,4.7813644E0,1.0867504E2,-1.868126E1,4.8529575E1,8.7660164E1,2.4246765E1,4.5449074E1,7.178628E1,3.3198788E1,-1.7640505E1,7.319093E1,6.1889553E1,-2.1219528E1,1.3217918E2,2.2962557E1,1.9222591E1,1.1069547E1],"split_indices":[13,18,5,12,5,19,19,19,19,12,11,18,0,18,0,11,11,5,5,11,0,12,0,0,0,0,0,0,0,0,0,0,0,0,0,0,0,0,0],"split_type":[0,0,0,0,0,0,0,0,0,0,0,0,0,0,0,0,0,0,0,0,0,0,0,0,0,0,0,0,0,0,0,0,0,0,0,0,0,0,0],"sum_hessian":[8.8E2,7.34E2,1.46E2,5.49E2,1.85E2,2E1,1.26E2,4.26E2,1.23E2,2E1,1.65E2,1.4E1,6E0,9.6E1,3E1,2.97E2,1.29E2,7.5E1,4.8E1,1.5E1,5E0,1.31E2,3.4E1,6E0,8E0,6.8E1,2.8E1,2.13E2,8.4E1,8.7E1,4.2E1,2.7E1,4.8E1,1.1E1,3.7E1,7E0,8E0,1.03E2,2.8E1],"tree_param":{"num_deleted":"0","num_feature":"20","num_nodes":"39","size_leaf_vector":"0"}},{"base_weights":[3.3551633E2,2.9917712E2,4.4733435E2,3.1358295E2,-9.272502E2,6.665589E2,1.9998427E2,1.8334859E2,4.476303E2,6.6064624E2,-2.0141173E3,6.940232E2,-2.52849E2,9.8706635E1,2.143029E3,2.4019695E2,-1.32651E2,4.26978E2,1.2113557E3,6.2518976E2,9.720144E2,-1.1230723E3,1.1739104E3,4.5005295E1,2.6488684E3,2.5785046E2,-4.9882938E2,-9.8607765E1,-6.52488E2,3.6927817E2,6.545047E2,1.4063374E3,4.1427377E2,-3.593612E1,5.281534E2],"categories":[],"categories_nodes":[],"categories_segments":[],"categories_sizes":[],"default_left":[true,true,true,true,true,true,true,true,true,false,false,true,true,true,false,true,true,true,true,false,false,false,false,true,false,false,false,false,false,false,false,false,false,false,false],"id":29,"left_children":[1,3,5,7,9,11,13,15,17,-1,-1,19,21,23,-1,25,27,29,31,-1,-1,-1,-1,33,-1,-1,-1,-1,-1,-1,-1,-1,-1,-1,-1],"loss_changes":[3.438544E6,1.208664E7,1.1462228E7,1.1451076E7,1.5150813E7,3.033248E6,1.9838322E7,6.086827E6,4.59252E6,0E0,0E0,1.481196E6,6.2842745E6,1.3274665E7,0E0,3.85749E6,8.4838925E5,3.922856E6,6.42516E5,0E0,0E0,0E0,0E0,3.8172508E6,0E0,0E0,0E0,0E0,0E0,0E0,0E0,0E0,0E0,0E0,0E0],"parents":[2147483647,0,0,1,1,2,2,3,3,4,4,5,5,6,6,7,7,8,8,11,11,12,12,13,13,15,15,16,16,17,17,18,18,23,23],"right_children":[2,4,6,8,10,12,14,16,18,-1,-1,20,22,24,-1,26,28,30,32,-1,-1,-1,-1,34,-1,-1,-1,-1,-1,-1,-1,-1,-1,-1,-1],"split_conditions":[5E-1,5E-1,5E-1,5E-1,5E-1,5E-1,5E-1,5E-1,5E-1,6.606463E1,-2.0141173E2,5E-1,5E-1,5E-1,2.143029E2,5E-1,5E-1,5E-1,5E-1,6.251898E1,9.720144E1,-1.1230723E2,1.17391045E2,5E-1,2.6488684E2,2.5785048E1,-4.988294E1,-9.860777E0,-6.52488E1,3.692782E1,6.545047E1,1.4063374E2,4.142738E1,-3.593612E0,5.281534E1],"split_indices":[19,6,8,8,8,7,7,10,7,0,0,10,11,6,0,7,7,10,10,0,0,0,0,10,0,0,0,0,0,0,0,0,0,0,0],"split_type":[0,0,0,0,0,0,0,0,0,0,0,0,0,0,0,0,0,0,0,0,0,0,0,0,0,0,0,0,0,0,0,0,0,0,0],"sum_hessian":[8.8E2,6.67E2,2.13E2,6.6E2,7E0,1.12E2,1.01E2,3.36E2,3.24E2,3E0,4E0,1.09E2,3E0,9.7E1,4E0,2.85E2,5.1E1,3.17E2,7E0,9E1,1.9E1,2E0,1E0,9.6E1,1E0,2.79E2,6E0,4.9E1,2E0,2.55E2,6.2E1,5E0,2E0,8.3E1,1.3E1],"tree_param":{"num_deleted":"0","num_feature":"20","num_nodes":"35","size_leaf_vector":"0"}},{"base_weights":[3.028138E2,2.5370102E2,5.4624976E2,7.603791E1,3.2365906E2,6.5350616E2,-4.405069E2,1.9352638E2,-5.5612866E2,8.553322E2,2.3214578E2,5.752687E2,1.5573005E3,7.0425336E2,-9.217155E2,-6.5556366E1,9.329915E2,-8.809859E0,-2.5863398E3,1.0610946E3,1.213836E2,-3.6177017E2,2.9565106E2,7.590206E2,-1.8234987E2,2.0386366E3,3.231372E2,-1.00389215E3,2.1809812E3,-1.4820396E3,-3.8838184E2,-2.5563133E2,1.2346937E3,5.418592E2,2.4796624E3,2.9447202E2,-1.8287986E3,-1.2343013E3,-3.2892935E3,1.2046177E3,4.487716E2,-7.9716034E2,2.6710298E3,-5.6202313E2,7.7557025E2,9.904724E2,2.4574052E2,4.5937625E2,1.0492775E3,-5.494396E2,1.0700076E3,3.2541355E3,8.9960986E2,-1.8136896E3,-6.530429E2,1.0316272E3,-7.9865454E2],"categories":[],"categories_nodes":[],"categories_segments":[],"categories_sizes":[],"default_left":[true,true,true,true,true,true,true,true,true,true,true,true,true,true,true,true,true,true,true,true,true,true,true,true,true,true,false,false,false,true,true,false,false,false,false,false,false,false,false,false,false,false,false,false,false,false,false,false,false,false,false,false,false,false,false,false,false],"id":30,"left_children":[1,3,5,7,9,11,13,15,17,19,21,23,25,27,29,31,33,35,37,39,41,43,45,47,49,51,-1,-1,-1,53,55,-1,-1,-1,-1,-1,-1,-1,-1,-1,-1,-1,-1,-1,-1,-1,-1,-1,-1,-1,-1,-1,-1,-1,-1,-1,-1],"loss_changes":[1.0386488E7,9.10668E6,1.5847892E7,1.5626907E7,2.5431836E7,8.487316E6,8.914323E6,3.397997E7,3.661997E7,1.1487832E7,1.7116576E7,1.74067E7,5.258096E6,1.481357E7,2.692934E6,3.2928976E7,2.6453996E7,1.5457051E7,2.547728E6,4.715816E6,4.4303296E7,1.0455007E7,1.3893232E7,8.20028E6,1.2075887E7,6.72241E6,0E0,0E0,0E0,1.656E5,4.899721E6,0E0,0E0,0E0,0E0,0E0,0E0,0E0,0E0,0E0,0E0,0E0,0E0,0E0,0E0,0E0,0E0,0E0,0E0,0E0,0E0,0E0,0E0,0E0,0E0,0E0,0E0],"parents":[2147483647,0,0,1,1,2,2,3,3,4,4,5,5,6,6,7,7,8,8,9,9,10,10,11,11,12,12,13,13,14,14,15,15,16,16,17,17,18,18,19,19,20,20,21,21,22,22,23,23,24,24,25,25,29,29,30,30],"right_children":[2,4,6,8,10,12,14,16,18,20,22,24,26,28,30,32,34,36,38,40,42,44,46,48,50,52,-1,-1,-1,54,56,-1,-1,-1,-1,-1,-1,-1,-1,-1,-1,-1,-1,-1,-1,-1,-1,-1,-1,-1,-1,-1,-1,-1,-1,-1,-1],"split_conditions":[5E-1,8.5E0,5E-1,7.5E0,1.15E1,2.85E1,1.55E1,5E-1,5E-1,5E-1,1.35E1,2.35E1,2.95E1,8.5E0,2.3E1,6.5E0,5E-1,2.0205E3,5E-1,5E-1,5E-1,2.0205E3,1.45E1,1.25E1,5E-1,5E-1,3.231372E1,-1.0038921E2,2.1809813E2,2.0205E3,2.0205E3,-2.5563133E1,1.23469376E2,5.418592E1,2.4796623E2,2.9447203E1,-1.8287987E2,-1.2343013E2,-3.2892935E2,1.2046177E2,4.4877163E1,-7.9716034E1,2.67103E2,-5.6202312E1,7.755703E1,9.904724E1,2.4574053E1,4.5937626E1,1.0492775E2,-5.494396E1,1.07000755E2,3.2541354E2,8.996099E1,-1.8136896E2,-6.530429E1,1.0316272E2,-7.9865456E1],"split_indices":[13,1,4,1,1,1,1,19,10,10,1,1,1,1,1,1,10,3,19,19,19,3,1,1,19,19,0,0,0,3,3,0,0,0,0,0,0,0,0,0,0,0,0,0,0,0,0,0,0,0,0,0,0,0,0,0,0],"split_type":[0,0,0,0,0,0,0,0,0,0,0,0,0,0,0,0,0,0,0,0,0,0,0,0,0,0,0,0,0,0,0,0,0,0,0,0,0,0,0,0,0,0,0,0,0,0,0,0,0,0,0,0,0,0,0,0,0],"sum_hessian":[8.8E2,7.34E2,1.46E2,2.08E2,5.26E2,1.32E2,1.4E1,1.76E2,3.2E1,7.6E1,4.5E2,1.23E2,9E0,4E0,1E1,1.31E2,4.5E1,2.6E1,6E0,5.9E1,1.7E1,4.3E1,4.07E2,9.9E1,2.4E1,6E0,3E0,2E0,2E0,4E0,6E0,1.15E2,1.6E1,3.7E1,8E0,2.3E1,3E0,3E0,3E0,4.7E1,1.2E1,1.3E1,4E0,3.7E1,6E0,2.6E1,3.81E2,5E1,4.9E1,1.9E1,5E0,2E0,4E0,2E0,2E0,1E0,5E0],"tree_param":{"num_deleted":"0","num_feature":"20","num_nodes":"57","size_leaf_vector":"0"}},{"base_weights":[2.734891E2,1.126114E3,2.4520224E2,-2.5306162E3,1.3556454E3,2.3551277E2,2.9119426E3,3.0576333E3,6.065679E2,2.4247032E2,-2.83768E3,-2.5714353E3,1.1030924E3,2.0127469E2,7.1371893E2,2.5141992E2,1.7582883E3,2.2326907E2,-2.27057E3,1.5365184E2,2.0496973E3],"categories":[],"categories_nodes":[],"categories_segments":[],"categories_sizes":[],"default_left":[true,true,true,false,true,true,false,false,true,true,false,false,true,true,true,false,false,false,false,false,false],"id":31,"left_children":[1,3,5,-1,7,9,-1,-1,11,13,-1,-1,15,17,19,-1,-1,-1,-1,-1,-1],"loss_changes":[2.0958196E7,2.6920228E7,2.1349476E7,0E0,3.2531556E7,1.8879464E7,0E0,0E0,3.4380976E7,1.6367988E7,0E0,0E0,9.582058E6,4.310999E7,5.0543176E7,0E0,0E0,0E0,0E0,0E0,0E0],"parents":[2147483647,0,0,1,1,2,2,4,4,5,5,8,8,9,9,12,12,13,13,14,14],"right_children":[2,4,6,-1,8,10,-1,-1,12,14,-1,-1,16,18,20,-1,-1,-1,-1,-1,-1],"split_conditions":[6.6099997E0,1.5E0,1.03345E2,-2.5306163E2,1.05E1,1.03270004E2,2.9119427E2,3.0576334E2,4.26E0,9.468E1,-2.83768E2,-2.5714352E2,2.05E1,9.3295E1,5E-1,2.5141993E1,1.7582884E2,2.2326908E1,-2.27057E2,1.5365184E1,2.0496973E2],"split_indices":[0,1,0,0,1,0,0,0,0,0,0,0,1,0,18,0,0,0,0,0,0],"split_type":[0,0,0,0,0,0,0,0,0,0,0,0,0,0,0,0,0,0,0,0,0],"sum_hessian":[8.8E2,2.7E1,8.53E2,1E0,2.6E1,8.51E2,2E0,7E0,1.9E1,8.5E2,1E0,2E0,1.7E1,7.83E2,6.7E1,8E0,9E0,7.77E2,6E0,4.8E1,1.9E1],"tree_param":{"num_deleted":"0","num_feature":"20","num_nodes":"21","size_leaf_vector":"0"}},{"base_weights":[2.4616446E2,5.1163013E2,1.6178404E2,1.9596587E2,1.01960614E3,-2.4210203E3,1.8878381E2,8.255436E2,-1.2809055E2,-1.437742E3,1.4679528E3,1.8398364E2,-2.8875183E3,-9.3268385E0,3.6232513E2,1.1995588E3,-1.374762E3,6.7762837E0,-1.691089E3,-2.7001274E3,4.8339572E2,2.805628E3,9.764892E2,-2.9296875E-1,-3.4629048E3,4.6156796E2,-2.0929893E2,5.109926E2,-2.58997E2,-6.33098E2,1.6205493E3,-2.362197E3,-5.0534854E2,-2.0938287E2,2.0336714E3,-2.1284934E3,-3.950519E2,2.4781685E3,-4.0919254E2,-6.111894E2,3.2715544E3,3.982513E1,1.9112369E3,1.7760243E2,1.1140736E3,-2.7801958E3,-1.3619295E2,2.1512212E3,4.620936E2,-2.1589434E3,6.181067E1],"categories":[],"categories_nodes":[],"categories_segments":[],"categories_sizes":[],"default_left":[true,true,true,true,true,true,true,true,true,true,true,false,true,true,true,true,true,true,true,false,true,true,true,false,false,true,true,true,true,false,false,false,false,false,false,false,false,false,false,false,false,false,false,false,false,false,false,false,false,false,false],"id":32,"left_children":[1,3,5,7,9,11,13,15,17,19,21,-1,23,25,27,29,31,33,35,-1,37,39,41,-1,-1,43,45,47,49,-1,-1,-1,-1,-1,-1,-1,-1,-1,-1,-1,-1,-1,-1,-1,-1,-1,-1,-1,-1,-1,-1],"loss_changes":[1.9644988E7,3.378221E7,4.7157256E7,2.7043186E7,9.135208E7,9.064896E6,2.2835484E7,3.8680012E7,1.857841E7,3.2855208E7,4.2584384E7,0E0,9.931976E6,2.9379654E7,3.2833984E7,3.1125556E7,4.787015E6,3.6370876E7,3.102146E6,0E0,1.1717802E7,3.0681888E7,4.54327E7,0E0,0E0,1.7021104E7,4.075279E7,2.1918592E7,4.221111E7,0E0,0E0,0E0,0E0,0E0,0E0,0E0,0E0,0E0,0E0,0E0,0E0,0E0,0E0,0E0,0E0,0E0,0E0,0E0,0E0,0E0,0E0],"parents":[2147483647,0,0,1,1,2,2,3,3,4,4,5,5,6,6,7,7,8,8,9,9,10,10,12,12,13,13,14,14,15,15,16,16,17,17,18,18,20,20,21,21,22,22,25,25,26,26,27,27,28,28],"right_children":[2,4,6,8,10,12,14,16,18,20,22,-1,24,26,28,30,32,34,36,-1,38,40,42,-1,-1,44,46,48,50,-1,-1,-1,-1,-1,-1,-1,-1,-1,-1,-1,-1,-1,-1,-1,-1,-1,-1,-1,-1,-1,-1],"split_conditions":[2.7814999E1,1.878E1,2.8985E1,1.15E1,6.5E0,3E0,6.064E1,1.644E1,2.95E1,7E0,2.1485E1,1.8398365E1,2.8029999E1,3.8045E1,5E-1,1.5E0,1.7345E1,2.85E1,5E-1,-2.7001276E2,2.1555E1,2E0,2.485E1,-2.9296875E-2,-3.462905E2,3.589E1,3.8260002E1,6.2225E1,5E0,-6.3309803E1,1.6205493E2,-2.3621971E2,-5.0534855E1,-2.0938288E1,2.0336714E2,-2.1284935E2,-3.950519E1,2.4781685E2,-4.0919254E1,-6.111894E1,3.2715546E2,3.9825132E0,1.911237E2,1.7760244E1,1.11407364E2,-2.780196E2,-1.3619295E1,2.1512212E2,4.6209362E1,-2.1589433E2,6.181067E0],"split_indices":[0,0,0,1,1,2,0,0,1,2,0,0,0,0,12,1,0,1,9,0,0,2,0,0,0,0,0,0,1,0,0,0,0,0,0,0,0,0,0,0,0,0,0,0,0,0,0,0,0,0,0],"split_type":[0,0,0,0,0,0,0,0,0,0,0,0,0,0,0,0,0,0,0,0,0,0,0,0,0,0,0,0,0,0,0,0,0,0,0,0,0,0,0,0,0,0,0,0,0,0,0,0,0,0,0],"sum_hessian":[8.8E2,2.11E2,6.69E2,1.31E2,8E1,6E0,6.63E2,4.4E1,8.7E1,1.2E1,6.8E1,1E0,5E0,3.1E2,3.53E2,3.8E1,6E0,8.1E1,6E0,7E0,5E0,1.7E1,5.1E1,1E0,4E0,9.2E1,2.18E2,2.85E2,6.8E1,7E0,3.1E1,2E0,4E0,7.4E1,7E0,4E0,2E0,1E0,4E0,2E0,1.5E1,2.6E1,2.5E1,6.5E1,2.7E1,5E0,2.13E2,7E0,2.78E2,9E0,5.9E1],"tree_param":{"num_deleted":"0","num_feature":"20","num_nodes":"51","size_leaf_vector":"0"}},{"base_weights":[2.2120555E2,2.4612077E2,1.04678474E2,2.5233374E2,-4.2577045E2,-1.1652017E2,3.3033505E2,2.3432713E2,4.211275E2,6.384919E2,-2.060951E3,-1.6033641E2,5.8288684E0,5.7598505E2,-5.8440826E2,1.6651611E2,3.054318E2,1.1765215E3,-3.244303E2,2.0944368E2,-5.6020293E0,2.581581E2,4.5439273E2,-5.4237866E2,1.4977645E3],"categories":[],"categories_nodes":[],"categories_segments":[],"categories_sizes":[],"default_left":[true,true,true,true,true,true,true,true,true,false,false,false,false,false,false,true,true,false,true,false,false,false,false,false,false],"id":33,"left_children":[1,3,5,7,9,11,13,15,17,-1,-1,-1,-1,-1,-1,19,21,-1,23,-1,-1,-1,-1,-1,-1],"loss_changes":[2.528536E6,3.132168E6,7.8772725E6,2.080092E6,1.3511951E7,4.3134975E5,1.7863652E7,3.088156E6,3.8687132E7,0E0,0E0,0E0,0E0,0E0,0E0,2.485786E6,2.107862E6,0E0,1.4702859E7,0E0,0E0,0E0,0E0,0E0,0E0],"parents":[2147483647,0,0,1,1,2,2,3,3,4,4,5,5,6,6,7,7,8,8,15,15,16,16,18,18],"right_children":[2,4,6,8,10,12,14,16,18,-1,-1,-1,-1,-1,-1,20,22,-1,24,-1,-1,-1,-1,-1,-1],"split_conditions":[5E-1,5E-1,5E-1,2.0205E3,5E-1,2.0205E3,2.0205E3,5E-1,5E-1,6.384919E1,-2.060951E2,-1.6033642E1,5.828869E-1,5.7598507E1,-5.8440826E1,5E-1,5E-1,1.1765215E2,5E-1,2.0944368E1,-5.6020296E-1,2.5815811E1,4.5439274E1,-5.4237865E1,1.4977646E2],"split_indices":[12,6,8,3,8,3,3,8,8,0,0,0,0,0,0,10,10,0,10,0,0,0,0,0,0],"split_type":[0,0,0,0,0,0,0,0,0,0,0,0,0,0,0,0,0,0,0,0,0,0,0,0,0],"sum_hessian":[8.8E2,7.24E2,1.56E2,7.18E2,6E0,7.9E1,7.7E1,6.51E2,6.7E1,4E0,2E0,5.8E1,2.1E1,6.1E1,1.6E1,3.35E2,3.16E2,3.3E1,3.4E1,2.68E2,6.7E1,2.42E2,7.4E1,3.1E1,3E0],"tree_param":{"num_deleted":"0","num_feature":"20","num_nodes":"25","size_leaf_vector":"0"}},{"base_weights":[1.9925327E2,2.3393489E2,9.520314E1,1.4689238E2,3.2317288E2,2.70687E2,-9.929512E1,7.8563545E1,6.104223E2,3.592741E2,1.3497653E1,1.301922E2,8.7099677E2,1.4288391E2,-1.030928E3,1.593056E2,-3.281938E2,3.4153787E2,1.3606735E3,1.1054764E3,2.9710477E2,-8.1663257E2,1.6734667E3,1.5640086E2,-2.239467E2,4.7420395E2,1.6520951E3,3.718012E2,-1.4299961E3,-1.1746907E3,-5.536234E2,-3.8931903E2,1.9665923E2,-6.49581E2,6.110001E2,-1.3821849E2,1.091026E3,1.8395459E3,-5.2616846E2,1.4895201E3,2.4595978E2,2.1427997E2,6.483665E2,8.0392255E2,1.08735794E2,-4.146915E2,1.6527686E2,7.062871E2,2.67441E3,9.016469E2,3.2093155E2,-6.151748E2,-2.2827468E3],"categories":[],"categories_nodes":[],"categories_segments":[],"categories_sizes":[],"default_left":[true,true,true,true,true,true,true,true,true,true,true,true,true,true,true,true,true,true,true,true,true,false,false,true,true,false,true,true,true,false,false,false,false,false,false,false,false,false,false,false,false,false,false,false,false,false,false,false,false,false,false,false,false],"id":34,"left_children":[1,3,5,7,9,11,13,15,17,19,21,23,25,27,29,31,33,35,37,39,41,-1,-1,43,45,-1,47,49,51,-1,-1,-1,-1,-1,-1,-1,-1,-1,-1,-1,-1,-1,-1,-1,-1,-1,-1,-1,-1,-1,-1,-1,-1],"loss_changes":[3.15364E6,5.074376E6,7.6057415E6,1.05871E7,3.624808E6,9.744418E6,2.4072108E7,9.706266E6,8.192684E6,1.3157288E7,4.9604844E7,9.25375E5,6.013858E6,3.1126144E7,8.41992E5,5.115944E6,1.5187682E7,1.2026193E7,1.0920168E7,6.878308E6,7.7076E6,0E0,0E0,2.6812328E6,5.907296E5,0E0,4.845688E6,1.719887E6,6.209966E6,0E0,0E0,0E0,0E0,0E0,0E0,0E0,0E0,0E0,0E0,0E0,0E0,0E0,0E0,0E0,0E0,0E0,0E0,0E0,0E0,0E0,0E0,0E0,0E0],"parents":[2147483647,0,0,1,1,2,2,3,3,4,4,5,5,6,6,7,7,8,8,9,9,10,10,11,11,12,12,13,13,14,14,15,15,16,16,17,17,18,18,19,19,20,20,23,23,24,24,26,26,27,27,28,28],"right_children":[2,4,6,8,10,12,14,16,18,20,22,24,26,28,30,32,34,36,38,40,42,-1,-1,44,46,-1,48,50,52,-1,-1,-1,-1,-1,-1,-1,-1,-1,-1,-1,-1,-1,-1,-1,-1,-1,-1,-1,-1,-1,-1,-1,-1],"split_conditions":[5E-1,5E-1,5E-1,2.0205E3,2.0205E3,5E-1,5E-1,5E-1,5E-1,5E-1,5E-1,2.0205E3,2.0205E3,2.0205E3,2.0205E3,5E-1,5E-1,5E-1,5E-1,5E-1,5E-1,-8.166326E1,1.6734666E2,5E-1,5E-1,4.7420395E1,5E-1,5E-1,5E-1,-1.1746907E2,-5.5362343E1,-3.8931904E1,1.9665922E1,-6.49581E1,6.1100014E1,-1.3821849E1,1.091026E2,1.8395459E2,-5.2616848E1,1.4895201E2,2.4595978E1,2.1427998E1,6.4836655E1,8.039226E1,1.087358E1,-4.146915E1,1.6527685E1,7.0628716E1,2.67441E2,9.0164696E1,3.2093155E1,-6.1517483E1,-2.2827469E2],"split_indices":[18,8,8,3,3,11,11,11,5,5,5,3,3,3,3,5,17,11,11,17,11,0,0,5,5,0,5,5,5,0,0,0,0,0,0,0,0,0,0,0,0,0,0,0,0,0,0,0,0,0,0,0,0],"split_type":[0,0,0,0,0,0,0,0,0,0,0,0,0,0,0,0,0,0,0,0,0,0,0,0,0,0,0,0,0,0,0,0,0,0,0,0,0,0,0,0,0,0,0,0,0,0,0,0,0,0,0,0,0],"sum_hessian":[8.8E2,6.59E2,2.21E2,3.35E2,3.24E2,1.16E2,1.05E2,2.93E2,4.2E1,2.9E2,3.4E1,9.5E1,2.1E1,8.4E1,2.1E1,2.45E2,4.8E1,3.2E1,1E1,2.1E1,2.69E2,2.3E1,1.1E1,8.9E1,6E0,1.5E1,6E0,7.4E1,1E1,1.5E1,6E0,1.5E1,2.3E2,3.6E1,1.2E1,2E1,1.2E1,8E0,2E0,1.4E1,7E0,2.19E2,5E1,5E0,8.4E1,4E0,2E0,4E0,2E0,5E0,6.9E1,6E0,4E0],"tree_param":{"num_deleted":"0","num_feature":"20","num_nodes":"53","size_leaf_vector":"0"}},{"base_weights":[1.8008432E2,1.7142195E2,2.6547976E3,4.2324612E2,9.123012E1,6.2456116E2,-5.7803186E2,-2.2748918E3,1.1612683E2,7.638935E2,-8.245888E2,-9.7649225E2,2.8512744E3,-2.923291E1,-2.6426296E3,4.6106026E1,5.548716E2,3.7599915E2,1.4168806E3,1.7969854E3,-1.1198262E3,1.2649005E3,-1.5217981E3,-3.2770327E3,-9.1254913E2,-3.8146423E1,4.348001E2,7.920505E2,-6.7113733E0],"categories":[],"categories_nodes":[],"categories_segments":[],"categories_sizes":[],"default_left":[true,true,false,true,true,true,true,true,true,true,true,true,false,false,true,true,true,false,false,false,false,false,false,false,false,false,false,false,false],"id":35,"left_children":[1,3,-1,5,7,9,11,13,15,17,19,21,-1,-1,23,25,27,-1,-1,-1,-1,-1,-1,-1,-1,-1,-1,-1,-1],"loss_changes":[1.8402542E7,1.7706982E7,0E0,4.3094816E7,3.9593572E7,3.636797E7,5.195743E7,5.676724E6,2.030588E7,4.0482296E7,1.4389323E7,4.226156E7,0E0,0E0,3.55306E6,1.8752654E7,1.2133972E7,0E0,0E0,0E0,0E0,0E0,0E0,0E0,0E0,0E0,0E0,0E0,0E0],"parents":[2147483647,0,0,1,1,3,3,4,4,5,5,6,6,7,7,8,8,9,9,10,10,11,11,14,14,15,15,16,16],"right_children":[2,4,-1,6,8,10,12,14,16,18,20,22,-1,-1,24,26,28,-1,-1,-1,-1,-1,-1,-1,-1,-1,-1,-1,-1],"split_conditions":[1.03345E2,2.7814999E1,2.6547977E2,5E-1,2.8985E1,2.0205E3,2.7265E1,2.8029999E1,5E-1,1.878E1,8.86E0,6.355E0,2.8512744E2,-2.923291E0,2.8544998E1,5E-1,5E-1,3.7599915E1,1.4168806E2,1.7969853E2,-1.1198262E2,1.2649005E2,-1.5217981E2,-3.2770328E2,-9.125491E1,-3.8146424E0,4.348001E1,7.920505E1,-6.7113733E-1],"split_indices":[0,0,0,15,0,3,0,0,15,0,0,0,0,0,0,13,18,0,0,0,0,0,0,0,0,0,0,0,0],"split_type":[0,0,0,0,0,0,0,0,0,0,0,0,0,0,0,0,0,0,0,0,0,0,0,0,0,0,0,0,0],"sum_hessian":[8.8E2,8.78E2,2E0,2.11E2,6.67E2,1.76E2,3.5E1,6E0,6.61E2,1.61E2,1.5E1,3.2E1,3E0,1E0,5E0,5.71E2,9E1,1.02E2,5.9E1,1E0,1.4E1,6E0,2.6E1,3E0,2E0,4.7E2,1.01E2,6.3E1,2.7E1],"tree_param":{"num_deleted":"0","num_feature":"20","num_nodes":"29","size_leaf_vector":"0"}},{"base_weights":[1.6260725E2,1.5450917E2,2.477811E3,1.6099326E2,-2.7642627E3,1.213568E3,1.4375969E2,2.5883276E3,1.6110965E2,-1.5613329E3,1.5350615E2,-2.4251577E3,1.2479229E3,4.4427246E1,-1.9763798E3,2.0649775E3,1.4216325E2],"categories":[],"categories_nodes":[],"categories_segments":[],"categories_sizes":[],"default_left":[true,true,false,true,false,true,true,false,true,true,true,false,false,false,false,false,false],"id":36,"left_children":[1,3,-1,5,-1,7,9,-1,11,13,15,-1,-1,-1,-1,-1,-1],"loss_changes":[1.6108454E7,1.7054588E7,0E0,1.5738556E7,0E0,1.9811784E7,1.46007E7,0E0,2.8311744E7,3.439454E6,1.8352246E7,0E0,0E0,0E0,0E0,0E0,0E0],"parents":[2147483647,0,0,1,1,3,3,5,5,6,6,8,8,9,9,10,10],"right_children":[2,4,-1,6,-1,8,10,-1,12,14,16,-1,-1,-1,-1,-1,-1],"split_conditions":[1.03345E2,1.03270004E2,2.4778111E2,4.675E0,-2.7642627E2,1.1E1,5.34E0,2.5883276E2,4.26E0,4.8549995E0,5.775E0,-2.4251578E2,1.2479229E2,4.4427247E0,-1.9763799E2,2.0649776E2,1.4216326E1],"split_indices":[0,0,0,0,0,1,0,0,0,0,0,0,0,0,0,0,0],"split_type":[0,0,0,0,0,0,0,0,0,0,0,0,0,0,0,0,0],"sum_hessian":[8.8E2,8.78E2,2E0,8.77E2,1E0,1.3E1,8.64E2,5E0,8E0,4E0,8.6E2,2E0,6E0,1E0,3E0,4E0,8.56E2],"tree_param":{"num_deleted":"0","num_feature":"20","num_nodes":"17","size_leaf_vector":"0"}},{"base_weights":[1.4650769E2,1.3893675E2,2.3126235E3,1.4508827E2,-2.6260496E3,8.2412164E2,1.22564156E2,-2.3160337E3,1.0265731E3,-1.1524731E3,1.3451645E2,2.336359E3,4.5083014E2,2.9762656E2,-2.6794795E3,9.9548195E1,5.319549E2],"categories":[],"categories_nodes":[],"categories_segments":[],"categories_sizes":[],"default_left":[true,true,false,true,false,true,true,false,true,true,true,false,false,false,false,false,false],"id":37,"left_children":[1,3,-1,5,-1,7,9,-1,11,13,15,-1,-1,-1,-1,-1,-1],"loss_changes":[1.4102162E7,1.5306998E7,0E0,1.3318206E7,0E0,2.0165092E7,1.3113762E7,0E0,1.9279526E7,1.8535796E7,1.1670413E7,0E0,0E0,0E0,0E0,0E0,0E0],"parents":[2147483647,0,0,1,1,3,3,5,5,6,6,8,8,9,9,10,10],"right_children":[2,4,-1,6,-1,8,10,-1,12,14,16,-1,-1,-1,-1,-1,-1],"split_conditions":[1.03345E2,1.03270004E2,2.3126236E2,6.6099997E0,-2.6260495E2,1.5E0,7.35E0,-2.3160338E2,1.05E1,9.5E0,9.468E1,2.336359E2,4.5083015E1,2.9762655E1,-2.6794797E2,9.95482E0,5.319549E1],"split_indices":[0,0,0,0,0,1,0,0,1,1,0,0,0,0,0,0,0],"split_type":[0,0,0,0,0,0,0,0,0,0,0,0,0,0,0,0,0],"sum_hessian":[8.8E2,8.78E2,2E0,8.77E2,1E0,2.7E1,8.5E2,1E0,2.6E1,7E0,8.43E2,7E0,1.9E1,4E0,3E0,7.76E2,6.7E1],"tree_param":{"num_deleted":"0","num_feature":"20","num_nodes":"17","size_leaf_vector":"0"}},{"base_weights":[1.316786E2,1.0535876E2,4.658653E2,-3.729823E2,1.20299774E2,-1.3767929E2,1.0373066E3,-7.2109094E2,1.1616703E3,1.6933751E2,-1.1812789E2,-4.7426266E2,2.3344702E3,-8.106096E2,1.2494519E3,-1.2076442E3,2.1926355E2,2.0785535E3,4.1031116E2,-3.29512E1,3.0294604E2,5.4800977E2,-7.9247156E2,6.31324E2,-1.7046287E3,8.678621E2,-2.9280125E3,6.074871E2,2.937669E3,-5.698001E2,-1.7626595E3,-9.958799E2,2.579796E3,-3.5531332E2,1.3585923E3,4.549149E1,-9.3955225E2,-1.6940161E2,4.9620627E2,8.8829346E1,1.0177887E3,-1.0875243E3,3.218832E2,2.6851164E1,1.6326368E3,-1.826608E3,-5.4448975E1,-6.135669E1,1.3681499E3,8.257306E2,-2.091935E3,3.665868E3,1.2905033E3],"categories":[],"categories_nodes":[],"categories_segments":[],"categories_sizes":[],"default_left":[true,true,true,true,true,true,true,true,true,true,true,true,false,true,true,true,true,false,true,true,true,true,true,true,true,true,false,true,true,false,false,false,false,false,false,false,false,false,false,false,false,false,false,false,false,false,false,false,false,false,false,false,false],"id":38,"left_children":[1,3,5,7,9,11,13,15,17,19,21,23,-1,25,27,29,31,-1,33,35,37,39,41,43,45,47,-1,49,51,-1,-1,-1,-1,-1,-1,-1,-1,-1,-1,-1,-1,-1,-1,-1,-1,-1,-1,-1,-1,-1,-1,-1,-1],"loss_changes":[7.694252E6,5.888509E6,2.2224792E7,1.4188909E7,9.303927E6,2.7715252E7,1.3954088E7,9.882858E6,2.5668005E6,1.7823804E7,6.15287E7,4.0534916E7,0E0,1.6777716E7,3.0693236E7,3.928498E6,2.5532088E7,0E0,3.3968678E6,1.875525E7,3.6327876E7,1.4782744E7,2.2715668E7,9.62383E6,2.69976E6,1.4916435E6,0E0,1.5264735E7,4.815328E6,0E0,0E0,0E0,0E0,0E0,0E0,0E0,0E0,0E0,0E0,0E0,0E0,0E0,0E0,0E0,0E0,0E0,0E0,0E0,0E0,0E0,0E0,0E0,0E0],"parents":[2147483647,0,0,1,1,2,2,3,3,4,4,5,5,6,6,7,7,8,8,9,9,10,10,11,11,13,13,14,14,15,15,16,16,18,18,19,19,20,20,21,21,22,22,23,23,24,24,25,25,27,27,28,28],"right_children":[2,4,6,8,10,12,14,16,18,20,22,24,-1,26,28,30,32,-1,34,36,38,40,42,44,46,48,-1,50,52,-1,-1,-1,-1,-1,-1,-1,-1,-1,-1,-1,-1,-1,-1,-1,-1,-1,-1,-1,-1,-1,-1,-1,-1],"split_conditions":[1.15E1,1.5E0,5E-1,5E-1,9.5E0,2.95E1,5E0,5E-1,5E-1,1.25E1,1.65E1,1.45E1,2.3344702E2,3.5E0,5E-1,5E-1,5.5E0,2.0785535E2,8E0,1.15E1,2.5E0,5E-1,2.75E1,9E0,2.85E1,5E-1,-2.9280124E2,2.95E1,2.4E1,-5.698001E1,-1.7626596E2,-9.958799E1,2.5797958E2,-3.5531334E1,1.3585924E2,4.549149E0,-9.395522E1,-1.694016E1,4.962063E1,8.882935E0,1.0177887E2,-1.0875243E2,3.218832E1,2.6851165E0,1.6326369E2,-1.8266081E2,-5.4448977E0,-6.135669E0,1.3681499E2,8.257306E1,-2.0919351E2,3.665868E2,1.2905034E2],"split_indices":[2,1,8,11,2,1,1,19,8,1,1,1,0,1,19,8,2,0,2,1,2,8,1,1,1,11,0,1,1,0,0,0,0,0,0,0,0,0,0,0,0,0,0,0,0,0,0,0,0,0,0,0,0],"split_type":[0,0,0,0,0,0,0,0,0,0,0,0,0,0,0,0,0,0,0,0,0,0,0,0,0,0,0,0,0,0,0,0,0,0,0,0,0,0,0,0,0,0,0,0,0,0,0,0,0,0,0,0,0],"sum_hessian":[8.8E2,8.17E2,6.3E1,2.4E1,7.93E2,3.1E1,3.2E1,2E1,4E0,6.58E2,1.35E2,2.8E1,3E0,3E0,2.9E1,1.3E1,7E0,1E0,3E0,2.62E2,3.96E2,6.8E1,6.7E1,1.5E1,1.3E1,2E0,1E0,2.2E1,7E0,7E0,6E0,5E0,2E0,2E0,1E0,2.42E2,2E1,1.15E2,2.81E2,3.5E1,3.3E1,5.3E1,1.4E1,1E1,5E0,1.2E1,1E0,1E0,1E0,2.1E1,1E0,4E0,3E0],"tree_param":{"num_deleted":"0","num_feature":"20","num_nodes":"53","size_leaf_vector":"0"}},{"base_weights":[1.1922678E2,7.8165825E1,3.2365247E2,7.6672654E0,1.5115417E2,5.896855E2,2.2449224E1,-8.670577E1,6.230261E2,1.2080958E2,1.2031685E3,6.310217E2,-6.5072723E2,1.0271549E2,-6.112038E2,-5.639307E1,-2.227583E2,1.0709587E3,3.7956543E0,1.7736551E2,-2.7888565E2,1.8116605E3,2.3034433E2,6.676258E2,9.103634E1,5.833528E1,9.675413E2,-2.8583176E1,-9.553917E2,-2.9003378E2,1.1263954E3,1.2803192E3,-1.1669388E3,1.2261345E2,4.1202332E2,-3.947225E2,2.3460493E3],"categories":[],"categories_nodes":[],"categories_segments":[],"categories_sizes":[],"default_left":[true,true,true,true,true,true,true,true,true,true,true,true,false,true,false,true,true,true,false,true,true,false,false,false,false,false,false,false,false,false,false,false,false,false,false,false,false],"id":39,"left_children":[1,3,5,7,9,11,13,15,17,19,21,23,-1,25,-1,27,29,31,-1,33,35,-1,-1,-1,-1,-1,-1,-1,-1,-1,-1,-1,-1,-1,-1,-1,-1],"loss_changes":[7.365722E6,3.7792495E6,1.1759752E7,2.1836864E7,1.136559E7,4.409796E6,3.6179628E6,1.3291095E6,1.3853862E7,8.005456E6,5.481831E6,1.433826E6,0E0,2.3513122E6,0E0,6.6631355E6,5.673462E6,1.5082484E7,0E0,3.914167E6,1.4285349E7,0E0,0E0,0E0,0E0,0E0,0E0,0E0,0E0,0E0,0E0,0E0,0E0,0E0,0E0,0E0,0E0],"parents":[2147483647,0,0,1,1,2,2,3,3,4,4,5,5,6,6,7,7,8,8,9,9,10,10,11,11,13,13,15,15,16,16,17,17,19,19,20,20],"right_children":[2,4,6,8,10,12,14,16,18,20,22,24,-1,26,-1,28,30,32,-1,34,36,-1,-1,-1,-1,-1,-1,-1,-1,-1,-1,-1,-1,-1,-1,-1,-1],"split_conditions":[5E-1,5E-1,5E-1,2.0205E3,5E-1,5E-1,2.0205E3,5E-1,5E-1,2.0205E3,5E-1,2.0205E3,-6.507272E1,5E-1,-6.112038E1,5E-1,5E-1,5E-1,3.7956545E-1,5E-1,5E-1,1.8116606E2,2.3034433E1,6.676258E1,9.103634E0,5.833528E0,9.6754135E1,-2.8583176E0,-9.553918E1,-2.9003378E1,1.1263954E2,1.2803192E2,-1.16693886E2,1.2261345E1,4.120233E1,-3.947225E1,2.3460493E2],"split_indices":[13,8,8,3,7,7,3,12,12,3,12,3,0,7,0,7,7,15,0,12,15,0,0,0,0,0,0,0,0,0,0,0,0,0,0,0,0],"split_type":[0,0,0,0,0,0,0,0,0,0,0,0,0,0,0,0,0,0,0,0,0,0,0,0,0,0,0,0,0,0,0,0,0,0,0,0,0],"sum_hessian":[8.8E2,7.34E2,1.46E2,3.74E2,3.6E2,7.7E1,6.9E1,3.25E2,4.9E1,3.51E2,9E0,7.5E1,2E0,6.2E1,7E0,2.67E2,5.8E1,2.8E1,2.1E1,3.08E2,4.3E1,5E0,4E0,7E1,5E0,6E1,2E0,2.6E2,7E0,5.6E1,2E0,2.6E1,2E0,2.51E2,5.7E1,4.2E1,1E0],"tree_param":{"num_deleted":"0","num_feature":"20","num_nodes":"37","size_leaf_vector":"0"}},{"base_weights":[1.07878525E2,-1.2760053E2,1.3189278E2,-2.501082E2,3.2132162E2,1.6338908E2,-3.941443E1,-5.4342596E2,-9.753777E1,1.0845233E3,2.5083757E1,3.40774E2,-4.962526E1,-5.855994E2,6.8937695E2,-6.4440735E2,-6.920781E1,-2.9536356E2,1.2029193E3,-5.9776855E2,1.6570385E3,3.6635956E2,-9.171956E2,2.9638242E2,1.0270239E3,5.4313583E1,-3.4170465E2,-1.3277648E3,-3.4966354E2,3.39658E2,1.498106E3,5.2179944E2,-1.2216184E3,-5.4594226E2,2.6752861E1,1.9181935E3,3.632339E2,4.077538E2,-6.3993237E1,4.6986893E2,1.7784845E3,-2.5325484E2,4.3683197E2,-6.859125E1,-8.0337775E2,-8.744644E2,-2.579875E3,-6.551956E2,2.792777E2,-4.6212436E2,7.1349176E2,2.619189E3,-3.1602777E2],"categories":[],"categories_nodes":[],"categories_segments":[],"categories_sizes":[],"default_left":[true,true,true,true,true,true,true,true,true,true,true,true,true,true,true,false,true,true,true,false,false,false,false,true,true,true,true,true,true,true,true,false,false,false,false,false,false,false,false,false,false,false,false,false,false,false,false,false,false,false,false,false,false],"id":40,"left_children":[1,3,5,7,9,11,13,15,17,19,21,23,25,27,29,-1,31,33,35,-1,-1,-1,-1,37,39,41,43,45,47,49,51,-1,-1,-1,-1,-1,-1,-1,-1,-1,-1,-1,-1,-1,-1,-1,-1,-1,-1,-1,-1,-1,-1],"loss_changes":[4.9988E6,4.5893585E6,4.324116E6,2.8494408E6,4.0313065E6,2.556284E7,5.015953E7,1.001784E6,1.1665836E7,5.8168055E6,4.8325955E6,1.0923488E7,9.371818E6,1.2126404E7,1.4745488E7,0E0,4.049853E6,3.1677028E6,2.884064E6,0E0,0E0,0E0,0E0,1.3996702E7,8.352824E6,2.6936796E7,1.0149393E7,7.358342E6,1.0947799E7,1.2021836E7,3.339148E7,0E0,0E0,0E0,0E0,0E0,0E0,0E0,0E0,0E0,0E0,0E0,0E0,0E0,0E0,0E0,0E0,0E0,0E0,0E0,0E0,0E0,0E0],"parents":[2147483647,0,0,1,1,2,2,3,3,4,4,5,5,6,6,7,7,8,8,9,9,10,10,11,11,12,12,13,13,14,14,16,16,17,17,18,18,23,23,24,24,25,25,26,26,27,27,28,28,29,29,30,30],"right_children":[2,4,6,8,10,12,14,16,18,20,22,24,26,28,30,-1,32,34,36,-1,-1,-1,-1,38,40,42,44,46,48,50,52,-1,-1,-1,-1,-1,-1,-1,-1,-1,-1,-1,-1,-1,-1,-1,-1,-1,-1,-1,-1,-1,-1],"split_conditions":[2.5E0,5E-1,5E-1,1.5E0,1.5E0,1.85E1,1.95E1,5E-1,5E-1,5E-1,5E-1,1.75E1,5E-1,6.5E0,5E-1,-6.4440735E1,5E-1,5E-1,5E-1,-5.9776855E1,1.6570384E2,3.6635956E1,-9.171957E1,5E-1,5E-1,2.55E1,2.65E1,5E-1,5E-1,2.15E1,2.65E1,5.2179943E1,-1.2216184E2,-5.4594227E1,2.675286E0,1.9181935E2,3.632339E1,4.0775383E1,-6.399324E0,4.6986893E1,1.7784845E2,-2.5325483E1,4.3683197E1,-6.8591247E0,-8.0337776E1,-8.744644E1,-2.5798752E2,-6.551956E1,2.792777E1,-4.6212437E1,7.1349174E1,2.619189E2,-3.1602777E1],"split_indices":[1,11,14,1,1,1,1,12,14,18,18,1,18,1,18,0,18,12,18,0,0,0,0,18,18,1,1,18,18,1,1,0,0,0,0,0,0,0,0,0,0,0,0,0,0,0,0,0,0,0,0,0,0],"split_type":[0,0,0,0,0,0,0,0,0,0,0,0,0,0,0,0,0,0,0,0,0,0,0,0,0,0,0,0,0,0,0,0,0,0,0,0,0,0,0,0,0,0,0,0,0,0,0,0,0,0,0,0,0],"sum_hessian":[8.8E2,8.1E1,7.99E2,6.4E1,1.7E1,6.75E2,1.24E2,2.1E1,4.3E1,4E0,1.3E1,3.68E2,3.07E2,7.1E1,5.3E1,1.7E1,4E0,3.8E1,5E0,1E0,3E0,1E1,3E0,3.47E2,2.1E1,2.27E2,8E1,1.6E1,5.5E1,3.8E1,1.5E1,3E0,1E0,2.1E1,1.7E1,2E0,3E0,2.65E2,8.2E1,1.3E1,8E0,1.26E2,1.01E2,5.1E1,2.9E1,1.3E1,3E0,3.7E1,1.8E1,1.2E1,2.6E1,9E0,6E0],"tree_param":{"num_deleted":"0","num_feature":"20","num_nodes":"53","size_leaf_vector":"0"}},{"base_weights":[9.726486E1,5.973081E1,2.8420544E2,-8.226323E1,1.1594907E2,5.130204E2,-2.0398638E1,3.6766148E1,-7.185037E2,5.219498E2,4.63526E1,-1.0150764E2,1.1302034E3,-2.2695192E2,9.945355E2,-1.6418646E2,6.1283093E2,2.7816766E2,-2.4866926E3,7.1541144E2,-1.513637E2,-4.8968018E2,1.0407095E2,-1.1471035E3,3.3991992E2,5.3673737E2,2.4120325E3,-8.218098E2,-1.2065798E2,1.5644049E3,-1.8879394E-1,-3.2846854E2,9.6586676E2,2.7011182E2,1.9906636E3,6.535385E2,-2.3136938E3,8.46307E2,1.7630382E2,-1.0143731E3,2.2933354E3,-7.0677765E2,-2.6029648E2,7.2234015E2,6.0072685E1,-3.2243634E2,-3.785182E3,3.801668E3,-3.133638E2,1.3787216E3,-8.40299E2,2.9916685E3,8.8428094E2,8.848443E2,-2.7521748E3,9.41169E1,-6.3435E2,2.7377861E3,5.4549524E2,-8.095218E1,1.5643237E2],"categories":[],"categories_nodes":[],"categories_segments":[],"categories_sizes":[],"default_left":[true,true,true,true,true,true,true,true,true,true,true,true,true,true,true,true,true,true,false,true,true,true,true,true,true,true,true,true,true,true,true,false,false,false,false,false,false,false,false,false,false,false,false,false,false,false,false,false,false,false,false,false,false,false,false,false,false,false,false,false,false],"id":41,"left_children":[1,3,5,7,9,11,13,15,17,19,21,23,25,27,29,31,33,35,-1,37,39,41,43,45,47,49,51,53,55,57,59,-1,-1,-1,-1,-1,-1,-1,-1,-1,-1,-1,-1,-1,-1,-1,-1,-1,-1,-1,-1,-1,-1,-1,-1,-1,-1,-1,-1,-1,-1],"loss_changes":[6.161244E6,5.877128E6,1.0260993E7,1.5861079E7,1.4861152E7,3.1984216E7,1.3634865E7,2.059493E7,5.8869804E7,1.0143972E7,1.4000564E7,2.0244852E7,3.0626204E7,3.3058258E6,6.251431E6,2.481635E7,2.1161332E7,2.2899488E7,0E0,4.074574E6,4.028988E7,1.997497E6,1.1047516E7,2.702042E7,7.13328E7,3.5947212E7,8.827792E6,2.8809646E7,5.2505275E6,6.842704E6,7.5155016E4,0E0,0E0,0E0,0E0,0E0,0E0,0E0,0E0,0E0,0E0,0E0,0E0,0E0,0E0,0E0,0E0,0E0,0E0,0E0,0E0,0E0,0E0,0E0,0E0,0E0,0E0,0E0,0E0,0E0,0E0],"parents":[2147483647,0,0,1,1,2,2,3,3,4,4,5,5,6,6,7,7,8,8,9,9,10,10,11,11,12,12,13,13,14,14,15,15,16,16,17,17,19,19,20,20,21,21,22,22,23,23,24,