{"learner":{"attributes":{"scikit_learn":"{\"n_estimators\": 100, \"objective\": \"reg:squarederror\", \"max_depth\": 5, \"learning_rate\": 0.1, \"verbosity\": null, \"booster\": null, \"tree_method\": null, \"gamma\": null, \"min_child_weight\": null, \"max_delta_step\": null, \"subsample\": null, \"colsample_bytree\": 0.3, \"colsample_bylevel\": null, \"colsample_bynode\": null, \"reg_alpha\": null, \"reg_lambda\": null, \"scale_pos_weight\": null, \"base_score\": null, \"missing\": NaN, \"num_parallel_tree\": null, \"kwargs\": {\"alpha\": 10}, \"random_state\": null, \"n_jobs\": null, \"monotone_constraints\": null, \"interaction_constraints\": null, \"importance_type\": \"gain\", \"gpu_id\": null, \"validate_parameters\": null, \"_estimator_type\": \"regressor\"}"},"feature_names":["Amount spent (MYR)","Day","Month","Year","gdr_female","gdr_male","age_13-17","age_25-34","age_35-44","age_45-54","age_55-64","age_65+","dis_0","dis_20","dis_50","dis_70"],"feature_types":["float","int","int","int","int","int","int","int","int","int","int","int","int","int","int","int"],"gradient_booster":{"model":{"gbtree_model_param":{"num_trees":"100","size_leaf_vector":"0"},"tree_info":[0,0,0,0,0,0,0,0,0,0,0,0,0,0,0,0,0,0,0,0,0,0,0,0,0,0,0,0,0,0,0,0,0,0,0,0,0,0,0,0,0,0,0,0,0,0,0,0,0,0,0,0,0,0,0,0,0,0,0,0,0,0,0,0,0,0,0,0,0,0,0,0,0,0,0,0,0,0,0,0,0,0,0,0,0,0,0,0,0,0,0,0,0,0,0,0,0,0,0,0],"trees":[{"base_weights":[6.6490703E3,6.764297E3,5.9491143E3,6.831907E3,6.390912E3],"categories":[],"categories_nodes":[],"categories_segments":[],"categories_sizes":[],"default_left":[true,true,false,false,false],"id":0,"left_children":[1,3,-1,-1,-1],"loss_changes":[1.5972762E8,9.797632E6,0E0,0E0,0E0],"parents":[2147483647,0,0,1,1],"right_children":[2,4,-1,-1,-1],"split_conditions":[2.0205E3,5E-1,5.9491144E2,6.8319073E2,6.3909125E2],"split_indices":[3,11,0,0,0],"split_type":[0,0,0,0,0],"sum_hessian":[2.48E3,2.122E3,3.58E2,1.782E3,3.4E2],"tree_param":{"num_deleted":"0","num_feature":"16","num_nodes":"5","size_leaf_vector":"0"}},{"base_weights":[5.984937E3,-2.3870572E2,5.987547E3,5.9440977E3,6.4265615E3,5.9521763E3,1.9020911E3,7.780181E3,6.244035E3,5.7250356E3,6.037529E3,1.6898195E2,3.5755396E3,1.1415463E2,6.275644E3,5.7370186E3,1.272966E3,6.6835737E3,5.9967114E3,-1.6384537E2,3.3787283E2],"categories":[],"categories_nodes":[],"categories_segments":[],"categories_sizes":[],"default_left":[true,false,true,true,true,true,true,false,true,true,true,true,false,false,false,false,false,false,false,false,false],"id":1,"left_children":[1,-1,3,5,7,9,11,-1,13,15,17,19,-1,-1,-1,-1,-1,-1,-1,-1,-1],"loss_changes":[4.178739E7,0E0,8.978432E6,6.2726144E7,3.411968E6,9.224192E6,1.6759966E7,0E0,3.6228096E7,2.666496E7,2.72384E6,2.8194522E5,0E0,0E0,0E0,0E0,0E0,0E0,0E0,0E0,0E0],"parents":[2147483647,0,0,2,2,3,3,4,4,5,5,6,6,8,8,9,9,10,10,11,11],"right_children":[2,-1,4,6,8,10,12,-1,14,16,18,20,-1,-1,-1,-1,-1,-1,-1,-1,-1],"split_conditions":[3.2849998E0,-2.3870573E1,9.5415E1,9.5285E1,9.6095E1,2.5E0,9.5345E1,7.780181E2,9.611E1,9.4935E1,7.545E0,9.5315E1,3.5755396E2,1.1415463E1,6.275644E2,5.7370184E2,1.2729659E2,6.6835736E2,5.9967114E2,-1.6384537E1,3.3787285E1],"split_indices":[0,0,0,0,0,2,0,0,0,0,0,0,0,0,0,0,0,0,0,0,0],"split_type":[0,0,0,0,0,0,0,0,0,0,0,0,0,0,0,0,0,0,0,0,0],"sum_hessian":[2.48E3,1E0,2.479E3,2.269E3,2.1E2,2.264E3,5E0,2E1,1.9E2,6.37E2,1.627E3,3E0,2E0,1E0,1.89E2,6.35E2,2E0,8.7E1,1.54E3,1E0,2E0],"tree_param":{"num_deleted":"0","num_feature":"16","num_nodes":"21","size_leaf_vector":"0"}},{"base_weights":[5.387952E3,5.437272E3,5.105298E3,5.268614E3,4.5277964E3],"categories":[],"categories_nodes":[],"categories_segments":[],"categories_sizes":[],"default_left":[true,false,true,false,false],"id":2,"left_children":[1,-1,3,-1,-1],"loss_changes":[6.725632E6,0E0,1.2358656E7,0E0,0E0],"parents":[2147483647,0,0,2,2],"right_children":[2,-1,4,-1,-1],"split_conditions":[5E-1,5.4372723E2,5E-1,5.268614E2,4.5277963E2],"split_indices":[9,0,12,0,0],"split_type":[0,0,0,0,0],"sum_hessian":[2.48E3,2.096E3,3.84E2,2.93E2,9.1E1],"tree_param":{"num_deleted":"0","num_feature":"16","num_nodes":"5","size_leaf_vector":"0"}},{"base_weights":[4.8497715E3,4.912571E3,4.6503726E3,4.9892007E3,4.4850503E3,4.646505E3,4.0799382E3],"categories":[],"categories_nodes":[],"categories_segments":[],"categories_sizes":[],"default_left":[true,true,false,false,true,false,false],"id":3,"left_children":[1,3,-1,-1,5,-1,-1],"loss_changes":[8.126464E6,3.875635E7,0E0,0E0,1.85344E5,0E0,0E0],"parents":[2147483647,0,0,1,1,4,4],"right_children":[2,4,-1,-1,6,-1,-1],"split_conditions":[5E-1,5E-1,4.6503726E2,4.9892007E2,5E-1,4.6465048E2,4.0799384E2],"split_indices":[14,9,0,0,12,0,0],"split_type":[0,0,0,0,0,0,0],"sum_hessian":[2.48E3,1.868E3,6.12E2,1.575E3,2.93E2,2.02E2,9.1E1],"tree_param":{"num_deleted":"0","num_feature":"16","num_nodes":"7","size_leaf_vector":"0"}},{"base_weights":[4.3655356E3,4.31828E3,4.5936797E3,4.3874155E3,4.1012783E3,4.73789E3,4.0991484E3,4.18958E3,3.5900225E3],"categories":[],"categories_nodes":[],"categories_segments":[],"categories_sizes":[],"default_left":[true,true,true,false,true,false,false,false,false],"id":4,"left_children":[1,3,5,-1,7,-1,-1,-1,-1],"loss_changes":[6.823936E6,1.30048E7,9.729024E6,0E0,8.175616E6,0E0,0E0,0E0,0E0],"parents":[2147483647,0,0,1,1,2,2,4,4],"right_children":[2,4,6,-1,8,-1,-1,-1,-1],"split_conditions":[5E-1,5E-1,5E-1,4.3874155E2,5E-1,4.7378903E2,4.0991486E2,4.18958E2,3.5900226E2],"split_indices":[6,14,15,0,10,0,0,0,0],"split_type":[0,0,0,0,0,0,0,0,0],"sum_hessian":[2.48E3,2.071E3,4.09E2,1.556E3,5.15E2,3.1E2,9.9E1,4.33E2,8.2E1],"tree_param":{"num_deleted":"0","num_feature":"16","num_nodes":"9","size_leaf_vector":"0"}},{"base_weights":[3.9298306E3,-9.6746484E2,3.9321995E3,5.148576E3,3.9167078E3,1.2266644E3,3.9227983E3,1.7019432E3,2.2311605E1,3.881559E3,4.3413735E3,1.09781494E2,2.0700383E3,-3.162511E2,3.547185E2,3.888693E3,5.791406E2,5.660711E3,4.173533E3],"categories":[],"categories_nodes":[],"categories_segments":[],"categories_sizes":[],"default_left":[true,false,true,false,true,true,true,true,true,true,true,false,false,false,false,false,false,false,false],"id":5,"left_children":[1,-1,3,-1,5,7,9,11,13,15,17,-1,-1,-1,-1,-1,-1,-1,-1],"loss_changes":[3.2616448E7,0E0,2.6476544E7,0E0,3.5328E7,3.951607E6,2.5305088E7,2.681284E6,4.501865E5,5.0405376E7,2.2999808E7,0E0,0E0,0E0,0E0,0E0,0E0,0E0,0E0],"parents":[2147483647,0,0,2,2,4,4,5,5,6,6,7,7,8,8,9,9,10,10],"right_children":[2,-1,4,-1,6,8,10,12,14,16,18,-1,-1,-1,-1,-1,-1,-1,-1],"split_conditions":[3.2849998E0,-9.674648E1,4.225E0,5.148576E2,4.4849997E0,4.4049997E0,9.5415E1,4.2349997E0,4.4449997E0,9.5285E1,9.6095E1,1.0978149E1,2.0700383E2,-3.162511E1,3.547185E1,3.8886932E2,5.7914062E1,5.660711E2,4.1735333E2],"split_indices":[0,0,0,0,0,0,0,0,0,0,0,0,0,0,0,0,0,0,0],"split_type":[0,0,0,0,0,0,0,0,0,0,0,0,0,0,0,0,0,0,0],"sum_hessian":[2.48E3,1E0,2.479E3,2.7E1,2.452E3,6E0,2.446E3,4E0,2E0,2.236E3,2.1E2,1E0,3E0,1E0,1E0,2.231E3,5E0,2E1,1.9E2],"tree_param":{"num_deleted":"0","num_feature":"16","num_nodes":"19","size_leaf_vector":"0"}},{"base_weights":[3.5376838E3,3.6387664E3,2.930035E3,3.6469053E3,2.1515027E3,2.702939E3,3.9539636E3,3.6065066E3,4.123117E3,-3.4003674E2,3.5745842E3,4.122116E3,2.426388E3,3.395498E3,6.04365E3,3.630655E3,2.987584E3,7.262971E3,3.9293958E3,5.546685E2,-9.285565E2,2.328941E3,5.286224E3,-9.190916E2,4.2519053E3,1.587062E3,2.6220806E3,4.3975137E3,2.2239631E3,3.6165027E3,4.8892417E3,-1.8362088E2,3.2508833E3,7.9177056E3,1.3349156E3,-8.309242E2,3.9667373E3,-1.2614987E3,2.0985015E3,-1.3046655E3,-3.64965E2,3.0829827E3,2.9255777E2,1.7497461E3,-1.5415708E3,5.6444395E3,2.5007102E3,3.0842827E3,5.106967E3,3.166719E3,1.1889781E3],"categories":[],"categories_nodes":[],"categories_segments":[],"categories_sizes":[],"default_left":[true,true,true,true,true,true,true,true,true,true,true,true,true,true,false,true,true,true,true,true,true,true,false,false,false,true,true,true,true,false,false,false,false,false,false,false,false,false,false,false,false,false,false,false,false,false,false,false,false,false,false],"id":6,"left_children":[1,3,5,7,9,11,13,15,17,19,21,23,25,27,-1,29,31,33,35,37,39,41,-1,-1,-1,43,45,47,49,-1,-1,-1,-1,-1,-1,-1,-1,-1,-1,-1,-1,-1,-1,-1,-1,-1,-1,-1,-1,-1,-1],"loss_changes":[1.4166426E8,1.7793024E7,7.272448E7,2.5645056E7,5.0887132E7,1.0649779E8,5.2906496E7,1.8276352E7,6.74537E7,3.6780905E6,6.801376E6,3.4693056E7,3.702323E7,5.119648E7,0E0,1.5630336E7,6.6590784E7,2.0388416E7,3.0168832E7,1.1067203E7,3.5503375E5,9.81292E6,0E0,0E0,0E0,2.8148392E7,5.990208E7,9.322016E6,2.156048E7,0E0,0E0,0E0,0E0,0E0,0E0,0E0,0E0,0E0,0E0,0E0,0E0,0E0,0E0,0E0,0E0,0E0,0E0,0E0,0E0,0E0,0E0],"parents":[2147483647,0,0,1,1,2,2,3,3,4,4,5,5,6,6,7,7,8,8,9,9,10,10,11,11,12,12,13,13,15,15,16,16,17,17,18,18,19,19,20,20,21,21,25,25,26,26,27,27,28,28],"right_children":[2,4,6,8,10,12,14,16,18,20,22,24,26,28,-1,30,32,34,36,38,40,42,-1,-1,-1,44,46,48,50,-1,-1,-1,-1,-1,-1,-1,-1,-1,-1,-1,-1,-1,-1,-1,-1,-1,-1,-1,-1,-1,-1],"split_conditions":[2.0205E3,1.02655E2,8.647E1,9.576E1,1.0289E2,1.542E1,5E-1,9.242E1,9.6095E1,1.0269501E2,5E-1,3.385E0,2.8064999E1,9.3740005E1,6.04365E2,9.153999E1,9.2655E1,5E-1,9.611E1,5E-1,1.0278E2,1.0331E2,5.2862244E2,-9.1909164E1,4.2519052E2,2.7355E1,3.0128979E1,8.933501E1,5E-1,3.6165027E2,4.8892416E2,-1.836209E1,3.2508835E2,7.9177057E2,1.3349156E2,-8.309242E1,3.9667374E2,-1.26149864E2,2.0985014E2,-1.3046655E2,-3.6496502E1,3.0829828E2,2.9255777E1,1.7497461E2,-1.5415709E2,5.64444E2,2.5007103E2,3.0842828E2,5.106967E2,3.166719E2,1.1889782E2],"split_indices":[3,0,0,0,0,0,7,0,0,0,5,0,0,0,0,0,0,7,0,7,0,0,0,0,0,0,0,0,5,0,0,0,0,0,0,0,0,0,0,0,0,0,0,0,0,0,0,0,0,0,0],"split_type":[0,0,0,0,0,0,0,0,0,0,0,0,0,0,0,0,0,0,0,0,0,0,0,0,0,0,0,0,0,0,0,0,0,0,0,0,0,0,0,0,0,0,0,0,0,0,0,0,0,0,0],"sum_hessian":[2.48E3,2.122E3,3.58E2,2.109E3,1.3E1,2.96E2,6.2E1,1.952E3,1.57E2,5E0,8E0,4.6E1,2.5E2,5.1E1,1.1E1,1.874E3,7.8E1,7E0,1.5E2,2E0,3E0,6E0,2E0,1E0,4.5E1,4.9E1,2.01E2,2.6E1,2.5E1,1.857E3,1.7E1,6E0,7.2E1,6E0,1E0,1E0,1.49E2,1E0,1E0,1E0,2E0,4E0,2E0,4.7E1,2E0,6E0,1.95E2,1.1E1,1.5E1,1.2E1,1.3E1],"tree_param":{"num_deleted":"0","num_feature":"16","num_nodes":"51","size_leaf_vector":"0"}},{"base_weights":[3.1864216E3],"categories":[],"categories_nodes":[],"categories_segments":[],"categories_sizes":[],"default_left":[false],"id":7,"left_children":[-1],"loss_changes":[0E0],"parents":[2147483647],"right_children":[-1],"split_conditions":[3.1864218E2],"split_indices":[0],"split_type":[0],"sum_hessian":[2.48E3],"tree_param":{"num_deleted":"0","num_feature":"16","num_nodes":"1","size_leaf_vector":"0"}},{"base_weights":[2.867908E3,2.8260889E3,3.0722273E3,2.7740618E3,3.0079504E3,2.8776917E3,2.673903E3,2.83956E3,3.1545288E3,2.7261047E3,2.4931775E3,3.0051892E3,3.5575098E3],"categories":[],"categories_nodes":[],"categories_segments":[],"categories_sizes":[],"default_left":[true,true,false,true,true,false,true,false,true,false,false,false,false],"id":8,"left_children":[1,3,-1,5,7,-1,9,-1,11,-1,-1,-1,-1],"loss_changes":[1.2455936E7,1.1203584E7,0E0,9.105408E6,2.064896E6,0E0,1.075712E6,0E0,3.145216E6,0E0,0E0,0E0,0E0],"parents":[2147483647,0,0,1,1,3,3,4,4,6,6,8,8],"right_children":[2,4,-1,6,8,-1,10,-1,12,-1,-1,-1,-1],"split_conditions":[5E-1,5E-1,3.0722275E2,5E-1,5E-1,2.8776917E2,5E-1,2.8395602E2,5E-1,2.7261047E2,2.4931775E2,3.0051892E2,3.5575098E2],"split_indices":[6,7,0,5,5,0,12,0,12,0,0,0,0],"split_type":[0,0,0,0,0,0,0,0,0,0,0,0,0],"sum_hessian":[2.48E3,2.071E3,4.09E2,1.623E3,4.48E2,7.84E2,8.39E2,2.18E2,2.3E2,6.4E2,1.99E2,1.74E2,5.6E1],"tree_param":{"num_deleted":"0","num_feature":"16","num_nodes":"13","size_leaf_vector":"0"}},{"base_weights":[2.5819487E3,2.5501675E3,2.6718408E3,2.6877268E3,2.4179878E3,2.4559175E3,2.8586995E3,2.3717837E3,2.6190579E3,2.618591E3,1.689403E3],"categories":[],"categories_nodes":[],"categories_segments":[],"categories_sizes":[],"default_left":[true,true,true,false,true,true,false,false,false,false,false],"id":9,"left_children":[1,3,5,-1,7,9,-1,-1,-1,-1,-1],"loss_changes":[2.22208E5,2.7177984E7,1.8223616E7,0E0,2.619904E6,3.26912E7,0E0,0E0,0E0,0E0,0E0],"parents":[2147483647,0,0,1,1,2,2,4,4,5,5],"right_children":[2,4,6,-1,8,10,-1,-1,-1,-1,-1],"split_conditions":[5E-1,5E-1,5E-1,2.6877267E2,5E-1,5E-1,2.8586996E2,2.3717838E2,2.619058E2,2.618591E2,1.6894029E2],"split_indices":[13,5,5,0,8,8,0,0,0,0,0],"split_type":[0,0,0,0,0,0,0,0,0,0,0],"sum_hessian":[2.48E3,1.854E3,6.26E2,8.99E2,9.55E2,2.97E2,3.29E2,7.87E2,1.68E2,2.43E2,5.4E1],"tree_param":{"num_deleted":"0","num_feature":"16","num_nodes":"11","size_leaf_vector":"0"}},{"base_weights":[2.3243542E3,2.2899888E3,2.6831685E3,2.2984568E3,1.4454419E2,3.847531E3,2.541049E3,2.3470554E3,2.0225254E3,8.55135E2,-1.1326257E3,2.8060952E3,5.9817715E3,-1.215957E3,2.5672754E3,2.2185635E3,2.4844573E3,2.576939E3,1.7128766E3,-1.1265813E3,2.6255674E3,-1.6351719E3,1.8250623E2,3.0482822E3,7.3718994E2,2.4960117E3,4.7028257E3,2.4240117E3,1.7863363E3,3.4193462E3,2.4379597E3,1.7754038E3,3.817997E3,3.068417E2,1.9030084E3,3.3603403E3,7.8062256E2,1.6055457E3,-4.9476074E2,2.6437092E3,4.918901E2,5.4505083E3,8.510475E2],"categories":[],"categories_nodes":[],"categories_segments":[],"categories_sizes":[],"default_left":[true,true,true,true,true,true,true,true,true,true,true,true,false,false,true,true,true,true,true,false,false,false,false,true,true,true,true,false,false,false,false,false,false,false,false,false,false,false,false,false,false,false,false],"id":10,"left_children":[1,3,5,7,9,11,13,15,17,19,21,23,-1,-1,25,27,29,31,33,-1,-1,-1,-1,35,37,39,41,-1,-1,-1,-1,-1,-1,-1,-1,-1,-1,-1,-1,-1,-1,-1,-1],"loss_changes":[2.4398848E7,4.090163E7,2.5075328E7,2.5541632E7,1.0041226E7,2.980288E7,2.1954688E7,2.8286976E7,5.494208E7,2.7532368E7,2.956613E6,5.731976E6,0E0,0E0,1.710528E7,8.442778E7,3.1510528E7,1.1452525E8,5.954368E7,0E0,0E0,0E0,0E0,7.242416E6,4.014783E6,5.372493E7,9.69788E6,0E0,0E0,0E0,0E0,0E0,0E0,0E0,0E0,0E0,0E0,0E0,0E0,0E0,0E0,0E0,0E0],"parents":[2147483647,0,0,1,1,2,2,3,3,4,4,5,5,6,6,7,7,8,8,9,9,10,10,11,11,14,14,15,15,16,16,17,17,18,18,23,23,24,24,25,25,26,26],"right_children":[2,4,6,8,10,12,14,16,18,20,22,24,-1,-1,26,28,30,32,34,-1,-1,-1,-1,36,38,40,42,-1,-1,-1,-1,-1,-1,-1,-1,-1,-1,-1,-1,-1,-1,-1,-1],"split_conditions":[9.5415E1,9.4935E1,9.6095E1,5E-1,8.5E0,9.5880005E1,9.611E1,5.0705E1,3.6824997E1,4E0,9.536E1,5E-1,5.981772E2,-1.215957E2,1.03345E2,3.407E1,5.3155E1,2.297E1,4.358E1,-1.12658134E2,2.6255673E2,-1.635172E2,1.8250624E1,1.15E1,9.5595E1,1.02655E2,8.5E0,2.4240117E2,1.7863364E2,3.4193463E2,2.4379597E2,1.7754039E2,3.817997E2,3.0684172E1,1.9030084E2,3.3603403E2,7.8062256E1,1.6055457E2,-4.9476074E1,2.6437094E2,4.918901E1,5.4505084E2,8.510475E1],"split_indices":[0,0,0,9,2,0,0,0,0,2,0,9,0,0,0,0,0,0,0,0,0,0,0,2,0,0,2,0,0,0,0,0,0,0,0,0,0,0,0,0,0,0,0],"split_type":[0,0,0,0,0,0,0,0,0,0,0,0,0,0,0,0,0,0,0,0,0,0,0,0,0,0,0,0,0,0,0,0,0,0,0,0,0,0,0,0,0,0,0],"sum_hessian":[2.48E3,2.27E3,2.1E2,2.261E3,9E0,2E1,1.9E2,1.916E3,3.45E2,6E0,3E0,1.5E1,5E0,1E0,1.89E2,9.99E2,9.17E2,1.21E2,2.24E2,3E0,3E0,2E0,1E0,1.3E1,2E0,1.85E2,4E0,6.74E2,3.25E2,4E1,8.77E2,7.5E1,4.6E1,2.7E1,1.97E2,1.1E1,2E0,1E0,1E0,1.72E2,1.3E1,3E0,1E0],"tree_param":{"num_deleted":"0","num_feature":"16","num_nodes":"43","size_leaf_vector":"0"}},{"base_weights":[2.0934304E3,1.3576586E3,2.144919E3,1.24087E3,2.189251E3,2.192611E3,1.6481411E3,1.0596547E3,1.5814711E3,2.5416838E3,6.9210223E2,2.3362305E3,2.0999375E3,1.7905327E3,1.1650209E3,5.7563855E2,1.3152003E3,-2.2307485E3,1.9830021E3,2.2204714E3,2.6676995E3,1.9485486E3,2.352272E3,1.5240735E3,2.0375734E3,1.8702163E3,2.5543413E2,-4.4301355E2,1.4132109E3,2.067017E3,4.478785E2,2.3614194E3,4.18875E2,2.334238E3,1.4960627E3,2.1479895E3,3.2695E3,1.6300828E3,2.0338306E3,2.547787E3,1.7376608E3,1.8064241E3,8.3024536E2,1.4840913E3,2.6254692E3,2.434101E3,-6.013775E2,1.8284518E2,4.7818524E2],"categories":[],"categories_nodes":[],"categories_segments":[],"categories_sizes":[],"default_left":[true,true,true,true,true,true,true,true,false,false,true,true,true,true,true,true,true,false,true,true,true,true,true,true,true,true,true,false,false,false,false,false,false,false,false,false,false,false,false,false,false,false,false,false,false,false,false,false,false],"id":11,"left_children":[1,3,5,7,9,11,13,15,-1,-1,17,19,21,23,25,27,29,-1,31,33,35,37,39,41,43,45,47,-1,-1,-1,-1,-1,-1,-1,-1,-1,-1,-1,-1,-1,-1,-1,-1,-1,-1,-1,-1,-1,-1],"loss_changes":[9.104282E7,1.3274016E7,5.124301E7,7.370928E6,8.2338E6,2.3146496E7,1.2124416E7,1.1469144E7,0E0,0E0,2.328664E7,2.5453056E7,4.476723E7,7.25952E6,3.1572848E7,3.1350788E7,4.0781376E7,0E0,1.350629E6,4.6989056E7,5.766464E7,1.875584E7,5.3209344E7,1.414608E7,2.1768256E7,4.050557E7,2.7784888E5,0E0,0E0,0E0,0E0,0E0,0E0,0E0,0E0,0E0,0E0,0E0,0E0,0E0,0E0,0E0,0E0,0E0,0E0,0E0,0E0,0E0,0E0],"parents":[2147483647,0,0,1,1,2,2,3,3,4,4,5,5,6,6,7,7,10,10,11,11,12,12,13,13,14,14,15,15,16,16,18,18,19,19,20,20,21,21,22,22,23,23,24,24,25,25,26,26],"right_children":[2,4,6,8,10,12,14,16,-1,-1,18,20,22,24,26,28,30,-1,32,34,36,38,40,42,44,46,48,-1,-1,-1,-1,-1,-1,-1,-1,-1,-1,-1,-1,-1,-1,-1,-1,-1,-1,-1,-1,-1,-1],"split_conditions":[2.5E0,5E-1,2.85E1,5E-1,5E-1,1.25E1,3.05E1,1.5E0,1.5814711E2,2.5416838E2,5E-1,5E-1,2.25E1,2.95E1,5E-1,5E-1,5E-1,-2.2307486E2,1.5E0,5E-1,7.5E0,1.45E1,5E-1,5E-1,5E-1,5E-1,5E-1,-4.4301357E1,1.4132109E2,2.067017E2,4.4787853E1,2.3614195E2,4.18875E1,2.3342381E2,1.4960628E2,2.1479895E2,3.2695E2,1.6300829E2,2.0338306E2,2.5477872E2,1.7376608E2,1.8064241E2,8.3024536E1,1.4840913E2,2.6254694E2,2.4341011E2,-6.0137753E1,1.828452E1,4.7818523E1],"split_indices":[1,10,1,15,15,1,1,1,0,0,4,15,1,1,4,4,4,0,1,10,1,1,15,15,4,15,15,0,0,0,0,0,0,0,0,0,0,0,0,0,0,0,0,0,0,0,0,0,0],"split_type":[0,0,0,0,0,0,0,0,0,0,0,0,0,0,0,0,0,0,0,0,0,0,0,0,0,0,0,0,0,0,0,0,0,0,0,0,0,0,0,0,0,0,0,0,0,0,0,0,0],"sum_hessian":[2.48E3,1.64E2,2.316E3,1.46E2,1.8E1,2.11E3,2.06E2,9.8E1,4.8E1,1.4E1,4E0,8.18E2,1.292E3,1.57E2,4.9E1,3.5E1,6.3E1,1E0,3E0,6.12E2,2.06E2,8.13E2,4.79E2,7.9E1,7.8E1,2.7E1,2.2E1,1.6E1,1.9E1,3.3E1,3E1,2E0,1E0,5.27E2,8.5E1,1.13E2,9.3E1,1.76E2,6.37E2,3.61E2,1.18E2,5.5E1,2.4E1,4.2E1,3.6E1,2.2E1,5E0,1.8E1,4E0],"tree_param":{"num_deleted":"0","num_feature":"16","num_nodes":"49","size_leaf_vector":"0"}},{"base_weights":[1.885489E3,1.7261333E3,1.9482695E3,1.9232959E3,1.4996577E3,1.804688E3,2.0974016E3,1.6652985E3,2.8569456E3,1.5876372E3,1.0864957E3,1.5988822E3,1.9251992E3,2.2670852E3,1.6884315E3,1.7707593E3,1.304525E3,3.1809392E3,2.061307E3,7.298827E2,1.9171118E3,1.5021919E3,1.8649032E3,2.08183E3,1.4111332E3,2.4255818E3,1.8012589E3,1.1454231E3,2.015849E3,1.921768E3,6.507675E2,1.361588E3,2.7633464E3,8.245594E2,5.248529E2,1.5754656E3,9.942214E2,1.6848374E3,2.8490786E3,2.3832153E3,1.9521653E3,1.6303966E3,5.455616E2,2.3222944E3,2.5662002E3,1.4016455E3,1.8994462E3,1.1983075E3,8.192568E2,1.746371E3,2.9203896E3],"categories":[],"categories_nodes":[],"categories_segments":[],"categories_sizes":[],"default_left":[true,true,true,true,true,true,true,true,true,false,true,true,true,true,true,false,true,false,true,true,false,true,true,true,true,true,true,true,true,false,false,false,false,false,false,false,false,false,false,false,false,false,false,false,false,false,false,false,false,false,false],"id":12,"left_children":[1,3,5,7,9,11,13,15,17,-1,19,21,23,25,27,-1,29,-1,31,33,-1,35,37,39,41,43,45,47,49,-1,-1,-1,-1,-1,-1,-1,-1,-1,-1,-1,-1,-1,-1,-1,-1,-1,-1,-1,-1,-1,-1],"loss_changes":[2.1421056E7,2.8784768E7,3.4118656E7,8.576768E7,1.0425472E7,1.9456256E7,5.602099E7,8.95936E6,1.4013184E7,0E0,1.6939192E7,5.961728E6,4.284237E7,4.0404736E7,4.335155E7,0E0,2.737408E7,0E0,8.9682E6,4.27254E5,0E0,7.936448E6,1.0572256E7,1.2264576E7,2.4899936E7,5.2736E5,3.504064E6,7.05768E5,3.361011E7,0E0,0E0,0E0,0E0,0E0,0E0,0E0,0E0,0E0,0E0,0E0,0E0,0E0,0E0,0E0,0E0,0E0,0E0,0E0,0E0,0E0,0E0],"parents":[2147483647,0,0,1,1,2,2,3,3,4,4,5,5,6,6,7,7,8,8,10,10,11,11,12,12,13,13,14,14,16,16,18,18,19,19,21,21,22,22,23,23,24,24,25,25,26,26,27,27,28,28],"right_children":[2,4,6,8,10,12,14,16,18,-1,20,22,24,26,28,-1,30,-1,32,34,-1,36,38,40,42,44,46,48,50,-1,-1,-1,-1,-1,-1,-1,-1,-1,-1,-1,-1,-1,-1,-1,-1,-1,-1,-1,-1,-1,-1],"split_conditions":[2.5E0,5E-1,5E-1,5E-1,5E-1,6.5E0,9.5E0,5E-1,5E-1,1.5876372E2,5E-1,5E-1,5E-1,5E-1,1.05E1,1.7707593E2,1.5E0,3.1809393E2,1.5E0,1.5E0,1.9171118E2,5E-1,5E-1,8.5E0,5E-1,6.5E0,4.5E0,5E-1,5E-1,1.921768E2,6.507675E1,1.361588E2,2.7633466E2,8.245594E1,5.248529E1,1.5754655E2,9.942214E1,1.6848375E2,2.8490787E2,2.3832153E2,1.9521654E2,1.6303966E2,5.455616E1,2.3222945E2,2.5662003E2,1.4016455E2,1.8994463E2,1.1983075E2,8.192568E1,1.746371E2,2.9203897E2],"split_indices":[2,4,4,7,7,2,2,14,14,0,14,14,14,14,2,0,2,0,2,2,0,7,7,2,7,2,2,7,14,0,0,0,0,0,0,0,0,0,0,0,0,0,0,0,0,0,0,0,0,0,0],"split_type":[0,0,0,0,0,0,0,0,0,0,0,0,0,0,0,0,0,0,0,0,0,0,0,0,0,0,0,0,0,0,0,0,0,0,0,0,0,0,0,0,0,0,0,0,0,0,0,0,0,0,0],"sum_hessian":[2.48E3,7.09E2,1.771E3,3.75E2,3.34E2,9.09E2,8.62E2,2.96E2,7.9E1,2.73E2,6.1E1,3.41E2,5.68E2,6.06E2,2.56E2,2.26E2,7E1,5.4E1,2.5E1,4.4E1,1.7E1,2.55E2,8.6E1,4.33E2,1.35E2,4.49E2,1.57E2,9.8E1,1.58E2,3.5E1,3.5E1,1.4E1,1.1E1,2.8E1,1.6E1,2.21E2,3.4E1,7.5E1,1.1E1,1.25E2,3.08E2,1.07E2,2.8E1,2.69E2,1.8E2,3.4E1,1.23E2,8.2E1,1.6E1,1.24E2,3.4E1],"tree_param":{"num_deleted":"0","num_feature":"16","num_nodes":"51","size_leaf_vector":"0"}},{"base_weights":[1.6987637E3,1.7869423E3,1.1725463E3,2.36871E3,1.7308381E3,1.31373E3,-1.5745303E3,2.544667E3,1.5743684E3,1.1801084E3,1.7882141E3,9.772586E2,2.2591235E3,-1.9026256E3,1.9965449E3,1.7344889E3,9.001746E2,1.4146362E3,6.2434143E2,1.8589807E3,1.4055118E3,8.653458E2,1.52131E3,2.0416793E3,3.0028374E3,-9.721152E2,-2.4557712E3,1.3059459E3,2.0178235E3,4.9118365E2,1.0819177E3,1.9806589E3,1.6740297E3,1.2347892E3,2.0455979E3,6.356092E2,1.4979003E3,1.9130728E3,2.4242667E2,3.407201E3,-1.9306707E3,-1.2289225E3,-1.3112874E2],"categories":[],"categories_nodes":[],"categories_segments":[],"categories_sizes":[],"default_left":[true,true,true,true,true,true,true,false,true,true,true,true,true,true,false,false,false,true,true,true,true,true,true,false,true,true,false,false,false,false,false,false,false,false,false,false,false,false,false,false,false,false,false],"id":13,"left_children":[1,3,5,7,9,11,13,-1,15,17,19,21,23,25,-1,-1,-1,27,29,31,33,35,37,-1,39,41,-1,-1,-1,-1,-1,-1,-1,-1,-1,-1,-1,-1,-1,-1,-1,-1,-1],"loss_changes":[1.1299686E8,6.5153024E7,1.4130134E8,2.1670272E7,5.91616E7,1.0654938E8,2.4887492E7,0E0,2.298592E6,2.3340144E7,4.488448E7,1.41248E7,8.211488E6,6.328464E6,0E0,0E0,0E0,5.85448E6,2.925848E6,2.9909504E7,2.7820288E7,2.9979952E7,2.0557456E7,0E0,4.2501696E7,1.5530235E6,0E0,0E0,0E0,0E0,0E0,0E0,0E0,0E0,0E0,0E0,0E0,0E0,0E0,0E0,0E0,0E0,0E0],"parents":[2147483647,0,0,1,1,2,2,3,3,4,4,5,5,6,6,8,8,9,9,10,10,11,11,12,12,13,13,17,17,18,18,19,19,20,20,21,21,22,22,24,24,25,25],"right_children":[2,4,6,8,10,12,14,-1,16,18,20,22,24,26,-1,-1,-1,28,30,32,34,36,38,-1,40,42,-1,-1,-1,-1,-1,-1,-1,-1,-1,-1,-1,-1,-1,-1,-1,-1,-1],"split_conditions":[2.0205E3,1.5E0,2.5E0,5E-1,2.5E0,1.5E0,1E1,2.544667E2,5E-1,5E-1,5E-1,5E-1,5E-1,5.5E0,1.996545E2,1.734489E2,9.001746E1,5E-1,5E-1,8.5E0,1.05E1,5E-1,5E-1,2.0416794E2,5E-1,4.5E0,-2.4557713E2,1.3059459E2,2.0178235E2,4.9118366E1,1.0819177E2,1.980659E2,1.6740297E2,1.2347892E2,2.045598E2,6.356092E1,1.4979002E2,1.9130728E2,2.4242666E1,3.407201E2,-1.9306706E2,-1.2289225E2,-1.3112874E1],"split_indices":[3,2,2,11,2,2,2,0,14,14,11,11,14,2,0,0,0,11,11,2,2,14,14,0,11,2,0,0,0,0,0,0,0,0,0,0,0,0,0,0,0,0,0],"split_type":[0,0,0,0,0,0,0,0,0,0,0,0,0,0,0,0,0,0,0,0,0,0,0,0,0,0,0,0,0,0,0,0,0,0,0,0,0,0,0,0,0,0,0],"sum_hessian":[2.48E3,2.122E3,3.58E2,1.83E2,1.939E3,3.41E2,1.7E1,1.48E2,3.5E1,1.85E2,1.754E3,2.53E2,8.8E1,1.6E1,1E0,2.7E1,8E0,1.29E2,5.6E1,1.477E3,2.77E2,2.12E2,4.1E1,7.1E1,1.7E1,7E0,9E0,1.12E2,1.7E1,4.5E1,1.1E1,8.85E2,5.92E2,2.21E2,5.6E1,1.57E2,5.5E1,3.1E1,1E1,1.6E1,1E0,5E0,2E0],"tree_param":{"num_deleted":"0","num_feature":"16","num_nodes":"43","size_leaf_vector":"0"}},{"base_weights":[1.5298196E3,1.5768516E3,1.3839097E3,1.5380372E3,1.7648618E3,1.4563107E3,9.039238E2],"categories":[],"categories_nodes":[],"categories_segments":[],"categories_sizes":[],"default_left":[true,true,true,false,false,false,false],"id":14,"left_children":[1,3,5,-1,-1,-1,-1],"loss_changes":[1.4813696E7,1.0891264E7,1.9962624E7,0E0,0E0,0E0,0E0],"parents":[2147483647,0,0,1,1,2,2],"right_children":[2,4,6,-1,-1,-1,-1],"split_conditions":[5E-1,5E-1,5E-1,1.5380373E2,1.7648619E2,1.4563107E2,9.039239E1],"split_indices":[14,10,10,0,0,0,0],"split_type":[0,0,0,0,0,0,0],"sum_hessian":[2.48E3,1.868E3,6.12E2,1.556E3,3.12E2,5.3E2,8.2E1],"tree_param":{"num_deleted":"0","num_feature":"16","num_nodes":"7","size_leaf_vector":"0"}},{"base_weights":[1.3770671E3,7.514265E2,1.4210221E3,6.3483044E2,1.4799908E3,1.4631411E3,9.845756E2,5.547911E2,9.607494E2,9.860133E2,4.276511E3,1.5887043E3,1.3824688E3,1.1802891E3,8.2842735E1,7.5380676E2,3.86418E2,1.528389E2,1.8182808E3,6.291259E2,1.1706777E3,1.6565594E3,1.3839885E3,1.2450157E3,1.612665E3,8.8186145E2,1.9653577E3,3.2494858E2,-7.322703E2,6.377048E2,1.2494495E3,2.9398285E2,5.990742E2,3.6516568E2,-1.4055824E2,1.3249733E3,1.6950149E3,1.1391454E3,1.9124978E3,9.549815E2,1.3235127E3,1.7545138E3,7.8434827E2,1.1239026E3,-5.270995E2,2.7823657E3,1.4799548E3,4.9929523E2,-2.1566669E2,-2.8525806E2,-1.2172212E3],"categories":[],"categories_nodes":[],"categories_segments":[],"categories_sizes":[],"default_left":[true,true,true,true,true,true,true,true,true,true,false,true,true,true,true,true,true,true,false,false,false,true,true,true,true,true,true,true,true,false,false,false,false,false,false,false,false,false,false,false,false,false,false,false,false,false,false,false,false,false,false],"id":15,"left_children":[1,3,5,7,9,11,13,15,17,19,-1,21,23,25,27,29,31,33,-1,-1,-1,35,37,39,41,43,45,47,49,-1,-1,-1,-1,-1,-1,-1,-1,-1,-1,-1,-1,-1,-1,-1,-1,-1,-1,-1,-1,-1,-1],"loss_changes":[6.713805E7,1.3055696E7,4.1127424E7,3.208256E6,2.612188E7,1.9157504E7,3.6421184E7,3.651364E6,1.8408218E7,5.63586E5,0E0,9.053696E6,3.887565E7,3.8066976E7,7.732935E6,2.234242E6,1.112308E6,9.880143E5,0E0,0E0,0E0,5.502208E6,2.496528E7,1.724544E7,5.499635E7,4.322669E7,1.4082192E7,2.9381518E6,1.588764E6,0E0,0E0,0E0,0E0,0E0,0E0,0E0,0E0,0E0,0E0,0E0,0E0,0E0,0E0,0E0,0E0,0E0,0E0,0E0,0E0,0E0,0E0],"parents":[2147483647,0,0,1,1,2,2,3,3,4,4,5,5,6,6,7,7,8,8,9,9,11,11,12,12,13,13,14,14,15,15,16,16,17,17,21,21,22,22,23,23,24,24,25,25,26,26,27,27,28,28],"right_children":[2,4,6,8,10,12,14,16,18,20,-1,22,24,26,28,30,32,34,-1,-1,-1,36,38,40,42,44,46,48,50,-1,-1,-1,-1,-1,-1,-1,-1,-1,-1,-1,-1,-1,-1,-1,-1,-1,-1,-1,-1,-1,-1],"split_conditions":[2.5E0,5E-1,2.85E1,5E-1,5E-1,1.25E1,5E-1,1.5E0,1.5E0,1.5E0,4.2765112E2,5E-1,2.25E1,5E-1,5E-1,5E-1,5E-1,5E-1,1.8182808E2,6.2912594E1,1.1706777E2,3.5E0,9.5E0,1.45E1,5E-1,5E-1,2.95E1,3.05E1,3.05E1,6.3770477E1,1.2494495E2,2.9398285E1,5.990742E1,3.6516567E1,-1.4055824E1,1.3249733E2,1.695015E2,1.1391454E2,1.9124979E2,9.549815E1,1.3235127E2,1.7545139E2,7.843483E1,1.1239026E2,-5.270995E1,2.7823657E2,1.4799548E2,4.9929523E1,-2.156667E1,-2.8525806E1,-1.2172212E2],"split_indices":[1,6,1,11,13,1,11,1,1,1,0,13,1,13,13,13,13,13,0,0,0,1,1,1,11,6,1,1,1,0,0,0,0,0,0,0,0,0,0,0,0,0,0,0,0,0,0,0,0,0,0],"split_type":[0,0,0,0,0,0,0,0,0,0,0,0,0,0,0,0,0,0,0,0,0,0,0,0,0,0,0,0,0,0,0,0,0,0,0,0,0,0,0,0,0,0,0,0,0,0,0,0,0,0,0],"sum_hessian":[2.48E3,1.64E2,2.316E3,1.43E2,2.1E1,2.11E3,2.06E2,1.17E2,2.6E1,1.9E1,2E0,8.18E2,1.292E3,1.69E2,3.7E1,5.2E1,6.5E1,1.4E1,1.2E1,8E0,1.1E1,6.09E2,2.09E2,8.13E2,4.79E2,1.24E2,4.5E1,2.9E1,8E0,4.4E1,8E0,4.7E1,1.8E1,8E0,6E0,6.7E1,5.42E2,1.45E2,6.4E1,1.76E2,6.37E2,4.08E2,7.1E1,1.06E2,1.8E1,1.5E1,3E1,2.2E1,7E0,5E0,3E0],"tree_param":{"num_deleted":"0","num_feature":"16","num_nodes":"51","size_leaf_vector":"0"}},{"base_weights":[1.2403915E3,1.1998606E3,1.2828574E3,1.2191625E3,1.1402772E3,1.2197047E3,1.4635215E3,1.182979E3,1.2883226E3],"categories":[],"categories_nodes":[],"categories_segments":[],"categories_sizes":[],"default_left":[true,true,true,false,false,true,false,false,false],"id":16,"left_children":[1,3,5,-1,-1,7,-1,-1,-1],"loss_changes":[2.706176E6,6.4128E4,1.184512E7,0E0,0E0,7.01696E5,0E0,0E0,0E0],"parents":[2147483647,0,0,1,1,2,2,5,5],"right_children":[2,4,6,-1,-1,8,-1,-1,-1],"split_conditions":[5E-1,5E-1,5E-1,1.2191625E2,1.14027725E2,5E-1,1.4635216E2,1.18297905E2,1.2883226E2],"split_indices":[4,15,15,0,0,12,0,0,0],"split_type":[0,0,0,0,0,0,0,0,0],"sum_hessian":[2.48E3,1.284E3,1.196E3,9.55E2,3.29E2,8.92E2,3.04E2,5.93E2,2.99E2],"tree_param":{"num_deleted":"0","num_feature":"16","num_nodes":"9","size_leaf_vector":"0"}},{"base_weights":[1.1166078E3,1.194966E3,6.500868E2,2.0139085E2,1.2272413E3,1.1638385E3,2.8831635E2,3.2098096E2,6.4523155E1,1.2567635E3,9.046919E2,1.4370763E2,1.5274293E3,-6.238168E1,6.744536E2,-1.372319E1,2.400891E3,5.053112E2,-1.6434484E3,1.1963378E3,1.4679672E3,9.885591E2,5.7384375E2,2.5534204E3,-4.445169E2,1.3272516E3,3.189262E3,1.8606355E2,-8.9170294E2,2.1569588E2,1.6565969E3,1.3586346E3,1.043759E3,1.7124316E3,1.2269094E3,1.2546306E3,7.9380444E2,-5.013864E2,1.2973151E3,3.9835405E3,1.2491492E2,-1.9459337E3,1.0824597E3,1.1310629E3,1.9259161E3,3.733926E3,-1.1236895E3,-2.163989E3,2.3866869E2,3.6277783E3,-1.2179933E3,7.7992206E0,9.76797E2,7.437455E2,2.1666206E3],"categories":[],"categories_nodes":[],"categories_segments":[],"categories_sizes":[],"default_left":[true,true,true,true,true,true,true,true,true,true,true,true,true,true,true,false,false,false,false,true,true,true,true,true,true,true,true,true,true,true,true,false,false,false,false,false,false,false,false,false,false,false,false,false,false,false,false,false,false,false,false,false,false,false,false],"id":17,"left_children":[1,3,5,7,9,11,13,15,17,19,21,23,25,27,29,-1,-1,-1,-1,31,33,35,37,39,41,43,45,47,49,51,53,-1,-1,-1,-1,-1,-1,-1,-1,-1,-1,-1,-1,-1,-1,-1,-1,-1,-1,-1,-1,-1,-1,-1,-1],"loss_changes":[8.989952E7,6.781875E7,6.637373E7,1.0884595E6,1.8419456E7,5.465851E7,2.875672E7,2.5118384E7,2.5663234E7,2.2222848E7,4.30064E6,5.7854212E7,3.1982E7,2.324955E7,4.5131104E7,0E0,0E0,0E0,0E0,3.490995E7,2.2266624E7,6.186368E6,3.0218544E7,2.7245748E7,7.777176E7,9.418768E6,3.0062096E7,1.1252583E7,4.273576E7,1.1058662E7,1.3257912E7,0E0,0E0,0E0,0E0,0E0,0E0,0E0,0E0,0E0,0E0,0E0,0E0,0E0,0E0,0E0,0E0,0E0,0E0,0E0,0E0,0E0,0E0,0E0,0E0],"parents":[2147483647,0,0,1,1,2,2,3,3,4,4,5,5,6,6,7,7,8,8,9,9,10,10,11,11,12,12,13,13,14,14,19,19,20,20,21,21,22,22,23,23,24,24,25,25,26,26,27,27,28,28,29,29,30,30],"right_children":[2,4,6,8,10,12,14,16,18,20,22,24,26,28,30,-1,-1,-1,-1,32,34,36,38,40,42,44,46,48,50,52,54,-1,-1,-1,-1,-1,-1,-1,-1,-1,-1,-1,-1,-1,-1,-1,-1,-1,-1,-1,-1,-1,-1,-1,-1],"split_conditions":[2.0205E3,1.5E0,1.15E1,5E-1,2.85E1,2.5E0,5E-1,5E-1,5E-1,2.25E1,3.05E1,1.5E0,5E-1,5E-1,5E-1,-1.3723191E0,2.4008911E2,5.053112E1,-1.6434483E2,5E-1,2.55E1,5E-1,5E-1,5E-1,5E-1,9.5E0,1.05E1,1.25E1,1.25E1,2.75E1,1.55E1,1.3586346E2,1.0437591E2,1.7124316E2,1.2269094E2,1.25463066E2,7.938045E1,-5.013864E1,1.297315E2,3.9835406E2,1.2491492E1,-1.9459337E2,1.0824597E2,1.13106285E2,1.9259161E2,3.733926E2,-1.1236895E2,-2.1639891E2,2.3866869E1,3.6277783E2,-1.2179933E2,7.7992207E-1,9.76797E1,7.437455E1,2.1666206E2],"split_indices":[3,1,1,5,1,1,5,7,7,1,1,1,7,7,7,0,0,0,0,5,1,5,5,5,5,1,1,1,1,1,1,0,0,0,0,0,0,0,0,0,0,0,0,0,0,0,0,0,0,0,0,0,0,0,0],"split_type":[0,0,0,0,0,0,0,0,0,0,0,0,0,0,0,0,0,0,0,0,0,0,0,0,0,0,0,0,0,0,0,0,0,0,0,0,0,0,0,0,0,0,0,0,0,0,0,0,0,0,0,0,0,0,0],"sum_hessian":[2.48E3,2.122E3,3.58E2,6.7E1,2.055E3,1.47E2,2.11E2,3.5E1,3.2E1,1.88E3,1.75E2,3.9E1,1.08E2,1.11E2,1E2,3.1E1,4E0,2.6E1,6E0,1.467E3,4.13E2,1.38E2,3.7E1,7E0,3.2E1,9.8E1,1E1,8.6E1,2.5E1,6.9E1,3.1E1,7.07E2,7.6E2,2.02E2,2.11E2,5.6E1,8.2E1,1.5E1,2.2E1,4E0,3E0,1.6E1,1.6E1,7.6E1,2.2E1,9E0,1E0,1E0,8.5E1,1E0,2.4E1,5.5E1,1.4E1,1.2E1,1.9E1],"tree_param":{"num_deleted":"0","num_feature":"16","num_nodes":"55","size_leaf_vector":"0"}},{"base_weights":[1.0058683E3,1.8090415E3,9.9095624E2,2.5599321E3,6.857678E2,-1.6309016E3,9.9809937E2,3.610352E3,1.2310237E3,-1.3588499E3,2.2972034E3,2.0425723E3,-2.5852427E3,4.179969E3,9.937563E2,2.4332527E3,5.24048E3,2.8626885E3,-1.1480333E3,-6.614429E1,-2.9556958E3,2.9472197E3,9.2573975E2,-2.8368015E3,-6.587239E2,9.88454E2,3.3656826E3,3.158743E3,-3.0913882E2,1.6638827E3,3.6430234E3,-3.5389612E2,-1.8208717E3,-1.1547332E3,3.805201E2,-5.534479E2,3.426245E3,9.9741797E2,-6.2644763E2,4.1158955E3,1.7741553E2],"categories":[],"categories_nodes":[],"categories_segments":[],"categories_sizes":[],"default_left":[true,true,true,true,true,true,true,true,true,true,true,false,true,false,true,true,false,true,true,true,false,false,true,false,false,true,true,false,false,false,false,false,false,false,false,false,false,false,false,false,false],"id":18,"left_children":[1,3,5,7,9,11,13,15,17,19,21,-1,23,-1,25,27,-1,29,31,33,-1,-1,35,-1,-1,37,39,-1,-1,-1,-1,-1,-1,-1,-1,-1,-1,-1,-1,-1,-1],"loss_changes":[2.789376E7,3.532408E7,4.7280896E7,3.1800864E7,6.573156E7,2.98262E7,2.9402624E7,1.4035376E7,5.376731E7,1.8352544E7,7.039128E6,0E0,1.004176E6,0E0,2.719104E7,2.0900772E7,0E0,1.369128E6,2.5398095E6,3.3645445E6,0E0,0E0,2.041856E7,0E0,0E0,3.574707E7,1.1186232E7,0E0,0E0,0E0,0E0,0E0,0E0,0E0,0E0,0E0,0E0,0E0,0E0,0E0,0E0],"parents":[2147483647,0,0,1,1,2,2,3,3,4,4,5,5,6,6,7,7,8,8,9,9,10,10,12,12,14,14,15,15,17,17,18,18,19,19,22,22,25,25,26,26],"right_children":[2,4,6,8,10,12,14,16,18,20,22,-1,24,-1,26,28,-1,30,32,34,-1,-1,36,-1,-1,38,40,-1,-1,-1,-1,-1,-1,-1,-1,-1,-1,-1,-1,-1,-1],"split_conditions":[4.74E0,5E-1,5.12E0,5.5E0,3.5E0,1.5E0,5.24E0,4.38E0,4.085E0,5E-1,5E-1,2.0425723E2,4.99E0,4.1799692E2,1.03345E2,4.225E0,5.2404803E2,1E1,4.61E0,3.7399998E0,-2.9556958E2,2.94722E2,4.025E0,-2.8368015E2,-6.587239E1,1.02655E2,8.5E0,3.158743E2,-3.0913883E1,1.6638828E2,3.6430234E2,-3.5389614E1,-1.8208717E2,-1.1547332E2,3.8052013E1,-5.5344788E1,3.426245E2,9.97418E1,-6.2644764E1,4.1158957E2,1.7741552E1],"split_indices":[0,4,0,2,2,2,0,0,0,15,15,0,0,0,0,0,0,2,0,0,0,0,0,0,0,0,2,0,0,0,0,0,0,0,0,0,0,0,0,0,0],"split_type":[0,0,0,0,0,0,0,0,0,0,0,0,0,0,0,0,0,0,0,0,0,0,0,0,0,0,0,0,0,0,0,0,0,0,0,0,0,0,0,0,0],"sum_hessian":[2.48E3,4.3E1,2.437E3,2.5E1,1.8E1,6E0,2.431E3,1.3E1,1.2E1,8E0,1E1,1E0,5E0,2E0,2.429E3,9E0,4E0,7E0,5E0,5E0,3E0,6E0,4E0,4E0,1E0,2.425E3,4E0,7E0,2E0,4E0,3E0,3E0,2E0,1E0,4E0,3E0,1E0,2.412E3,1.3E1,3E0,1E0],"tree_param":{"num_deleted":"0","num_feature":"16","num_nodes":"41","size_leaf_vector":"0"}},{"base_weights":[9.061168E2,8.4346405E2,9.872669E2,7.979137E2,9.8187134E2,1.3518832E3,7.9946136E2,7.2390234E2,9.28128E2,1.2651406E3,7.0740186E2,1.241204E3,1.7115172E3,5.6326575E2,1.0650563E3,8.726852E2,6.586948E2,6.835015E2,1.154333E3,8.606138E2,1.5978654E3,8.850964E2,1.9686183E2,1.0890222E3,1.5752574E3,2.2688467E3,1.2136904E3,5.0925793E2,6.0291846E2,1.1983401E3,7.170227E2,7.811023E2,9.627526E2,5.0768076E2,7.6883734E2,9.694432E1,9.7591766E2,1.3027035E3,8.5356104E2,7.423202E2,1.0449836E3,1.7783883E3,9.8638947E2,1.1037219E3,7.016453E2,1.7119363E2,2.3526938E2,1.3170348E3,8.4514185E2,1.7576384E3,1.2728495E3,9.590267E2,1.4707175E3,2.626679E2,1.3989976E3,3.372834E2,1.2024062E3,1.4059299E3,7.810825E2,7.661423E1,1.2678336E3],"categories":[],"categories_nodes":[],"categories_segments":[],"categories_sizes":[],"default_left":[true,true,true,true,true,true,true,true,true,true,true,true,true,true,true,true,true,true,true,true,true,true,true,true,true,false,true,true,true,true,true,false,false,false,false,false,false,false,false,false,false,false,false,false,false,false,false,false,false,false,false,false,false,false,false,false,false,false,false,false,false],"id":19,"left_children":[1,3,5,7,9,11,13,15,17,19,21,23,25,27,29,31,33,35,37,39,41,43,45,47,49,-1,51,53,55,57,59,-1,-1,-1,-1,-1,-1,-1,-1,-1,-1,-1,-1,-1,-1,-1,-1,-1,-1,-1,-1,-1,-1,-1,-1,-1,-1,-1,-1,-1,-1],"loss_changes":[1.1763072E7,8.069184E6,7.25104E7,9.56576E6,2.5830912E7,1.2334784E7,4.404925E7,6.036128E6,2.033088E7,2.1212384E7,1.58724E7,1.2593856E7,2.0240128E7,4.93488E5,1.4614944E7,9.2152E5,7.564144E6,3.179716E7,7.65776E6,9.07576E5,8.263248E6,4.461552E6,1.993875E3,9.820032E6,2.47568E6,0E0,1.5762E6,3.6255868E7,3.3498232E7,1.9668384E7,3.34001E7,0E0,0E0,0E0,0E0,0E0,0E0,0E0,0E0,0E0,0E0,0E0,0E0,0E0,0E0,0E0,0E0,0E0,0E0,0E0,0E0,0E0,0E0,0E0,0E0,0E0,0E0,0E0,0E0,0E0,0E0],"parents":[2147483647,0,0,1,1,2,2,3,3,4,4,5,5,6,6,7,7,8,8,9,9,10,10,11,11,12,12,13,13,14,14,15,15,16,16,17,17,18,18,19,19,20,20,21,21,22,22,23,23,24,24,26,26,27,27,28,28,29,29,30,30],"right_children":[2,4,6,8,10,12,14,16,18,20,22,24,26,28,30,32,34,36,38,40,42,44,46,48,50,-1,52,54,56,58,60,-1,-1,-1,-1,-1,-1,-1,-1,-1,-1,-1,-1,-1,-1,-1,-1,-1,-1,-1,-1,-1,-1,-1,-1,-1,-1,-1,-1,-1,-1],"split_conditions":[6.5E0,5E-1,8.5E0,5E-1,5E-1,5E-1,1.05E1,1.5E0,5E-1,2.5E0,4.5E0,5E-1,5E-1,9.5E0,5E-1,5E-1,3.5E0,1.5E0,3.5E0,1.5E0,5.5E0,1.5E0,5.5E0,7.5E0,5E-1,2.2688467E2,7.5E0,5E-1,5E-1,5E-1,5E-1,7.811023E1,9.627526E1,5.0768078E1,7.6883736E1,9.694432E0,9.759177E1,1.3027036E2,8.53561E1,7.423202E1,1.0449837E2,1.7783884E2,9.863895E1,1.1037219E2,7.0164536E1,1.7119364E1,2.3526937E1,1.3170348E2,8.451418E1,1.7576384E2,1.2728495E2,9.590267E1,1.4707176E2,2.626679E1,1.3989977E2,3.372834E1,1.2024062E2,1.40593E2,7.810825E1,7.6614227E0,1.2678336E2],"split_indices":[2,15,2,13,5,13,2,2,5,2,2,15,5,2,15,5,2,2,2,2,2,2,2,2,5,0,2,13,15,13,5,0,0,0,0,0,0,0,0,0,0,0,0,0,0,0,0,0,0,0,0,0,0,0,0,0,0,0,0,0,0],"split_type":[0,0,0,0,0,0,0,0,0,0,0,0,0,0,0,0,0,0,0,0,0,0,0,0,0,0,0,0,0,0,0,0,0,0,0,0,0,0,0,0,0,0,0,0,0,0,0,0,0,0,0,0,0,0,0,0,0,0,0,0,0],"sum_hessian":[2.48E3,1.406E3,1.074E3,1.063E3,3.43E2,3.63E2,7.11E2,6.82E2,3.81E2,1.67E2,1.76E2,2.81E2,8.2E1,3.78E2,3.33E2,2.04E2,4.78E2,1.85E2,1.96E2,7.7E1,9E1,1.3E2,4.6E1,1.96E2,8.5E1,3.7E1,4.5E1,1.66E2,2.12E2,2.39E2,9.4E1,1.06E2,9.8E1,2.04E2,2.74E2,6.2E1,1.23E2,1.29E2,6.7E1,5E1,2.7E1,6.8E1,2.2E1,5.7E1,7.3E1,3.1E1,1.5E1,9.9E1,9.7E1,5E1,3.5E1,2.5E1,2E1,1.31E2,3.5E1,1.48E2,6.4E1,1.58E2,8.1E1,4.4E1,5E1],"tree_param":{"num_deleted":"0","num_feature":"16","num_nodes":"61","size_leaf_vector":"0"}},{"base_weights":[8.167118E2,1.5727876E3,8.0272736E2,-1.8261749E3,1.694535E3,-1.5616852E3,8.0920685E2,1.481491E3,4.037959E3,-2.686221E3,8.2976935E2,3.8257942E3,8.0514557E2,1.6912208E3,-1.7354938E3,1.8923059E3,-6.4265186E2,7.806266E2,1.2399276E3,2.744715E3,1.2329567E3,7.9498865E2,-1.8096879E3,9.116615E2,2.4337505E3],"categories":[],"categories_nodes":[],"categories_segments":[],"categories_sizes":[],"default_left":[true,true,true,false,true,true,true,true,false,false,true,false,true,true,false,false,false,true,true,false,false,false,false,false,false],"id":20,"left_children":[1,3,5,-1,7,9,11,13,-1,-1,15,-1,17,19,-1,-1,-1,21,23,-1,-1,-1,-1,-1,-1],"loss_changes":[2.4946048E7,2.1301056E7,3.8606976E7,0E0,1.5430464E7,2.107244E7,2.6668416E7,3.0597264E7,0E0,0E0,5.922095E6,0E0,2.4916864E7,1.540448E7,0E0,0E0,0E0,8.710515E7,4.7909904E7,0E0,0E0,0E0,0E0,0E0,0E0],"parents":[2147483647,0,0,1,1,2,2,4,4,5,5,6,6,7,7,10,10,12,12,13,13,17,17,18,18],"right_children":[2,4,6,-1,8,10,12,14,-1,-1,16,-1,18,20,-1,-1,-1,22,24,-1,-1,-1,-1,-1,-1],"split_conditions":[4.74E0,3.2849998E0,5.12E0,-1.826175E2,4.6499996E0,5E-1,5.24E0,4.61E0,4.037959E2,-2.686221E2,4.905E0,3.8257944E2,9.7935E1,3.5949998E0,-1.7354938E2,1.8923059E2,-6.426519E1,9.754E1,5E-1,2.7447153E2,1.2329567E2,7.949886E1,-1.809688E2,9.116615E1,2.4337505E2],"split_indices":[0,0,0,0,0,7,0,0,0,0,0,0,0,0,0,0,0,0,7,0,0,0,0,0,0],"split_type":[0,0,0,0,0,0,0,0,0,0,0,0,0,0,0,0,0,0,0,0,0,0,0,0,0],"sum_hessian":[2.48E3,4.3E1,2.437E3,1E0,4.2E1,6E0,2.431E3,4E1,2E0,4E0,2E0,2E0,2.429E3,3.8E1,2E0,1E0,1E0,2.302E3,1.27E2,1E1,2.8E1,2.29E3,1.2E1,1.01E2,2.6E1],"tree_param":{"num_deleted":"0","num_feature":"16","num_nodes":"25","size_leaf_vector":"0"}},{"base_weights":[7.354111E2,8.050745E2,3.2136942E2,1.5998123E3,7.917558E2,1.5524731E3,1.7076376E2,1.3461666E3,3.7687617E3,-1.4260391E3,7.988301E2,1.106999E3,5.1711226E3,-7.810499E1,1.191339E3,1.5982239E3,-1.6197943E3,-2.4713232E3,7.8811426E2,3.570741E3,7.9444745E2,1.5087894E3,-4.866159E2,3.225803E1,-1.2123628E3,7.537184E2,2.9875835E3,1.2124131E3,3.8003901E3,1.7976907E3,-6.105193E2,7.664599E2,1.10268E3,9.113816E2,3.645289E3,6.422059E2,-2.5853875E3,-9.800633E1,1.967371E3,-2.2539702E3,-6.8891884E1,1.7225781E3,-2.810098E2,3.4868096E3,1.1149291E3],"categories":[],"categories_nodes":[],"categories_segments":[],"categories_sizes":[],"default_left":[true,true,true,true,true,true,true,true,false,true,true,true,false,true,true,true,false,false,true,false,true,true,true,true,true,true,true,false,false,false,false,false,false,false,false,false,false,false,false,false,false,false,false,false,false],"id":21,"left_children":[1,3,5,7,9,11,13,15,-1,17,19,21,-1,23,25,27,-1,-1,29,-1,31,33,35,37,39,41,43,-1,-1,-1,-1,-1,-1,-1,-1,-1,-1,-1,-1,-1,-1,-1,-1,-1,-1],"loss_changes":[7.129088E7,2.1181056E7,6.628027E7,1.3580392E7,3.3923584E7,5.708137E7,8.163474E7,2.6511516E7,0E0,1.8165452E7,2.243648E7,2.3795192E7,0E0,3.247256E7,4.7233424E7,2.0830808E7,0E0,0E0,5.345479E6,0E0,1.7096832E7,3.3646668E7,2.0632896E7,5.9953584E7,2.7215588E7,5.2628816E7,7.284968E6,0E0,0E0,0E0,0E0,0E0,0E0,0E0,0E0,0E0,0E0,0E0,0E0,0E0,0E0,0E0,0E0,0E0,0E0],"parents":[2147483647,0,0,1,1,2,2,3,3,4,4,5,5,6,6,7,7,9,9,10,10,11,11,13,13,14,14,15,15,18,18,20,20,21,21,22,22,23,23,24,24,25,25,26,26],"right_children":[2,4,6,8,10,12,14,16,-1,18,20,22,-1,24,26,28,-1,-1,30,-1,32,34,36,38,40,42,44,-1,-1,-1,-1,-1,-1,-1,-1,-1,-1,-1,-1,-1,-1,-1,-1,-1,-1],"split_conditions":[2.0205E3,4.74E0,1.242E1,4.6499996E0,5.12E0,1.1809999E1,8.647E1,4.61E0,3.768762E2,5E-1,5.24E0,1.01E1,5.1711224E2,7.9545E1,5E-1,4.51E0,-1.6197943E2,-2.4713232E2,4.905E0,3.570741E2,9.576E1,8.389999E0,5E-1,7.478E1,8.344E1,9.3740005E1,5E-1,1.2124131E2,3.8003903E2,1.7976907E2,-6.105193E1,7.664599E1,1.10268005E2,9.113816E1,3.645289E2,6.422059E1,-2.5853876E2,-9.800633E0,1.967371E2,-2.2539702E2,-6.8891883E0,1.7225781E2,-2.810098E1,3.4868097E2,1.1149291E2],"split_indices":[3,0,0,0,0,0,0,0,0,7,0,0,0,0,7,0,0,0,0,0,0,0,7,0,0,0,4,0,0,0,0,0,0,0,0,0,0,0,0,0,0,0,0,0,0],"split_type":[0,0,0,0,0,0,0,0,0,0,0,0,0,0,0,0,0,0,0,0,0,0,0,0,0,0,0,0,0,0,0,0,0,0,0,0,0,0,0,0,0,0,0,0,0],"sum_hessian":[2.48E3,2.122E3,3.58E2,3.3E1,2.089E3,3.8E1,3.2E2,3.1E1,2E0,6E0,2.083E3,3.5E1,3E0,2.58E2,6.2E1,2.9E1,2E0,4E0,2E0,2E0,2.081E3,2.8E1,7E0,2.36E2,2.2E1,5.1E1,1.1E1,2.6E1,3E0,1E0,1E0,1.911E3,1.7E2,2.3E1,5E0,5E0,2E0,2.22E2,1.4E1,1.1E1,1.1E1,2.6E1,2.5E1,8E0,3E0],"tree_param":{"num_deleted":"0","num_feature":"16","num_nodes":"45","size_leaf_vector":"0"}},{"base_weights":[6.628676E2,7.03892E2,5.599377E2,6.1130975E2,1.0597971E3,3.4814966E2,7.985536E2,6.412696E2,5.25581E2,1.1371439E3,7.4645856E2,3.2746857E2,4.5679025E2,8.431526E2,7.441009E2,6.9865137E2,3.9578223E2,3.5336942E2,1.3590029E3,1.2131564E3,1.0620736E3,9.668775E1,1.6652723E3,2.3266342E2,4.4444382E2,9.6532947E2,-3.034457E2,8.053735E2,1.0590148E3,7.5752435E2,6.5565656E2,3.9931404E1,1.2814119E3,-3.487291E1,7.270603E2,2.3137114E3,3.6151312E2,9.7503906E2,1.454388E3,1.3011073E3,8.3046155E2,6.761144E2,-6.6090125E2,2.1303242E3,9.47686E2,-1.730865E2,5.6649E2,1.00436804E3,7.2373436E1,4.5986575E2,1.4728872E3,-1.2985237E2,-4.3957452E2],"categories":[],"categories_nodes":[],"categories_segments":[],"categories_sizes":[],"default_left":[true,true,true,true,true,true,true,true,true,true,true,true,true,true,false,true,true,true,true,true,true,true,true,true,true,true,true,false,false,false,false,false,false,false,false,false,false,false,false,false,false,false,false,false,false,false,false,false,false,false,false,false,false],"id":22,"left_children":[1,3,5,7,9,11,13,15,17,19,21,23,25,27,-1,29,31,33,35,37,39,41,43,45,47,49,51,-1,-1,-1,-1,-1,-1,-1,-1,-1,-1,-1,-1,-1,-1,-1,-1,-1,-1,-1,-1,-1,-1,-1,-1,-1,-1],"loss_changes":[1.0069632E7,5.765779E7,3.5692144E7,3.265024E6,7.954144E6,6.94112E5,1.67888E5,1.4334336E7,5.2606864E7,3.43616E5,4.4597744E7,3.460756E6,2.2722912E7,5.63736E5,0E0,1.615424E6,6.265087E7,4.471772E7,5.913245E7,6.427104E6,7.42408E6,2.0200522E7,8.295496E6,2.4483008E7,2.9707906E7,8.282662E6,5.0437125E5,0E0,0E0,0E0,0E0,0E0,0E0,0E0,0E0,0E0,0E0,0E0,0E0,0E0,0E0,0E0,0E0,0E0,0E0,0E0,0E0,0E0,0E0,0E0,0E0,0E0,0E0],"parents":[2147483647,0,0,1,1,2,2,3,3,4,4,5,5,6,6,7,7,8,8,9,9,10,10,11,11,12,12,13,13,15,15,16,16,17,17,18,18,19,19,20,20,21,21,22,22,23,23,24,24,25,25,26,26],"right_children":[2,4,6,8,10,12,14,16,18,20,22,24,26,28,-1,30,32,34,36,38,40,42,44,46,48,50,52,-1,-1,-1,-1,-1,-1,-1,-1,-1,-1,-1,-1,-1,-1,-1,-1,-1,-1,-1,-1,-1,-1,-1,-1,-1,-1],"split_conditions":[8.5E0,6.5E0,1.05E1,4.5E0,5E-1,5E-1,5E-1,5E-1,5E-1,5E-1,5E-1,5E-1,5E-1,5E-1,7.441009E1,1.5E0,2.5E0,5E-1,5E-1,7.5E0,7.5E0,7.5E0,7.5E0,9.5E0,9.5E0,9.5E0,9.5E0,8.0537346E1,1.0590148E2,7.575243E1,6.556566E1,3.9931405E0,1.2814119E2,-3.487291E0,7.270603E1,2.3137114E2,3.6151314E1,9.750391E1,1.454388E2,1.3011073E2,8.304616E1,6.761144E1,-6.6090126E1,2.1303242E2,9.47686E1,-1.7308651E1,5.6649E1,1.00436806E2,7.237344E0,4.5986576E1,1.4728873E2,-1.2985237E1,-4.3957455E1],"split_indices":[2,2,2,2,8,8,4,8,8,4,4,4,4,8,0,2,2,4,4,2,2,2,2,2,2,2,2,0,0,0,0,0,0,0,0,0,0,0,0,0,0,0,0,0,0,0,0,0,0,0,0,0,0],"split_type":[0,0,0,0,0,0,0,0,0,0,0,0,0,0,0,0,0,0,0,0,0,0,0,0,0,0,0,0,0,0,0,0,0,0,0,0,0,0,0,0,0,0,0,0,0,0,0,0,0,0,0,0,0],"sum_hessian":[2.48E3,1.769E3,7.11E2,1.406E3,3.63E2,3.78E2,3.33E2,1.037E3,3.69E2,2.89E2,7.4E1,3.21E2,5.7E1,1.75E2,1.58E2,8.39E2,1.98E2,3.07E2,6.2E1,1.36E2,1.53E2,4.4E1,3E1,1.79E2,1.42E2,3.4E1,2.3E1,1.53E2,2.2E1,3.47E2,4.92E2,1.42E2,5.6E1,1.51E2,1.56E2,3.1E1,3.1E1,7.1E1,6.5E1,7.3E1,8E1,2.5E1,1.9E1,1.7E1,1.3E1,8.1E1,9.8E1,5.6E1,8.6E1,1.8E1,1.6E1,1.1E1,1.2E1],"tree_param":{"num_deleted":"0","num_feature":"16","num_nodes":"53","size_leaf_vector":"0"}},{"base_weights":[5.9736115E2,6.306336E2,4.1455676E2,6.8368896E2,4.9100262E2,-1.4263905E2,6.583797E2,6.1372845E2,9.5188965E2,1.057048E2,6.107665E2,2.8629558E0,-6.5798706E2,1.4734235E3,5.758106E2,5.776584E2,7.587252E2,1.2470188E3,6.562764E2,-1.16314575E2,1.2921858E3,4.7487518E2,9.766817E2,1.5634521E2,-1.2096623E2,1.25556465E2,-1.1561741E3,1.1777109E3,2.1626091E3,7.5474414E2,3.5333424E1,6.615607E2,4.2092496E2,6.402153E2,1.1052432E3,1.08597E3,1.731013E3,7.383966E2,3.9531183E2,-3.2272202E2,3.8210086E2,2.0593687E3,-4.3675022E1,5.7174603E2,2.573855E2,1.393278E2,1.5212137E3,-7.856647E2,-1.8121616E3,1.1415677E3,4.4611478E2,-1.00582996E3,1.0431688E3],"categories":[],"categories_nodes":[],"categories_segments":[],"categories_sizes":[],"default_left":[true,true,true,true,true,true,true,true,true,true,true,true,true,true,true,true,true,true,true,true,true,true,true,false,false,false,true,false,false,true,true,false,false,false,false,false,false,false,false,false,false,false,false,false,false,false,false,false,false,false,false,false,false],"id":23,"left_children":[1,3,5,7,9,11,13,15,17,19,21,23,25,27,29,31,33,35,37,39,41,43,45,-1,-1,-1,47,-1,-1,49,51,-1,-1,-1,-1,-1,-1,-1,-1,-1,-1,-1,-1,-1,-1,-1,-1,-1,-1,-1,-1,-1,-1],"loss_changes":[1.4818432E7,1.5187456E7,5.240406E7,2.7864256E7,2.6738384E7,8.856567E6,1.7166808E7,5.855776E6,2.638272E7,3.677769E7,2.1549728E7,1.7867855E6,1.0304601E7,2.310888E6,2.3659248E7,1.2466496E7,9.007552E6,1.0173744E7,3.082776E6,1.2262164E7,2.2656792E7,6.691776E6,5.403141E7,0E0,0E0,0E0,2.439062E6,0E0,0E0,2.144172E7,6.6107544E7,0E0,0E0,0E0,0E0,0E0,0E0,0E0,0E0,0E0,0E0,0E0,0E0,0E0,0E0,0E0,0E0,0E0,0E0,0E0,0E0,0E0,0E0],"parents":[2147483647,0,0,1,1,2,2,3,3,4,4,5,5,6,6,7,7,8,8,9,9,10,10,11,11,12,12,13,13,14,14,15,15,16,16,17,17,18,18,19,19,20,20,21,21,22,22,26,26,29,29,30,30],"right_children":[2,4,6,8,10,12,14,16,18,20,22,24,26,28,30,32,34,36,38,40,42,44,46,-1,-1,-1,48,-1,-1,50,52,-1,-1,-1,-1,-1,-1,-1,-1,-1,-1,-1,-1,-1,-1,-1,-1,-1,-1,-1,-1,-1,-1],"split_conditions":[5E-1,8.5E0,3.5E0,6.5E0,9.5E0,5E-1,4.5E0,5E-1,7.5E0,5E-1,5E-1,1.5E0,1.5E0,5E-1,5E-1,3.5E0,5E-1,5E-1,5E-1,5E-1,5E-1,1.15E1,1.05E1,1.56345215E1,-1.2096623E1,1.2555647E1,2.5E0,1.17771095E2,2.1626091E2,8.5E0,7.5E0,6.6156075E1,4.2092495E1,6.402153E1,1.10524315E2,1.08597E2,1.731013E2,7.383966E1,3.9531185E1,-3.22722E1,3.8210087E1,2.0593687E2,-4.367502E0,5.7174603E1,2.573855E1,1.393278E1,1.5212138E2,-7.856647E1,-1.8121617E2,1.1415678E2,4.4611477E1,-1.00583E2,1.0431689E2],"split_indices":[9,2,2,2,2,12,2,6,2,6,12,2,2,12,12,2,12,12,12,12,12,2,2,0,0,0,2,0,0,2,2,0,0,0,0,0,0,0,0,0,0,0,0,0,0,0,0,0,0,0,0,0,0],"split_type":[0,0,0,0,0,0,0,0,0,0,0,0,0,0,0,0,0,0,0,0,0,0,0,0,0,0,0,0,0,0,0,0,0,0,0,0,0,0,0,0,0,0,0,0,0,0,0,0,0,0,0,0,0],"sum_hessian":[2.48E3,2.096E3,3.84E2,1.516E3,5.8E2,1.17E2,2.67E2,1.205E3,3.11E2,1.38E2,4.42E2,9.2E1,2.5E1,2.3E1,2.44E2,9.69E2,2.36E2,1.54E2,1.57E2,1.17E2,2.1E1,3.24E2,1.18E2,4.1E1,5.1E1,1E1,1.5E1,1.8E1,5E0,1.83E2,6.1E1,6.29E2,3.4E2,1.78E2,5.8E1,1.18E2,3.6E1,1.18E2,3.9E1,8.3E1,3.4E1,1.3E1,8E0,2.23E2,1.01E2,4.7E1,7.1E1,1.1E1,4E0,8E1,1.03E2,3E1,3.1E1],"tree_param":{"num_deleted":"0","num_feature":"16","num_nodes":"53","size_leaf_vector":"0"}},{"base_weights":[5.3818976E2,5.9925793E2,1.7552678E2,5.2782434E2,6.7612244E2,6.317666E1,1.02176044E3,6.624898E2,7.393452E2,2.5696472E2,-1.396479E2,1.3870438E3,6.895878E2],"categories":[],"categories_nodes":[],"categories_segments":[],"categories_sizes":[],"default_left":[true,true,true,false,true,true,true,false,false,false,false,false,false],"id":24,"left_children":[1,3,5,-1,7,9,11,-1,-1,-1,-1,-1,-1],"loss_changes":[5.483424E7,1.1287872E7,3.4056332E7,0E0,3.74464E5,1.2536042E7,4.118904E6,0E0,0E0,0E0,0E0,0E0,0E0],"parents":[2147483647,0,0,1,1,2,2,4,4,5,5,6,6],"right_children":[2,4,6,-1,8,10,12,-1,-1,-1,-1,-1,-1],"split_conditions":[2.0205E3,5E-1,5E-1,5.2782436E1,5E-1,5E-1,5E-1,6.6248985E1,7.3934525E1,2.5696472E1,-1.396479E1,1.3870439E2,6.8958786E1],"split_indices":[3,4,6,0,6,4,4,0,0,0,0,0,0],"split_type":[0,0,0,0,0,0,0,0,0,0,0,0,0],"sum_hessian":[2.48E3,2.122E3,3.58E2,1.104E3,1.018E3,3.17E2,4.1E1,8.47E2,1.71E2,1.62E2,1.55E2,1.8E1,2.3E1],"tree_param":{"num_deleted":"0","num_feature":"16","num_nodes":"13","size_leaf_vector":"0"}},{"base_weights":[4.8453867E2,5.394241E2,1.585881E2,4.9605917E2,6.7281134E2,3.4027405E2,-2.5957943E1,3.70862E2,6.3115485E2,5.897926E2,1.0557699E3,3.791227E2,1.2323537E2,1.3196155E2,-4.3622943E2,4.335908E2,2.9889402E1,6.108822E2,7.281426E2,6.414456E2,5.330697E2,1.4314828E3,5.406989E2,3.1968912E2,4.819789E2,3.8886893E2,-6.214113E2,-1.1810448E1,1.2356675E3,-3.5240933E2,-9.905086E2],"categories":[],"categories_nodes":[],"categories_segments":[],"categories_sizes":[],"default_left":[true,true,true,true,true,true,true,true,true,true,true,true,true,true,true,false,false,false,false,false,false,false,false,false,false,false,false,false,false,false,false],"id":25,"left_children":[1,3,5,7,9,11,13,15,17,19,21,23,25,27,29,-1,-1,-1,-1,-1,-1,-1,-1,-1,-1,-1,-1,-1,-1,-1,-1],"loss_changes":[4.4292416E7,1.1934656E7,1.2049037E7,2.6919136E7,1.5829504E7,1.474386E6,1.1657993E7,1.7863448E7,1.05776E6,9.0032E5,1.6816488E7,7.73206E5,5.9756135E6,2.0655492E7,1.960494E6,0E0,0E0,0E0,0E0,0E0,0E0,0E0,0E0,0E0,0E0,0E0,0E0,0E0,0E0,0E0,0E0],"parents":[2147483647,0,0,1,1,2,2,3,3,4,4,5,5,6,6,7,7,8,8,9,9,10,10,11,11,12,12,13,13,14,14],"right_children":[2,4,6,8,10,12,14,16,18,20,22,24,26,28,30,-1,-1,-1,-1,-1,-1,-1,-1,-1,-1,-1,-1,-1,-1,-1,-1],"split_conditions":[2.0205E3,5E-1,5E-1,5E-1,5E-1,5E-1,5E-1,5E-1,5E-1,5E-1,5E-1,5E-1,5E-1,5E-1,5E-1,4.335908E1,2.9889402E0,6.1088223E1,7.281426E1,6.414456E1,5.3306973E1,1.4314828E2,5.4069893E1,3.1968912E1,4.819789E1,3.8886894E1,-6.2141132E1,-1.1810448E0,1.2356675E2,-3.5240932E1,-9.9050865E1],"split_indices":[3,13,4,4,10,10,13,10,10,4,4,13,13,10,10,0,0,0,0,0,0,0,0,0,0,0,0,0,0,0,0],"split_type":[0,0,0,0,0,0,0,0,0,0,0,0,0,0,0,0,0,0,0,0,0,0,0,0,0,0,0,0,0,0,0],"sum_hessian":[2.48E3,2.122E3,3.58E2,1.605E3,5.17E2,1.8E2,1.78E2,8.35E2,7.7E2,4.27E2,9E1,1.52E2,2.8E1,1.29E2,4.9E1,7.05E2,1.3E2,6.43E2,1.27E2,2.18E2,2.09E2,5.1E1,3.9E1,9.9E1,5.3E1,2.1E1,7E0,1.15E2,1.4E1,4.4E1,5E0],"tree_param":{"num_deleted":"0","num_feature":"16","num_nodes":"31","size_leaf_vector":"0"}},{"base_weights":[4.3630527E2,-4.7643005E1,4.7058456E2,-1.5083208E2,7.5269574E2,5.0363568E2,1.3120538E2,-6.0331974E1,-4.2792038E2,6.1063574E2,4.3546347E2,-9.335362E1,1.0429163E3,-4.4892136E2,2.6012592E2,2.4559483E2,-7.7532776E2,6.674862E2,2.6716403E2,3.2518277E2,6.215531E2,-3.1039337E2,6.032574E2,-5.5424957E1,1.6790911E3,-6.424477E2,1.07715996E2,6.30622E2,-4.9277695E2,5.901144E2,7.799197E2,4.575378E2,1.0474329E2,2.5861642E2,6.2291644E2,4.886484E2,1.1766439E3,-1.108776E2,-9.581156E2,4.758492E2,1.0521588E3,2.6183765E3,6.8624817E2],"categories":[],"categories_nodes":[],"categories_segments":[],"categories_sizes":[],"default_left":[true,true,true,true,false,true,true,true,true,true,true,true,true,true,true,false,false,true,true,true,true,true,true,false,true,false,false,false,false,false,false,false,false,false,false,false,false,false,false,false,false,false,false],"id":26,"left_children":[1,3,5,7,-1,9,11,13,15,17,19,21,23,25,27,-1,-1,29,31,33,35,37,39,-1,41,-1,-1,-1,-1,-1,-1,-1,-1,-1,-1,-1,-1,-1,-1,-1,-1,-1,-1],"loss_changes":[4.118496E7,1.3734237E7,2.5917056E7,3.6555488E6,0E0,1.5122144E7,4.2486564E7,1.4065636E7,8.619144E6,1.5804544E7,2.6323472E7,2.5433428E7,2.8757516E7,5.568473E6,1.7606884E7,0E0,0E0,5.632896E6,3.595089E6,1.5962792E7,3.4819984E7,1.6424617E7,1.771799E6,0E0,2.2416728E7,0E0,0E0,0E0,0E0,0E0,0E0,0E0,0E0,0E0,0E0,0E0,0E0,0E0,0E0,0E0,0E0,0E0,0E0],"parents":[2147483647,0,0,1,1,2,2,3,3,5,5,6,6,7,7,8,8,9,9,10,10,11,11,12,12,13,13,14,14,17,17,18,18,19,19,20,20,21,21,22,22,24,24],"right_children":[2,4,6,8,-1,10,12,14,16,18,20,22,24,26,28,-1,-1,30,32,34,36,38,40,-1,42,-1,-1,-1,-1,-1,-1,-1,-1,-1,-1,-1,-1,-1,-1,-1,-1,-1,-1],"split_conditions":[2.5E0,5E-1,2.85E1,5E-1,7.526958E1,1.25E1,5E-1,1.5E0,1.5E0,5E-1,2.25E1,5E-1,2.95E1,5E-1,5E-1,2.4559484E1,-7.7532776E1,8.5E0,6.5E0,5E-1,5E-1,3.05E1,3.05E1,-5.5424957E0,3.05E1,-6.4244774E1,1.07716E1,6.3062202E1,-4.9277695E1,5.901144E1,7.799197E1,4.575378E1,1.047433E1,2.5861643E1,6.2291645E1,4.886484E1,1.1766439E2,-1.108776E1,-9.581156E1,4.7584923E1,1.0521588E2,2.6183765E2,6.862482E1],"split_indices":[1,10,1,8,0,1,8,1,1,10,1,7,1,7,7,0,0,1,1,7,10,1,1,0,1,0,0,0,0,0,0,0,0,0,0,0,0,0,0,0,0,0,0],"split_type":[0,0,0,0,0,0,0,0,0,0,0,0,0,0,0,0,0,0,0,0,0,0,0,0,0,0,0,0,0,0,0,0,0,0,0,0,0,0,0,0,0,0,0],"sum_hessian":[2.48E3,1.64E2,2.316E3,1.46E2,1.8E1,2.11E3,2.06E2,1.11E2,3.5E1,8.18E2,1.292E3,1.66E2,4E1,5E1,6.1E1,1.2E1,2.3E1,7.01E2,1.17E2,8.13E2,4.79E2,1.27E2,3.9E1,1.5E1,2.5E1,3.7E1,1.3E1,4.1E1,2E1,4.19E2,2.82E2,5.3E1,6.4E1,6.66E2,1.47E2,3.88E2,9.1E1,9.8E1,2.9E1,3.2E1,7E0,1.2E1,1.3E1],"tree_param":{"num_deleted":"0","num_feature":"16","num_nodes":"43","size_leaf_vector":"0"}},{"base_weights":[3.9300134E2,-4.2971962E1,4.238829E2,1.9627625E2,-7.2656635E2,4.534876E2,1.1987629E2,1.1364691E1,1.27374E3,-1.286127E3,3.7813196E3,5.498118E2,3.9211636E2,2.9171463E2,-6.517657E2,7.787921E1,-3.9668204E2,4.8065146E2,2.2037693E3,-2.0035961E3,-8.038003E2,6.009342E2,2.4093266E2,5.5619713E1,4.4507767E2,4.68197E2,-2.9330795E2,-4.1909625E2,-1.1838546E3,1.7940582E2,2.9270473E0,-5.7187415E2,-3.6914795E1,-6.3291125E2,-1.2377972E3,5.4670514E2,7.5395435E2,5.204501E2,-6.757466E2,2.6095218E2,-9.588745E2,5.0895187E2,2.3978915E2,6.5548645E2,-1.8386032E2,-9.1912134E2,1.1854492E2,-2.0591756E2,-7.812262E2,-1.9913579E3,1.814209E2],"categories":[],"categories_nodes":[],"categories_segments":[],"categories_sizes":[],"default_left":[true,true,true,true,true,true,true,true,true,true,false,true,true,true,true,true,true,false,false,false,true,true,true,true,true,true,true,true,true,false,false,false,false,false,false,false,false,false,false,false,false,false,false,false,false,false,false,false,false,false,false],"id":27,"left_children":[1,3,5,7,9,11,13,15,17,19,-1,21,23,25,27,29,31,-1,-1,-1,33,35,37,39,41,43,45,47,49,-1,-1,-1,-1,-1,-1,-1,-1,-1,-1,-1,-1,-1,-1,-1,-1,-1,-1,-1,-1,-1,-1],"loss_changes":[3.3425056E7,2.7133448E7,2.0792928E7,2.447864E7,1.13303016E8,1.225424E7,2.763425E7,2.9046548E6,1.2190634E7,1.185756E7,0E0,1.2779344E7,2.3013184E7,1.7690924E7,4.192252E6,6.977383E5,9.182275E5,0E0,0E0,0E0,1.05201E6,5.400096E6,3.0585024E7,3.7113864E7,1.4517296E7,1.6123408E7,1.0426684E7,1.990815E6,1.2506482E7,0E0,0E0,0E0,0E0,0E0,0E0,0E0,0E0,0E0,0E0,0E0,0E0,0E0,0E0,0E0,0E0,0E0,0E0,0E0,0E0,0E0,0E0],"parents":[2147483647,0,0,1,1,2,2,3,3,4,4,5,5,6,6,7,7,8,8,9,9,11,11,12,12,13,13,14,14,15,15,16,16,20,20,21,21,22,22,23,23,24,24,25,25,26,26,27,27,28,28],"right_children":[2,4,6,8,10,12,14,16,18,20,-1,22,24,26,28,30,32,-1,-1,-1,34,36,38,40,42,44,46,48,50,-1,-1,-1,-1,-1,-1,-1,-1,-1,-1,-1,-1,-1,-1,-1,-1,-1,-1,-1,-1,-1,-1],"split_conditions":[2.5E0,5E-1,2.85E1,5E-1,5E-1,1.25E1,5E-1,5E-1,1.5E0,1.5E0,3.7813196E2,5E-1,1.45E1,5E-1,3.05E1,1.5E0,1.5E0,4.8065147E1,2.2037694E2,-2.003596E2,5E-1,5E-1,5E-1,5E-1,5E-1,5E-1,2.95E1,5E-1,5E-1,1.7940582E1,2.9270473E-1,-5.7187416E1,-3.6914794E0,-6.3291126E1,-1.23779724E2,5.4670513E1,7.539544E1,5.204501E1,-6.757466E1,2.6095219E1,-9.588745E1,5.0895187E1,2.3978916E1,6.5548645E1,-1.8386032E1,-9.191213E1,1.1854492E1,-2.0591757E1,-7.812262E1,-1.9913579E2,1.814209E1],"split_indices":[1,14,1,11,10,1,11,10,1,1,0,10,1,14,1,1,1,0,0,0,11,14,14,11,14,10,1,14,14,0,0,0,0,0,0,0,0,0,0,0,0,0,0,0,0,0,0,0,0,0,0],"split_type":[0,0,0,0,0,0,0,0,0,0,0,0,0,0,0,0,0,0,0,0,0,0,0,0,0,0,0,0,0,0,0,0,0,0,0,0,0,0,0,0,0,0,0,0,0,0,0,0,0,0,0],"sum_hessian":[2.48E3,1.64E2,2.316E3,1.22E2,4.2E1,2.11E3,2.06E2,1.05E2,1.7E1,3.8E1,4E0,8.18E2,1.292E3,1.69E2,3.7E1,9.1E1,1.4E1,1E1,7E0,1.4E1,2.4E1,7.01E2,1.17E2,1.76E2,1.116E3,1.3E2,3.9E1,2.7E1,1E1,3.8E1,5.3E1,9E0,5E0,1.9E1,5E0,5.21E2,1.8E2,9E1,2.7E1,1.47E2,2.9E1,8.5E2,2.66E2,1.01E2,2.9E1,1.5E1,2.4E1,1.8E1,9E0,6E0,4E0],"tree_param":{"num_deleted":"0","num_feature":"16","num_nodes":"51","size_leaf_vector":"0"}},{"base_weights":[3.5371115E2,3.4921045E2,2.5106235E3,3.5772256E2,-1.1731544E3,4.2358447E2,3.7574548E3,3.348236E2,8.400328E2,-2.5336968E3,-1.3466455E2,8.3271875E2,-1.9234204E2,3.4790808E2,-2.0473807E3,1.4723856E3,4.183628E2,7.5609705E2,-2.1715535E3,3.386792E2,2.2718938E3,-2.3981633E3,1.0760056E3,9.568884E2,2.3140752E3,-1.5132771E3,9.026282E2,-4.2031574E1,2.7774343E3],"categories":[],"categories_nodes":[],"categories_segments":[],"categories_sizes":[],"default_left":[true,true,true,true,true,true,false,true,true,false,true,false,false,true,true,true,true,true,false,false,false,false,false,false,false,false,false,false,false],"id":28,"left_children":[1,3,5,7,9,11,-1,13,15,-1,17,-1,-1,19,21,23,25,27,-1,-1,-1,-1,-1,-1,-1,-1,-1,-1,-1],"loss_changes":[2.3179328E7,3.2509888E7,1.137752E7,2.6920416E7,1.941285E7,9.2256044E5,0E0,7.406923E7,2.89626E7,0E0,1.7985502E7,0E0,0E0,4.078957E7,1.6836844E7,1.684408E7,6.4968816E7,1.1437104E7,0E0,0E0,0E0,0E0,0E0,0E0,0E0,0E0,0E0,0E0,0E0],"parents":[2147483647,0,0,1,1,2,2,3,3,4,4,5,5,7,7,8,8,10,10,13,13,14,14,15,15,16,16,17,17],"right_children":[2,4,6,8,10,12,-1,14,16,-1,18,-1,-1,20,22,24,26,28,-1,-1,-1,-1,-1,-1,-1,-1,-1,-1,-1],"split_conditions":[1.03345E2,1.02655E2,5E-1,9.7935E1,1.0289E2,1.03395004E2,3.7574548E2,9.754E1,9.9635E1,-2.5336967E2,1.0331E2,8.327187E1,-1.9234205E1,9.731E1,5E-1,9.913E1,1.00095E2,1.0318E2,-2.1715535E2,3.386792E1,2.2718938E2,-2.3981633E2,1.0760056E2,9.568884E1,2.3140752E2,-1.5132771E2,9.026282E1,-4.2031574E0,2.7774344E2],"split_indices":[0,0,5,0,0,0,0,0,0,0,0,0,0,0,13,0,0,0,0,0,0,0,0,0,0,0,0,0,0],"split_type":[0,0,0,0,0,0,0,0,0,0,0,0,0,0,0,0,0,0,0,0,0,0,0,0,0,0,0,0,0],"sum_hessian":[2.48E3,2.476E3,4E0,2.463E3,1.3E1,2E0,2E0,2.353E3,1.1E2,5E0,8E0,1E0,1E0,2.341E3,1.2E1,4.3E1,6.7E1,6E0,2E0,2.331E3,1E1,1.1E1,1E0,2.8E1,1.5E1,1.3E1,5.4E1,5E0,1E0],"tree_param":{"num_deleted":"0","num_feature":"16","num_nodes":"29","size_leaf_vector":"0"}},{"base_weights":[3.1859787E2,3.143697E2,2.3475178E3,3.221118E2,-1.0699808E3,3.1573956E2,1.8532799E3,-2.3225554E3,-1.1493316E2,3.2293027E2,-2.243649E3,3.8697834E3,-9.351803E2,7.194216E2,-2.0267832E3,3.173542E2,2.9830408E3,-3.223645E3,1.8131633E3,-0E0,-1.5567163E3,-3.8528973E1,2.6385625E3],"categories":[],"categories_nodes":[],"categories_segments":[],"categories_sizes":[],"default_left":[true,true,false,true,true,true,true,false,true,true,true,false,true,true,false,false,false,false,false,false,false,false,false],"id":29,"left_children":[1,3,-1,5,7,9,11,-1,13,15,17,-1,19,21,-1,-1,-1,-1,-1,-1,-1,-1,-1],"loss_changes":[2.0518992E7,2.688512E7,0E0,2.3434224E7,1.6456444E7,4.5886544E7,5.987768E7,0E0,1.5827635E7,3.534621E7,3.3688716E7,0E0,2.8972865E6,1.0309959E7,0E0,0E0,0E0,0E0,0E0,0E0,0E0,0E0,0E0],"parents":[2147483647,0,0,1,1,3,3,4,4,5,5,6,6,8,8,9,9,10,10,12,12,13,13],"right_children":[2,4,-1,6,8,10,12,-1,14,16,18,-1,20,22,-1,-1,-1,-1,-1,-1,-1,-1,-1],"split_conditions":[1.03345E2,1.02655E2,2.3475179E2,1.01990005E2,1.0289E2,1.0178E2,5E-1,-2.3225554E2,1.0331E2,1.01619995E2,5E-1,3.8697836E2,1.02225E2,1.0318E2,-2.0267833E2,3.1735418E1,2.9830408E2,-3.223645E2,1.8131633E2,-0E0,-1.5567163E2,-3.8528974E0,2.6385626E2],"split_indices":[0,0,0,0,0,0,8,0,0,0,7,0,0,0,0,0,0,0,0,0,0,0,0],"split_type":[0,0,0,0,0,0,0,0,0,0,0,0,0,0,0,0,0,0,0,0,0,0,0],"sum_hessian":[2.48E3,2.476E3,4E0,2.463E3,1.3E1,2.454E3,9E0,5E0,8E0,2.448E3,6E0,5E0,4E0,6E0,2E0,2.444E3,4E0,5E0,1E0,2E0,2E0,5E0,1E0],"tree_param":{"num_deleted":"0","num_feature":"16","num_nodes":"23","size_leaf_vector":"0"}},{"base_weights":[2.8693143E2,-1.0349316E2,3.1461514E2,7.452897E2,-6.627549E2,3.272779E2,-2.6585995E2,5.442715E2,1.292091E3,-9.696596E2,6.961366E2,4.292486E2,2.694494E2,-1.3024017E3,6.6498676E2,7.9551654E2,3.180962E2,4.164544E2,2.2238752E3,-2.2863211E2,-1.415409E3,-3.8583233E1,1.9625968E3,5.738886E2,3.2326953E2,4.3398804E1,3.561087E2,-6.0032336E2,-2.4047185E3,8.0718414E2,-7.383203E2,1.2432706E3,-6.7866504E2,-2.612339E2,2.4875122E3,7.2447437E2,-1.1728628E3,-1.038808E3,8.8650885E2,-2.2391106E3,-1.00972473E3,-1.8163806E3,9.5225793E2,2.5285947E3,9.034497E2,4.486231E2,1.2260408E3,4.2331787E2,-3.0298932E2,-9.7872025E1,6.7293896E2,1.5793933E2,5.4947437E2,-2.1448955E2,-1.4042599E3,5.85919E2,1.2910204E3,-1.527002E2,-9.497803E2],"categories":[],"categories_nodes":[],"categories_segments":[],"categories_sizes":[],"default_left":[true,true,true,true,true,true,true,true,true,true,true,true,true,true,true,true,true,true,false,true,true,true,true,true,true,true,true,true,false,true,true,false,false,false,false,false,false,false,false,false,false,false,false,false,false,false,false,false,false,false,false,false,false,false,false,false,false,false,false],"id":30,"left_children":[1,3,5,7,9,11,13,15,17,19,21,23,25,27,29,31,33,35,-1,37,39,41,43,45,47,49,51,53,-1,55,57,-1,-1,-1,-1,-1,-1,-1,-1,-1,-1,-1,-1,-1,-1,-1,-1,-1,-1,-1,-1,-1,-1,-1,-1,-1,-1,-1,-1],"loss_changes":[2.6850288E7,7.881726E7,1.7118544E7,6.532912E6,4.238277E7,1.3251328E7,4.911553E7,2.577086E6,1.291783E7,2.6745584E7,1.7774338E7,1.2359808E7,2.8385168E7,1.7100248E7,5.984406E6,1.6031038E7,3.5862708E7,5.7406405E6,0E0,2.9833164E7,1.4748928E7,2.4637998E7,1.877548E6,2.7617024E7,2.989114E7,3.5912684E7,4.006461E7,4.6455875E6,0E0,1.9012E6,2.1544925E5,0E0,0E0,0E0,0E0,0E0,0E0,0E0,0E0,0E0,0E0,0E0,0E0,0E0,0E0,0E0,0E0,0E0,0E0,0E0,0E0,0E0,0E0,0E0,0E0,0E0,0E0,0E0,0E0],"parents":[2147483647,0,0,1,1,2,2,3,3,4,4,5,5,6,6,7,7,8,8,9,9,10,10,11,11,12,12,13,13,14,14,15,15,16,16,17,17,19,19,20,20,21,21,22,22,23,23,24,24,25,25,26,26,27,27,29,29,30,30],"right_children":[2,4,6,8,10,12,14,16,18,20,22,24,26,28,30,32,34,36,-1,38,40,42,44,46,48,50,52,54,-1,56,58,-1,-1,-1,-1,-1,-1,-1,-1,-1,-1,-1,-1,-1,-1,-1,-1,-1,-1,-1,-1,-1,-1,-1,-1,-1,-1,-1,-1],"split_conditions":[2.5E0,3.5E0,3.05E1,2.5E0,1.05E1,1.25E1,6E0,1.5E0,1.5E0,5.5E0,5E-1,4.5E0,2.5E0,2E0,5E-1,5E-1,5E-1,5E-1,2.2238753E2,4.5E0,7.5E0,1.5E0,1.15E1,3.5E0,5E-1,5E-1,2.15E1,5E-1,-2.4047185E2,5E-1,1.1E1,1.24327065E2,-6.786651E1,-2.6123388E1,2.4875122E2,7.244744E1,-1.1728628E2,-1.038808E2,8.865089E1,-2.2391106E2,-1.0097247E2,-1.8163806E2,9.522579E1,2.5285948E2,9.034497E1,4.4862312E1,1.2260408E2,4.2331787E1,-3.0298933E1,-9.787203E0,6.72939E1,1.5793933E1,5.4947437E1,-2.1448956E1,-1.40426E2,5.85919E1,1.2910204E2,-1.527002E1,-9.497803E1],"split_indices":[1,2,1,2,2,1,2,2,1,2,13,2,2,2,10,13,13,13,0,2,2,1,2,2,10,10,1,10,0,13,2,0,0,0,0,0,0,0,0,0,0,0,0,0,0,0,0,0,0,0,0,0,0,0,0,0,0,0,0],"split_type":[0,0,0,0,0,0,0,0,0,0,0,0,0,0,0,0,0,0,0,0,0,0,0,0,0,0,0,0,0,0,0,0,0,0,0,0,0,0,0,0,0,0,0,0,0,0,0,0,0,0,0,0,0,0,0,0,0,0,0],"sum_hessian":[2.48E3,1.64E2,2.316E3,6.5E1,9.9E1,2.267E3,4.9E1,4.9E1,1.6E1,8.1E1,1.8E1,8.18E2,1.449E3,2.3E1,2.6E1,2.2E1,2.7E1,9E0,7E0,3.1E1,5E1,1.2E1,6E0,3.44E2,4.74E2,4.02E2,1.047E3,1.5E1,8E0,2.4E1,2E0,1.7E1,5E0,2.2E1,5E0,8E0,1E0,1.8E1,1.3E1,1.5E1,3.5E1,4E0,8E0,3E0,3E0,2.9E2,5.4E1,4.09E2,6.5E1,3.29E2,7.3E1,5.18E2,5.29E2,1.1E1,4E0,1.8E1,6E0,1E0,1E0],"tree_param":{"num_deleted":"0","num_feature":"16","num_nodes":"59","size_leaf_vector":"0"}},{"base_weights":[2.5838223E2,-2.5838291E1,2.8911792E2,-2.4341537E2,1.0842008E3,8.936441E2,2.642585E2,-1.1322333E2,-2.3162195E3,3.7203247E3,5.0928705E2,2.0610261E3,1.8958612E2,5.599007E2,2.3400928E2,-2.3920212E2,1.9919895E3,-2.7587483E3,-6.571696E1,-2.0886467E2,2.0307738E3,5.543325E2,2.691574E3,-2.8838672E3,8.3969135E2,2.785305E2,1.0521991E3,-1.3051775E3,2.6031998E2,4.696063E2,-4.8069696E2,4.591893E3,9.0291174E2,-3.0223457E3,-1.1329062E3,2.1983794E3,-2.3019548E3,-2.2046606E3,4.3185327E2,2.9997258E3,-1.5496733E3,1.5545659E3,-2.6278118E3,3.3690066E3,1.473011E3,-1.2180615E3,-3.146811E3,1.2856622E3,-2.4203862E3,6.758496E-1,1.2267006E3,-1.7701812E3,1.2007109E3,-8.5155286E2,-3.673165E3,3.5008506E3,2.4494113E2],"categories":[],"categories_nodes":[],"categories_segments":[],"categories_sizes":[],"default_left":[true,true,true,true,true,true,true,true,true,false,true,true,true,true,true,true,true,true,true,true,true,true,true,true,true,true,true,true,true,false,false,false,false,false,false,false,false,false,false,false,false,false,false,false,false,false,false,false,false,false,false,false,false,false,false,false,false],"id":31,"left_children":[1,3,5,7,9,11,13,15,17,-1,19,21,23,25,27,29,31,33,35,37,39,41,43,45,47,49,51,53,55,-1,-1,-1,-1,-1,-1,-1,-1,-1,-1,-1,-1,-1,-1,-1,-1,-1,-1,-1,-1,-1,-1,-1,-1,-1,-1,-1,-1],"loss_changes":[2.1683408E7,5.894464E7,3.340032E7,5.476543E7,5.8684744E7,7.191435E7,1.9106272E7,5.1644904E7,1.1741412E7,0E0,3.759276E7,2.9826912E7,1.1429293E8,2.7258728E7,7.94606E7,3.1550614E7,2.6945444E7,8.20088E5,2.025078E7,3.1659634E7,4.282519E7,3.9086136E7,1.397536E7,5.0348E5,7.143373E7,3.370894E7,3.2299088E7,3.227472E7,9.488904E7,0E0,0E0,0E0,0E0,0E0,0E0,0E0,0E0,0E0,0E0,0E0,0E0,0E0,0E0,0E0,0E0,0E0,0E0,0E0,0E0,0E0,0E0,0E0,0E0,0E0,0E0,0E0,0E0],"parents":[2147483647,0,0,1,1,2,2,3,3,4,4,5,5,6,6,7,7,8,8,10,10,11,11,12,12,13,13,14,14,15,15,16,16,17,17,18,18,19,19,20,20,21,21,22,22,23,23,24,24,25,25,26,26,27,27,28,28],"right_children":[2,4,6,8,10,12,14,16,18,-1,20,22,24,26,28,30,32,34,36,38,40,42,44,46,48,50,52,54,56,-1,-1,-1,-1,-1,-1,-1,-1,-1,-1,-1,-1,-1,-1,-1,-1,-1,-1,-1,-1,-1,-1,-1,-1,-1,-1,-1,-1],"split_conditions":[3.5E0,8.4979996E1,4.5E0,8.2505005E1,8.7585E1,3.1995E1,1.1615E1,7.707E1,8.482E1,3.7203247E2,9.8979996E1,8.610001E0,4.6375E1,2.05E1,1.2945E1,2.1810001E1,7.775E1,8.3445E1,8.489E1,1.5E0,1.02225E2,5E-1,2.5135E1,3.5765E1,9.9375E1,1.0045E1,3.4050002E0,1.28E1,1.365E1,4.696063E1,-4.80697E1,4.591893E2,9.0291176E1,-3.022346E2,-1.1329063E2,2.1983794E2,-2.3019548E2,-2.2046606E2,4.318533E1,2.999726E2,-1.5496733E2,1.5545659E2,-2.627812E2,3.3690067E2,1.473011E2,-1.2180615E2,-3.1468112E2,1.2856622E2,-2.4203862E2,6.758496E-2,1.2267006E2,-1.7701811E2,1.200711E2,-8.515529E1,-3.673165E2,3.5008505E2,2.4494114E1],"split_indices":[1,0,1,0,0,0,0,0,0,0,0,0,0,1,0,0,0,0,0,1,0,8,0,0,0,0,0,0,0,0,0,0,0,0,0,0,0,0,0,0,0,0,0,0,0,0,0,0,0,0,0,0,0,0,0,0,0],"split_type":[0,0,0,0,0,0,0,0,0,0,0,0,0,0,0,0,0,0,0,0,0,0,0,0,0,0,0,0,0,0,0,0,0,0,0,0,0,0,0,0,0,0,0,0,0,0,0,0,0,0,0,0,0,0,0,0,0],"sum_hessian":[2.48E3,2.42E2,2.238E3,2.03E2,3.9E1,8.7E1,2.151E3,1.92E2,1.1E1,6E0,3.3E1,3.2E1,5.5E1,1.98E2,1.953E3,1.82E2,1E1,9E0,2E0,2.3E1,1E1,1E1,2.2E1,9E0,4.6E1,1.27E2,7.1E1,3.2E1,1.921E3,4.6E1,1.36E2,2E0,8E0,7E0,2E0,1E0,1E0,5E0,1.8E1,8E0,2E0,8E0,2E0,1.3E1,9E0,2E0,7E0,4.1E1,5E0,9.9E1,2.8E1,3E0,6.8E1,2.8E1,4E0,8E0,1.913E3],"tree_param":{"num_deleted":"0","num_feature":"16","num_nodes":"57","size_leaf_vector":"0"}},{"base_weights":[2.3265648E2,1.0650452E3,2.2271684E2,-1.3932999E2,1.7067863E3,-1.6186921E3,2.2789754E2,-1.5286011E3,2.671545E3,1.9050093E3,-9.2561426E2,-7.3901013E2,-2.0912012E3,2.9600525E3,2.2220834E2,-2.381343E3,2.2152964E3,2.1574736E3,4.7951562E2,1.6647119E2,-1.732727E3,8.4631006E2,4.0837773E3,1.06966995E2,3.0500897E2,-9.257137E2,-2.7764521E3,7.359623E2,2.606572E3,4.094515E1,8.926135E2,3.5296655E2,-9.8259766E1,1.9551714E3,-6.807063E2,2.940305E2,-4.0542203E2,4.065145E3,2.9151874E2],"categories":[],"categories_nodes":[],"categories_segments":[],"categories_sizes":[],"default_left":[true,true,true,true,true,true,true,true,false,true,false,true,false,true,true,true,false,true,true,true,false,true,false,true,true,false,false,false,false,false,false,false,false,false,false,false,false,false,false],"id":32,"left_children":[1,3,5,7,9,11,13,15,-1,17,-1,19,-1,21,23,25,-1,27,29,31,-1,33,-1,35,37,-1,-1,-1,-1,-1,-1,-1,-1,-1,-1,-1,-1,-1,-1],"loss_changes":[2.0276816E7,2.2667494E7,2.3756032E7,4.7028036E7,1.1687344E7,1.335884E6,3.734593E7,3.0817668E7,0E0,5.417048E6,0E0,3.90328E6,0E0,8.370884E6,2.3274496E7,1.418704E6,0E0,7.624208E6,6.788063E5,1.8534278E5,0E0,6.423391E6,0E0,9.81719E7,7.085186E7,0E0,0E0,0E0,0E0,0E0,0E0,0E0,0E0,0E0,0E0,0E0,0E0,0E0,0E0],"parents":[2147483647,0,0,1,1,2,2,3,3,4,4,5,5,6,6,7,7,9,9,11,11,13,13,14,14,15,15,17,17,18,18,19,19,21,21,23,23,24,24],"right_children":[2,4,6,8,10,12,14,16,-1,18,-1,20,-1,22,24,26,-1,28,30,32,-1,34,-1,36,38,-1,-1,-1,-1,-1,-1,-1,-1,-1,-1,-1,-1,-1,-1],"split_conditions":[4.225E0,3.5E0,4.4849997E0,3.945E0,4.135E0,2.5E0,4.58E0,5E-1,2.671545E2,5E-1,-9.2561424E1,4.4049997E0,-2.0912012E2,2E0,4.5485E1,3.61E0,2.2152965E2,3.4050002E0,3.77E0,4.305E0,-1.732727E2,4.545E0,4.0837775E2,3.407E1,4.5754997E1,-9.257137E1,-2.7764523E2,7.359623E1,2.606572E2,4.094515E0,8.926135E1,3.5296658E1,-9.825976E0,1.9551714E2,-6.807063E1,2.940305E1,-4.0542202E1,4.065145E2,2.9151875E1],"split_indices":[0,2,0,0,0,2,0,10,0,12,0,0,0,2,0,0,0,0,0,0,0,0,0,0,0,0,0,0,0,0,0,0,0,0,0,0,0,0,0],"split_type":[0,0,0,0,0,0,0,0,0,0,0,0,0,0,0,0,0,0,0,0,0,0,0,0,0,0,0,0,0,0,0,0,0,0,0,0,0,0,0],"sum_hessian":[2.48E3,2.8E1,2.452E3,1E1,1.8E1,6E0,2.446E3,7E0,3E0,1.7E1,1E0,3E0,3E0,4E0,2.442E3,6E0,1E0,1.4E1,3E0,2E0,1E0,2E0,2E0,1.022E3,1.42E3,2E0,4E0,4E0,1E1,2E0,1E0,1E0,1E0,1E0,1E0,7.49E2,2.73E2,4E0,1.416E3],"tree_param":{"num_deleted":"0","num_feature":"16","num_nodes":"39","size_leaf_vector":"0"}},{"base_weights":[2.098181E2,2.3940674E2,4.808514E1,2.2301723E2,2.887895E2,1.7394995E2,-3.54549E2,2.3070946E2,1.9271327E2,2.739286E2,3.446798E2],"categories":[],"categories_nodes":[],"categories_segments":[],"categories_sizes":[],"default_left":[true,true,true,true,true,false,false,false,false,false,false],"id":33,"left_children":[1,3,5,7,9,-1,-1,-1,-1,-1,-1],"loss_changes":[1.1858336E7,1.627704E6,1.9570694E7,3.19376E5,3.30468E5,0E0,0E0,0E0,0E0,0E0,0E0],"parents":[2147483647,0,0,1,1,2,2,3,3,4,4],"right_children":[2,4,6,8,10,-1,-1,-1,-1,-1,-1],"split_conditions":[5E-1,5E-1,5E-1,5E-1,5E-1,1.7394995E1,-3.5454903E1,2.3070946E1,1.9271328E1,2.7392859E1,3.4467983E1],"split_indices":[9,12,12,8,10,0,0,0,0,0,0],"split_type":[0,0,0,0,0,0,0,0,0,0,0],"sum_hessian":[2.48E3,2.096E3,3.84E2,1.578E3,5.18E2,2.93E2,9.1E1,1.253E3,3.25E2,4.14E2,1.04E2],"tree_param":{"num_deleted":"0","num_feature":"16","num_nodes":"11","size_leaf_vector":"0"}},{"base_weights":[1.8887225E2,2.3427652E2,-8.01309E1,2.8057312E2,-8.454024E0,1.4775887E2,-7.837205E2,2.4086932E2,4.3736243E2,4.1236295E2,-3.8719788E2,-3.23342E1,3.203827E2,2.717765E2,2.1203998E2,2.666738E2,5.9640643E2,-1.6188591E2,4.6353604E2],"categories":[],"categories_nodes":[],"categories_segments":[],"categories_sizes":[],"default_left":[true,true,true,true,true,true,false,true,true,false,false,true,false,false,false,false,false,false,false],"id":34,"left_children":[1,3,5,7,9,11,-1,13,15,-1,-1,17,-1,-1,-1,-1,-1,-1,-1],"loss_changes":[3.0322984E7,2.386252E7,5.768454E7,1.098728E7,5.450862E7,8.469272E6,0E0,1.207256E6,9.578096E6,0E0,0E0,8.680296E6,0E0,0E0,0E0,0E0,0E0,0E0,0E0],"parents":[2147483647,0,0,1,1,2,2,3,3,4,4,5,5,7,7,8,8,11,11],"right_children":[2,4,6,8,10,12,-1,14,16,-1,-1,18,-1,-1,-1,-1,-1,-1,-1],"split_conditions":[2.0205E3,5E-1,5E-1,5E-1,5E-1,5E-1,-7.8372055E1,5E-1,5E-1,4.1236294E1,-3.8719788E1,5E-1,3.203827E1,2.7177649E1,2.1203999E1,2.666738E1,5.9640644E1,-1.6188591E1,4.6353603E1],"split_indices":[3,11,8,8,5,5,0,5,5,0,0,11,0,0,0,0,0,0,0],"split_type":[0,0,0,0,0,0,0,0,0,0,0,0,0,0,0,0,0,0,0],"sum_hessian":[2.48E3,2.122E3,3.58E2,1.782E3,3.4E2,2.71E2,8.7E1,1.424E3,3.58E2,1.61E2,1.79E2,1.33E2,1.38E2,6.83E2,7.41E2,1.74E2,1.84E2,1.06E2,2.7E1],"tree_param":{"num_deleted":"0","num_feature":"16","num_nodes":"19","size_leaf_vector":"0"}},{"base_weights":[1.7003496E2,-8.0077126E1,1.971083E2,-1.3691052E2,3.951259E1,7.311512E2,1.7517387E2,-2.0746362E2,1.3078569E2,3.6243427E2,-2.6837662E2,1.195138E3,4.0200632E2,2.0181241E2,-7.6051926E1,-3.207891E2,-3.444147E1,-1.1996351E2,3.0414056E2,9.334682E1,9.5926874E2,-5.333979E1,-1.5122015E3,1.3501155E3,5.790813E2,2.5038504E2,8.98347E2,1.5730852E2,3.3516293E2,-2.565361E2,4.398854E2,-5.8471735E2,-6.1667313E1,3.7862873E1,-1.3083247E2,9.80989E2,-7.695387E2,-3.3719702E2,1.3897137E3,-5.082351E1,5.345469E2,2.658958E2,-5.747026E2,1.6276085E3,9.5565045E2,4.9021782E1,4.8589444E2,5.0418185E2,-3.3053906E2,-5.8173267E2,-3.6872433E1,7.571844E2,-4.3490427E2],"categories":[],"categories_nodes":[],"categories_segments":[],"categories_sizes":[],"default_left":[true,true,true,true,true,true,true,true,true,true,true,true,true,true,true,true,true,true,true,true,false,true,false,true,false,false,false,true,true,true,true,false,false,false,false,false,false,false,false,false,false,false,false,false,false,false,false,false,false,false,false,false,false],"id":35,"left_children":[1,3,5,7,9,11,13,15,17,19,21,23,25,27,29,31,33,35,37,39,-1,41,-1,43,-1,-1,-1,45,47,49,51,-1,-1,-1,-1,-1,-1,-1,-1,-1,-1,-1,-1,-1,-1,-1,-1,-1,-1,-1,-1,-1,-1],"loss_changes":[1.681672E7,1.6579791E6,2.6090328E7,3.144222E6,7.952713E6,1.294284E7,1.44184E7,2.554023E6,1.5597284E6,6.163356E6,1.0869878E7,2.635976E6,3.752138E6,1.149112E7,1.938655E7,5.360254E6,3.7526625E5,1.1480065E7,1.5099729E7,1.8130275E6,0E0,6.1476515E6,0E0,1.48366E6,0E0,0E0,0E0,5.19554E7,5.4851268E7,1.0973178E7,1.53213E7,0E0,0E0,0E0,0E0,0E0,0E0,0E0,0E0,0E0,0E0,0E0,0E0,0E0,0E0,0E0,0E0,0E0,0E0,0E0,0E0,0E0,0E0],"parents":[2147483647,0,0,1,1,2,2,3,3,4,4,5,5,6,6,7,7,8,8,9,9,10,10,11,11,12,12,13,13,14,14,15,15,16,16,17,17,18,18,19,19,21,21,23,23,27,27,28,28,29,29,30,30],"right_children":[2,4,6,8,10,12,14,16,18,20,22,24,26,28,30,32,34,36,38,40,-1,42,-1,44,-1,-1,-1,46,48,50,52,-1,-1,-1,-1,-1,-1,-1,-1,-1,-1,-1,-1,-1,-1,-1,-1,-1,-1,-1,-1,-1,-1],"split_conditions":[3.5E0,2.5E0,4.5E0,5E-1,5E-1,5E-1,2.85E1,5E-1,1.5E0,5E-1,5E-1,5E-1,5E-1,5E-1,5E-1,5E-1,1.5E0,5E-1,5E-1,5E-1,9.592687E1,5E-1,-1.5122015E2,5E-1,5.790813E1,2.5038504E1,8.98347E1,2.25E1,2.35E1,2.95E1,3.05E1,-5.8471737E1,-6.1667314E0,3.7862873E0,-1.3083247E1,9.80989E1,-7.695387E1,-3.3719704E1,1.3897137E2,-5.082351E0,5.345469E1,2.6589582E1,-5.7470257E1,1.6276085E2,9.556505E1,4.9021783E0,4.8589443E1,5.0418186E1,-3.3053905E1,-5.8173267E1,-3.6872432E0,7.571844E1,-4.349043E1],"split_indices":[1,1,1,13,5,5,1,15,1,15,13,15,13,15,13,5,1,5,5,13,0,15,0,13,0,0,0,1,1,1,1,0,0,0,0,0,0,0,0,0,0,0,0,0,0,0,0,0,0,0,0,0,0],"split_type":[0,0,0,0,0,0,0,0,0,0,0,0,0,0,0,0,0,0,0,0,0,0,0,0,0,0,0,0,0,0,0,0,0,0,0,0,0,0,0,0,0,0,0,0,0,0,0,0,0,0,0,0,0],"sum_hessian":[2.48E3,2.42E2,2.238E3,1.64E2,7.8E1,8.7E1,2.151E3,1.3E2,3.4E1,3.8E1,4E1,3.5E1,5.2E1,1.945E3,2.06E2,7.8E1,5.2E1,1.4E1,2E1,2.7E1,1.1E1,3.5E1,5E0,2.7E1,8E0,4.1E1,1.1E1,1.46E3,4.85E2,1.53E2,5.3E1,3.8E1,4E1,3E1,2.2E1,5E0,9E0,1.3E1,7E0,2.1E1,6E0,2.2E1,1.3E1,1.4E1,1.3E1,1.099E3,3.61E2,3.87E2,9.8E1,6.1E1,9.2E1,3.9E1,1.4E1],"tree_param":{"num_deleted":"0","num_feature":"16","num_nodes":"53","size_leaf_vector":"0"}},{"base_weights":[1.5322853E2,1.9406932E2,-8.8688576E1,-4.14119E2,2.1409497E2,9.6939856E2,-2.169961E2,-5.0548477E2,1.7306351E3,3.838342E2,1.5871971E2,3.779888E3,-0E0,-4.2793048E2,6.534643E2,-3.4788742E2,-2.0218107E3,2.8467659E3,-2.4581323E2,5.543136E2,-7.012865E2,-2.9771613E2,2.6207544E2,4.4714136E2,4.0993994E3,-2.2397815E3,1.2322632E3,-1.0218817E3,-2.5522206E2,1.1494935E3,-1.7949915E3,-5.4700415E2,2.6237773E3,-2.2937368E3,-3.2608984E2,2.6934366E2,1.6975336E3,2.832016E3,-9.04952E2,6.332832E1,-6.9912085E2,1.2954661E3,2.211609E2,-2.891508E3,2.1337417E3,-7.2576514E2,1.9339904E3,1.3390502E3,-2.0337084E3,-1.2843947E3,5.6421116E1,2.0938938E3,4.639842E2,-2.0597006E1,-2.1859016E3],"categories":[],"categories_nodes":[],"categories_segments":[],"categories_sizes":[],"default_left":[true,true,true,true,true,true,true,true,true,true,true,true,true,true,true,true,true,false,false,true,true,true,true,false,false,true,true,true,true,true,true,false,false,false,false,false,false,false,false,false,false,false,false,false,false,false,false,false,false,false,false,false,false,false,false],"id":36,"left_children":[1,3,5,7,9,11,13,15,17,19,21,23,25,27,29,31,33,-1,-1,35,37,39,41,-1,-1,43,45,47,49,51,53,-1,-1,-1,-1,-1,-1,-1,-1,-1,-1,-1,-1,-1,-1,-1,-1,-1,-1,-1,-1,-1,-1,-1,-1],"loss_changes":[2.453076E7,2.5943456E7,4.8940864E7,1.4187648E7,1.9258728E7,1.062259E8,5.921621E7,1.5044892E7,7.343707E6,9.380758E7,7.329368E7,8.770048E6,8.555229E7,2.6294736E7,7.857074E7,3.7508652E7,1.992502E6,0E0,0E0,1.4189043E8,5.219679E7,4.1644092E7,5.3225696E7,0E0,0E0,3.753106E7,2.8895736E7,1.4128371E8,6.4873144E7,3.3314832E7,7.562828E6,0E0,0E0,0E0,0E0,0E0,0E0,0E0,0E0,0E0,0E0,0E0,0E0,0E0,0E0,0E0,0E0,0E0,0E0,0E0,0E0,0E0,0E0,0E0,0E0],"parents":[2147483647,0,0,1,1,2,2,3,3,4,4,5,5,6,6,7,7,8,8,9,9,10,10,11,11,12,12,13,13,14,14,15,15,16,16,19,19,20,20,21,21,22,22,25,25,26,26,27,27,28,28,29,29,30,30],"right_children":[2,4,6,8,10,12,14,16,18,20,22,24,26,28,30,32,34,-1,-1,36,38,40,42,-1,-1,44,46,48,50,52,54,-1,-1,-1,-1,-1,-1,-1,-1,-1,-1,-1,-1,-1,-1,-1,-1,-1,-1,-1,-1,-1,-1,-1,-1],"split_conditions":[2.0205E3,1.5E0,1.242E1,9.8270004E1,2.7005001E1,6.5E0,8.647E1,8.7015E1,1.01729996E2,2.65E1,4.097E1,3.81E0,1.65E1,2.8064999E1,2.1E1,8.4119995E1,9.4755005E1,2.846766E2,-2.4581324E1,2.05E1,4.135E0,3.407E1,4.3300003E1,4.4714138E1,4.0993994E2,1.1809999E1,5.205E0,7E0,5.5E0,9.3345E1,8.8375E1,-5.4700417E1,2.6237775E2,-2.2937369E2,-3.2608986E1,2.6934366E1,1.6975336E2,2.8320163E2,-9.04952E1,6.332832E0,-6.991209E1,1.2954662E2,2.211609E1,-2.8915082E2,2.1337418E2,-7.2576515E1,1.9339903E2,1.3390501E2,-2.0337083E2,-1.2843947E2,5.642112E0,2.0938939E2,4.639842E1,-2.0597007E0,-2.1859016E2],"split_indices":[3,1,0,0,0,1,0,0,0,1,0,0,1,0,1,0,0,0,0,1,0,0,0,0,0,0,0,1,1,0,0,0,0,0,0,0,0,0,0,0,0,0,0,0,0,0,0,0,0,0,0,0,0,0,0],"split_type":[0,0,0,0,0,0,0,0,0,0,0,0,0,0,0,0,0,0,0,0,0,0,0,0,0,0,0,0,0,0,0,0,0,0,0,0,0,0,0,0,0,0,0,0,0,0,0,0,0,0,0,0,0,0,0],"sum_hessian":[2.48E3,2.122E3,3.58E2,6.7E1,2.055E3,3.8E1,3.2E2,6.5E1,2E0,5.04E2,1.551E3,9E0,2.9E1,2.58E2,6.2E1,6E1,5E0,1E0,1E0,4.36E2,6.8E1,2.86E2,1.265E3,1E0,8E0,1E1,1.9E1,5.7E1,2.01E2,5.2E1,1E1,5.7E1,3E0,4E0,1E0,3.5E2,8.6E1,3E0,6.5E1,1.51E2,1.35E2,4.7E1,1.218E3,9E0,1E0,5E0,1.4E1,1.7E1,4E1,4.6E1,1.55E2,2.1E1,3.1E1,2E0,8E0],"tree_param":{"num_deleted":"0","num_feature":"16","num_nodes":"55","size_leaf_vector":"0"}},{"base_weights":[1.3832027E2,1.3447325E2,2.014461E3,1.4129831E2,-1.0756256E3,1.22478676E2,3.231623E3,1.3813695E2,2.6852844E3,-3.72463E2,-2.7379165E3,5.726033E2,-3.8388525E2,1.2653577E3,1.320953E2,-1.6153184E3,5.670712E2,-1.7989415E3,1.671461E3,4.2504658E1,2.0350583E2,-2.3277292E3,6.121626E2,1.6768778E3,-1.4682969E3],"categories":[],"categories_nodes":[],"categories_segments":[],"categories_sizes":[],"default_left":[true,true,true,true,true,true,false,true,false,true,false,false,false,true,true,true,true,false,false,false,false,false,false,false,false],"id":37,"left_children":[1,3,5,7,9,11,-1,13,-1,15,-1,-1,-1,17,19,21,23,-1,-1,-1,-1,-1,-1,-1,-1],"loss_changes":[1.761428E7,2.0600136E7,1.10849E7,1.9417408E7,1.5313173E7,9.054817E5,0E0,1.6585728E7,0E0,1.3771239E7,0E0,0E0,0E0,1.9183074E7,1.5663296E7,9.376513E6,1.8276296E7,0E0,0E0,0E0,0E0,0E0,0E0,0E0,0E0],"parents":[2147483647,0,0,1,1,2,2,3,3,4,4,5,5,7,7,9,9,13,13,14,14,15,15,16,16],"right_children":[2,4,6,8,10,12,-1,14,-1,16,-1,-1,-1,18,20,22,24,-1,-1,-1,-1,-1,-1,-1,-1],"split_conditions":[1.03345E2,1.02655E2,5E-1,1.02375E2,1.35E1,1.03395004E2,3.2316232E2,3.61E0,2.6852844E2,1.0289E2,-2.7379166E2,5.7260326E1,-3.8388527E1,3.2849998E0,4.7300003E1,8.5E0,9E0,-1.7989415E2,1.671461E2,4.250466E0,2.0350584E1,-2.3277293E2,6.121626E1,1.6768779E2,-1.468297E2],"split_indices":[0,0,5,0,1,0,0,0,0,0,0,0,0,0,0,1,1,0,0,0,0,0,0,0,0],"split_type":[0,0,0,0,0,0,0,0,0,0,0,0,0,0,0,0,0,0,0,0,0,0,0,0,0],"sum_hessian":[2.48E3,2.476E3,4E0,2.463E3,1.3E1,2E0,2E0,2.461E3,2E0,1E1,3E0,1E0,1E0,1.2E1,2.449E3,4E0,6E0,1E0,1.1E1,1.087E3,1.362E3,3E0,1E0,4E0,2E0],"tree_param":{"num_deleted":"0","num_feature":"16","num_nodes":"25","size_leaf_vector":"0"}},{"base_weights":[1.245688E2,-7.834686E1,1.4654019E2,4.3629092E2,-7.257764E2,6.27395E2,1.26804245E2,6.908931E1,6.421966E2,-5.0663055E2,-1.4712607E3,8.801724E1,1.1645452E3,5.914684E1,2.1380103E2,4.9115866E2,-9.478164E2,2.3601248E2,1.091915E3,-5.7170616E1,-7.767352E2,-2.1015942E3,1.342325E3,4.03719E2,-6.391594E2,1.4566848E3,-3.3091864E2,1.21938065E2,-5.646827E2,5.0863266E2,6.883012E1,4.353129E2,6.5890344E2,-2.088453E3,1.1095471E3,4.4092655E1,1.3249697E3,1.2065586E3,2.2040088E2,2.265506E2,-2.173287E3,-1.01237274E3,2.5408842E1,-2.3170305E3,-9.89879E2,2.1895535E3,-1.0182947E3,5.671189E2,-8.793602E2,-1.336254E3,2.3589387E3,1.7503131E3,3.475842E2,1.4372955E3,-1.6813063E3,9.815069E1,6.5358765E2,-3.9036337E2,-1.3876835E3,1.8718901E2,8.8264594E2,-3.6913754E2,1.3208253E2],"categories":[],"categories_nodes":[],"categories_segments":[],"categories_sizes":[],"default_left":[true,true,true,true,true,true,true,true,true,true,true,true,true,true,true,true,true,true,true,true,true,true,true,true,true,true,true,true,true,true,true,false,false,false,false,false,false,false,false,false,false,false,false,false,false,false,false,false,false,false,false,false,false,false,false,false,false,false,false,false,false,false,false],"id":38,"left_children":[1,3,5,7,9,11,13,15,17,19,21,23,25,27,29,31,33,35,37,39,41,43,45,47,49,51,53,55,57,59,61,-1,-1,-1,-1,-1,-1,-1,-1,-1,-1,-1,-1,-1,-1,-1,-1,-1,-1,-1,-1,-1,-1,-1,-1,-1,-1,-1,-1,-1,-1,-1,-1],"loss_changes":[1.1073304E7,8.128514E7,2.11613E7,1.0231326E7,1.6878772E7,2.5380936E7,1.2651248E7,2.1921198E7,1.5621172E7,1.026636E7,4.5392548E7,1.0586379E7,1.9716208E7,4.7539708E7,4.017944E7,3.947E4,3.7527584E7,9.750535E6,3.81626E6,2.0324604E7,1.0053398E7,2.463424E6,1.2241245E7,7.204541E6,3.2401324E7,1.1420184E7,2.152117E7,1.3864829E7,1.5365124E7,3.7093584E7,1.7554374E7,0E0,0E0,0E0,0E0,0E0,0E0,0E0,0E0,0E0,0E0,0E0,0E0,0E0,0E0,0E0,0E0,0E0,0E0,0E0,0E0,0E0,0E0,0E0,0E0,0E0,0E0,0E0,0E0,0E0,0E0,0E0,0E0],"parents":[2147483647,0,0,1,1,2,2,3,3,4,4,5,5,6,6,7,7,8,8,9,9,10,10,11,11,12,12,13,13,14,14,15,15,16,16,17,17,18,18,19,19,20,20,21,21,22,22,23,23,24,24,25,25,26,26,27,27,28,28,29,29,30,30],"right_children":[2,4,6,8,10,12,14,16,18,20,22,24,26,28,30,32,34,36,38,40,42,44,46,48,50,52,54,56,58,60,62,-1,-1,-1,-1,-1,-1,-1,-1,-1,-1,-1,-1,-1,-1,-1,-1,-1,-1,-1,-1,-1,-1,-1,-1,-1,-1,-1,-1,-1,-1,-1,-1],"split_conditions":[3.5E0,5.5E0,4.5E0,1.5E0,5E-1,5.5E0,6.5E0,3.5E0,2.5E0,8.5E0,1.05E1,2.5E0,5E-1,2.85E1,8.5E0,5E-1,4.5E0,5E-1,5E-1,5E-1,1.15E1,2.5E0,1.15E1,5E-1,5E-1,5E-1,8.5E0,2.75E1,5E-1,1.85E1,7.5E0,4.3531292E1,6.589034E1,-2.0884529E2,1.1095471E2,4.4092655E0,1.3249698E2,1.2065586E2,2.2040089E1,2.265506E1,-2.1732872E2,-1.01237274E2,2.5408843E0,-2.3170305E2,-9.898791E1,2.1895535E2,-1.0182947E2,5.671189E1,-8.793603E1,-1.3362541E2,2.3589388E2,1.7503131E2,3.475842E1,1.4372955E2,-1.6813063E2,9.815069E0,6.5358765E1,-3.903634E1,-1.3876836E2,1.87189E1,8.8264595E1,-3.6913754E1,1.3208254E1],"split_indices":[1,2,1,1,8,2,2,2,2,2,2,2,8,1,2,8,2,10,10,10,2,1,2,8,8,10,2,1,10,1,1,0,0,0,0,0,0,0,0,0,0,0,0,0,0,0,0,0,0,0,0,0,0,0,0,0,0,0,0,0,0,0,0],"split_type":[0,0,0,0,0,0,0,0,0,0,0,0,0,0,0,0,0,0,0,0,0,0,0,0,0,0,0,0,0,0,0,0,0,0,0,0,0,0,0,0,0,0,0,0,0,0,0,0,0,0,0,0,0,0,0,0,0,0,0,0,0,0,0],"sum_hessian":[2.48E3,2.42E2,2.238E3,1.35E2,1.07E2,8.7E1,2.151E3,4.9E1,8.6E1,8.4E1,2.3E1,4.4E1,4.3E1,1.211E3,9.4E2,3.5E1,1.4E1,4.6E1,4E1,3.2E1,5.2E1,1.9E1,4E0,3.1E1,1.3E1,3.6E1,7E0,1.101E3,1.1E2,3.09E2,6.31E2,2.9E1,6E0,9E0,5E0,4E1,6E0,3.5E1,5E0,2.9E1,3E0,4E1,1.2E1,1.5E1,4E0,3E0,1E0,2.8E1,3E0,1.1E1,2E0,2.8E1,8E0,3E0,4E0,1.055E3,4.6E1,9.2E1,1.8E1,1.67E2,1.42E2,7.9E1,5.52E2],"tree_param":{"num_deleted":"0","num_feature":"16","num_nodes":"63","size_leaf_vector":"0"}},{"base_weights":[1.12123314E2,1.4821283E2,-1.0158186E2,1.10344925E2,3.339472E2,8.9822586E1,-6.921549E2,6.643361E1,2.436122E2,3.4416846E2,2.951002E2,1.7291792E2,-1.116427E2,-8.003929E2,-3.0823404E2,-1.0382533E1,2.1753941E2,3.3458585E2,-6.448371E1,-8.970787E2,-6.6327527E2],"categories":[],"categories_nodes":[],"categories_segments":[],"categories_sizes":[],"default_left":[true,true,true,true,true,true,true,true,false,false,false,true,false,true,false,false,false,false,false,false,false],"id":39,"left_children":[1,3,5,7,9,11,13,15,-1,-1,-1,17,-1,19,-1,-1,-1,-1,-1,-1,-1],"loss_changes":[1.9150274E7,1.4890556E7,4.0648948E7,1.0309392E7,3.4588E4,4.5734225E6,3.399032E6,1.5430518E7,0E0,0E0,0E0,7.4316615E6,0E0,2.90884E5,0E0,0E0,0E0,0E0,0E0,0E0,0E0],"parents":[2147483647,0,0,1,1,2,2,3,3,4,4,5,5,6,6,7,7,11,11,13,13],"right_children":[2,4,6,8,10,12,14,16,-1,-1,-1,18,-1,20,-1,-1,-1,-1,-1,-1,-1],"split_conditions":[2.0205E3,5E-1,5E-1,5E-1,5E-1,5E-1,5E-1,5E-1,2.436122E1,3.4416847E1,2.951002E1,5E-1,-1.116427E1,5E-1,-3.0823404E1,-1.0382533E0,2.1753942E1,3.3458584E1,-6.4483714E0,-8.970787E1,-6.632753E1],"split_indices":[3,8,8,13,13,15,15,15,0,0,0,13,0,13,0,0,0,0,0,0,0],"split_type":[0,0,0,0,0,0,0,0,0,0,0,0,0,0,0,0,0,0,0,0,0],"sum_hessian":[2.48E3,2.122E3,3.58E2,1.764E3,3.58E2,2.71E2,8.7E1,1.328E3,4.36E2,2.77E2,8.1E1,1.92E2,7.9E1,6.7E1,2E1,8.81E2,4.47E2,1.14E2,7.8E1,3.6E1,3.1E1],"tree_param":{"num_deleted":"0","num_feature":"16","num_nodes":"21","size_leaf_vector":"0"}},{"base_weights":[1.00885086E2,1.347261E2,-2.4424148E0,1.1089969E2,2.4754794E2,7.690422E1,-3.5430276E2,1.4359822E2,4.4627823E1,2.003637E2,3.531366E2,8.651003E1,4.7237843E1,1.228281E2,2.3008179E2,8.7090324E1,-1.5266672E2],"categories":[],"categories_nodes":[],"categories_segments":[],"categories_sizes":[],"default_left":[true,true,true,true,true,true,false,true,true,false,false,false,false,false,false,false,false],"id":40,"left_children":[1,3,5,7,9,11,-1,13,15,-1,-1,-1,-1,-1,-1,-1,-1],"loss_changes":[8.676986E6,4.9931E6,1.7144328E7,3.339714E6,1.5429E6,1.3734575E5,0E0,1.825558E6,4.301982E6,0E0,0E0,0E0,0E0,0E0,0E0,0E0,0E0],"parents":[2147483647,0,0,1,1,2,2,3,3,4,4,5,5,7,7,8,8],"right_children":[2,4,6,8,10,12,-1,14,16,-1,-1,-1,-1,-1,-1,-1,-1],"split_conditions":[5E-1,5E-1,5E-1,5E-1,5E-1,5E-1,-3.543028E1,5E-1,5E-1,2.003637E1,3.531366E1,8.651004E0,4.7237844E0,1.228281E1,2.3008179E1,8.709033E0,-1.5266672E1],"split_indices":[14,7,11,12,12,7,0,11,11,0,0,0,0,0,0,0,0],"split_type":[0,0,0,0,0,0,0,0,0,0,0,0,0,0,0,0,0],"sum_hessian":[2.48E3,1.868E3,6.12E2,1.544E3,3.24E2,5E2,1.12E2,1.033E3,5.11E2,2.26E2,9.8E1,3.76E2,1.24E2,8.35E2,1.98E2,4.21E2,9E1],"tree_param":{"num_deleted":"0","num_feature":"16","num_nodes":"17","size_leaf_vector":"0"}},{"base_weights":[9.0823265E1,1.1700128E2,-5.197183E1,2.3085197E2,4.282227E1,-4.7917188E2,1.2946721E2,-5.6337276E1,3.2499796E2,-3.648013E2,7.088303E1,-2.2563202E1,-9.120112E2,1.010712E3,1.9645674E1,-1.0244621E2,2.1571306E2,3.936341E2,-9.580457E0,-7.140873E2,1.6575481E0,1.1179671E2,-1.6229918E2,-4.8914728E2,5.521773E2,-1.2178118E3,-7.590012E2,5.8323914E2,1.2627361E3,-9.757364E2,8.0456604E1,-1.2931342E2,-4.95111E1,-2.8227313E2,6.69718E2,5.335793E2,3.2411023E2,2.4239095E2,-1.7627568E2,-1.0511897E3,6.376425E2,1.4259297E2,-8.4256464E2,-4.1740763E-1,1.8748889E2,-4.721331E2,3.343573E1,-4.0576942E1,-1.062268E3,-2.14286E2,1.465075E3,-4.943168E2,-1.0249382E3,3.3125476E2,8.2034503E2,-2.2418518E3,1.084393E3,1.2069824E3,1.255203E1],"categories":[],"categories_nodes":[],"categories_segments":[],"categories_sizes":[],"default_left":[true,true,true,true,true,true,true,true,true,true,true,true,true,true,true,true,true,true,true,true,true,true,true,true,true,false,true,true,false,true,true,false,false,false,false,false,false,false,false,false,false,false,false,false,false,false,false,false,false,false,false,false,false,false,false,false,false,false,false],"id":41,"left_children":[1,3,5,7,9,11,13,15,17,19,21,23,25,27,29,31,33,35,37,39,41,43,45,47,49,-1,51,53,-1,55,57,-1,-1,-1,-1,-1,-1,-1,-1,-1,-1,-1,-1,-1,-1,-1,-1,-1,-1,-1,-1,-1,-1,-1,-1,-1,-1,-1,-1],"loss_changes":[9.280936E6,1.769724E7,2.9907178E7,2.2381184E7,1.4560908E7,2.269847E7,2.6197124E7,2.5924762E6,1.4314296E7,1.050422E7,1.1370645E7,1.5554857E7,1.816556E6,2.477068E6,1.4717838E7,2.4211962E5,6.9755645E6,4.848656E6,4.5363265E6,1.9812614E7,4.9913575E6,8.6061E6,1.0815038E7,8.1725845E6,1.851872E7,0E0,2.434518E6,4.93452E5,0E0,3.895969E7,1.7490298E7,0E0,0E0,0E0,0E0,0E0,0E0,0E0,0E0,0E0,0E0,0E0,0E0,0E0,0E0,0E0,0E0,0E0,0E0,0E0,0E0,0E0,0E0,0E0,0E0,0E0,0E0,0E0,0E0],"parents":[2147483647,0,0,1,1,2,2,3,3,4,4,5,5,6,6,7,7,8,8,9,9,10,10,11,11,12,12,13,13,14,14,15,15,16,16,17,17,18,18,19,19,20,20,21,21,22,22,23,23,24,24,26,26,27,27,29,29,30,30],"right_children":[2,4,6,8,10,12,14,16,18,20,22,24,26,28,30,32,34,36,38,40,42,44,46,48,50,-1,52,54,-1,56,58,-1,-1,-1,-1,-1,-1,-1,-1,-1,-1,-1,-1,-1,-1,-1,-1,-1,-1,-1,-1,-1,-1,-1,-1,-1,-1,-1,-1],"split_conditions":[5E-1,1.25E1,8.5E0,3.5E0,1.35E1,4.5E0,1.15E1,5E-1,5E-1,5E-1,2.85E1,2.5E0,5.5E0,9.5E0,1.25E1,2.5E0,5E-1,6.5E0,6.5E0,5E-1,5E-1,1.95E1,2.95E1,5E-1,5E-1,-1.2178118E2,7.5E0,5E-1,1.2627361E2,5E-1,1.35E1,-1.2931342E1,-4.9511104E0,-2.8227314E1,6.69718E1,5.335793E1,3.2411022E1,2.4239096E1,-1.762757E1,-1.0511897E2,6.376425E1,1.4259297E1,-8.425646E1,-4.1740764E-2,1.874889E1,-4.721331E1,3.343573E0,-4.0576944E0,-1.062268E2,-2.14286E1,1.4650749E2,-4.9431683E1,-1.0249383E2,3.3125477E1,8.203451E1,-2.2418518E2,1.0843929E2,1.2069824E2,1.255203E0],"split_indices":[9,1,1,1,1,1,1,10,10,4,1,1,1,1,1,1,4,1,1,10,10,1,1,4,4,0,1,4,0,4,1,0,0,0,0,0,0,0,0,0,0,0,0,0,0,0,0,0,0,0,0,0,0,0,0,0,0,0,0],"split_type":[0,0,0,0,0,0,0,0,0,0,0,0,0,0,0,0,0,0,0,0,0,0,0,0,0,0,0,0,0,0,0,0,0,0,0,0,0,0,0,0,0,0,0,0,0,0,0,0,0,0,0,0,0,0,0,0,0,0,0],"sum_hessian":[2.48E3,2.096E3,3.84E2,8.26E2,1.27E3,1.14E2,2.7E2,2.04E2,6.22E2,8.1E1,1.189E3,5.6E1,5.8E1,2.9E1,2.41E2,1.75E2,2.9E1,5.16E2,1.06E2,4.1E1,4E1,1.012E3,1.77E2,3.1E1,2.5E1,1.7E1,4.1E1,1.2E1,1.7E1,1.3E1,2.28E2,1.15E2,6E1,1.4E1,1.5E1,1.69E2,3.47E2,4.2E1,6.4E1,3.3E1,8E0,3.5E1,5E0,4.08E2,6.04E2,6.8E1,1.09E2,1.8E1,1.3E1,1.4E1,1.1E1,2.2E1,1.9E1,7E0,5E0,8E0,5E0,1.2E1,2.16E2],"tree_param":{"num_deleted":"0","num_feature":"16","num_nodes":"59","size_leaf_vector":"0"}},{"base_weights":[8.17265E1,8.981331E1,-3.1305054E2,-8.093017E1,1.08722374E2,-9.0635944E2,1.8513359E2,-2.8408928E1,-3.0502313E2,5.0027072E2,9.2281586E1,-6.999729E2,-2.7184316E3,-3.8231952E2,1.4266812E3,1.0437683E2,-1.570683E2,-7.5075745E2,1.3443158E2,1.532626E2,2.322795E3,1.7252895E2,5.601672E1,-5.170864E2,-1.0998225E3,2.4257974E2,-3.314396E2,-2.5702167E2,2.8731052E2,2.3712598E2,-1.2941038E3,1.0436664E3,-4.305499E2,1.5625174E2,3.926921E3,3.527961E1,3.1476807E2,-1.7311946E2,8.781506E1],"categories":[],"categories_nodes":[],"categories_segments":[],"categories_sizes":[],"default_left":[true,true,true,true,true,true,true,true,true,true,true,true,false,false,false,true,true,true,false,true,true,true,true,false,false,false,false,false,false,false,false,false,false,false,false,false,false,false,false],"id":42,"left_children":[1,3,5,7,9,11,13,15,17,19,21,23,-1,-1,-1,25,27,29,-1,31,33,35,37,-1,-1,-1,-1,-1,-1,-1,-1,-1,-1,-1,-1,-1,-1,-1,-1],"loss_changes":[7.946446E6,7.861032E6,1.4953864E7,2.848023E6,1.4045736E7,6.664696E6,2.0282454E7,3.3995792E6,9.117571E6,5.5273136E7,6.108116E6,1.023924E6,0E0,0E0,0E0,5.98216E6,4.559675E6,1.2662978E7,0E0,3.9442644E7,4.8001296E7,1.275293E7,1.0579268E7,0E0,0E0,0E0,0E0,0E0,0E0,0E0,0E0,0E0,0E0,0E0,0E0,0E0,0E0,0E0,0E0],"parents":[2147483647,0,0,1,1,2,2,3,3,4,4,5,5,6,6,7,7,8,8,9,9,10,10,11,11,15,15,16,16,17,17,19,19,20,20,21,21,22,22],"right_children":[2,4,6,8,10,12,14,16,18,20,22,24,-1,-1,-1,26,28,30,-1,32,34,36,38,-1,-1,-1,-1,-1,-1,-1,-1,-1,-1,-1,-1,-1,-1,-1,-1],"split_conditions":[3.05E1,3.5E0,5E-1,5E-1,4.5E0,5E-1,5E-1,5E-1,5E-1,5E-1,1.25E1,5E-1,-2.7184317E2,-3.8231953E1,1.4266812E2,5E-1,5E-1,1.5E0,1.3443158E1,5E-1,5E-1,8.5E0,1.45E1,-5.1708645E1,-1.09982254E2,2.4257975E1,-3.3143963E1,-2.5702168E1,2.8731052E1,2.3712599E1,-1.2941039E2,1.0436664E2,-4.305499E1,1.56251745E1,3.926921E2,3.527961E0,3.1476807E1,-1.7311947E1,8.781507E0],"split_indices":[1,1,5,8,1,6,8,5,5,6,1,8,0,0,0,6,6,1,0,5,5,1,1,0,0,0,0,0,0,0,0,0,0,0,0,0,0,0,0],"split_type":[0,0,0,0,0,0,0,0,0,0,0,0,0,0,0,0,0,0,0,0,0,0,0,0,0,0,0,0,0,0,0,0,0,0,0,0,0,0,0],"sum_hessian":[2.48E3,2.431E3,4.9E1,2.42E2,2.189E3,2.2E1,2.7E1,1.97E2,4.5E1,8.7E1,2.102E3,2.1E1,1E0,1.9E1,8E0,9.7E1,1E2,2.2E1,2.3E1,7.4E1,1.3E1,6.53E2,1.449E3,1.6E1,5E0,7.4E1,2.3E1,8.2E1,1.8E1,8E0,1.4E1,2.9E1,4.5E1,6E0,7E0,3.33E2,3.2E2,1.76E2,1.273E3],"tree_param":{"num_deleted":"0","num_feature":"16","num_nodes":"39","size_leaf_vector":"0"}},{"base_weights":[7.358193E1,9.91944E1,-4.158816E1,6.665802E1,3.4739075E2,7.4258545E1,-3.898739E2,1.12850975E2,-6.202355E1,1.8673874E2,1.1750671E3,-1.3945102E2,2.056234E2,-4.441545E2,-5.66333E1,6.66757E1,3.489305E2,6.133949E1,-6.370984E2,8.773947E1,2.4131519E2,1.5023834E3,1.0041548E3,-4.6294847E0,-6.3006415E2,3.556426E1,1.1215314E3,-5.312861E2,-3.1672173E1,7.053074E2,-1.2473068E3,-7.9111015E1,2.1183493E2,6.5311804E2,-6.805182E1,2.4978824E2,-5.736751E2,-1.2723555E3,-5.80454E1,-1.9478328E2,6.985394E2,3.2936703E2,9.312853E0,1.1169167E3,2.673525E3,1.2558695E3,5.000621E2,1.8831999E2,-6.8438074E2,-5.138358E1,-1.1274951E3,2.2361125E2,-1.0309822E3,3.89057E2,1.7097568E3,-3.2987006E2,-8.5565045E2,-7.046957E2,3.5650105E3],"categories":[],"categories_nodes":[],"categories_segments":[],"categories_sizes":[],"default_left":[true,true,true,true,true,true,true,true,true,true,true,true,true,true,true,true,true,true,true,true,true,true,true,true,true,true,true,true,true,false,false,false,false,false,false,false,false,false,false,false,false,false,false,false,false,false,false,false,false,false,false,false,false,false,false,false,false,false,false],"id":43,"left_children":[1,3,5,7,9,11,13,15,17,19,21,23,25,27,29,31,33,35,37,39,41,43,45,47,49,51,53,55,57,-1,-1,-1,-1,-1,-1,-1,-1,-1,-1,-1,-1,-1,-1,-1,-1,-1,-1,-1,-1,-1,-1,-1,-1,-1,-1,-1,-1,-1,-1],"loss_changes":[7.32313E6,1.6365786E7,1.8269292E7,1.0683258E7,3.1014396E7,9.574471E6,2.013838E6,1.438375E7,3.3742748E7,1.045336E6,5.9212E5,8.589616E6,3.2813592E7,3.463746E6,1.6307937E7,2.344474E7,2.7447916E7,4.70498E7,3.0812036E7,1.2565772E7,2.5879315E6,1.941786E6,2.90728E6,1.3643081E7,7.990178E6,3.6122856E7,1.35322E7,4.932468E6,4.6055376E7,0E0,0E0,0E0,0E0,0E0,0E0,0E0,0E0,0E0,0E0,0E0,0E0,0E0,0E0,0E0,0E0,0E0,0E0,0E0,0E0,0E0,0E0,0E0,0E0,0E0,0E0,0E0,0E0,0E0,0E0],"parents":[2147483647,0,0,1,1,2,2,3,3,4,4,5,5,6,6,7,7,8,8,9,9,10,10,11,11,12,12,13,13,14,14,15,15,16,16,17,17,18,18,19,19,20,20,21,21,22,22,23,23,24,24,25,25,26,26,27,27,28,28],"right_children":[2,4,6,8,10,12,14,16,18,20,22,24,26,28,30,32,34,36,38,40,42,44,46,48,50,52,54,56,58,-1,-1,-1,-1,-1,-1,-1,-1,-1,-1,-1,-1,-1,-1,-1,-1,-1,-1,-1,-1,-1,-1,-1,-1,-1,-1,-1,-1,-1,-1],"split_conditions":[2.55E1,2.25E1,5E-1,1.65E1,5E-1,2.75E1,3.05E1,5E-1,5E-1,2.35E1,2.35E1,5E-1,5E-1,5E-1,5E-1,8.5E0,9.5E0,5E-1,1.95E1,5E-1,5E-1,5E-1,5E-1,5E-1,2.65E1,3.05E1,2.95E1,2.85E1,2.95E1,7.053074E1,-1.24730675E2,-7.911102E0,2.1183493E1,6.5311806E1,-6.805182E0,2.4978825E1,-5.736751E1,-1.2723555E2,-5.80454E0,-1.9478329E1,6.985394E1,3.2936703E1,9.312853E-1,1.1169167E2,2.673525E2,1.2558695E2,5.000621E1,1.8831999E1,-6.843807E1,-5.138358E0,-1.1274951E2,2.2361126E1,-1.0309822E2,3.89057E1,1.709757E2,-3.2987007E1,-8.556505E1,-7.046957E1,3.5650107E2],"split_indices":[1,1,14,1,6,1,1,6,6,1,1,8,8,8,8,1,1,14,1,14,14,14,14,6,1,1,1,1,1,0,0,0,0,0,0,0,0,0,0,0,0,0,0,0,0,0,0,0,0,0,0,0,0,0,0,0,0,0,0],"split_type":[0,0,0,0,0,0,0,0,0,0,0,0,0,0,0,0,0,0,0,0,0,0,0,0,0,0,0,0,0,0,0,0,0,0,0,0,0,0,0,0,0,0,0,0,0,0,0,0,0,0,0,0,0,0,0,0,0,0,0],"sum_hessian":[2.48E3,2.029E3,4.51E2,1.795E3,2.34E2,3.39E2,1.12E2,1.321E3,4.74E2,1.97E2,3.7E1,1.29E2,2.1E2,9.6E1,1.6E1,1.106E3,2.15E2,3.91E2,8.3E1,7.1E1,1.26E2,1E1,2.7E1,1.02E2,2.7E1,1.78E2,3.2E1,7.9E1,1.7E1,1E1,6E0,5.52E2,5.54E2,1.24E2,9.1E1,3.02E2,8.9E1,3.9E1,4.4E1,4.9E1,2.2E1,9.1E1,3.5E1,9E0,1E0,1.7E1,1E1,8E1,2.2E1,1.3E1,1.4E1,1.52E2,2.6E1,1.5E1,1.7E1,5E1,2.9E1,1.5E1,2E0],"tree_param":{"num_deleted":"0","num_feature":"16","num_nodes":"59","size_leaf_vector":"0"}},{"base_weights":[6.647405E1,6.2973274E1,1.785466E3,7.371886E1,-6.4737646E2,2.945512E3,2.6931152E1,5.9551037E1,1.1381166E3,-3.7724248E3,-1.539638E2,5.099651E2,-4.6456836E2,6.936671E1,-1.6245709E3,4.1547417E3,6.824401E2,3.7058801E3,-5.228531E2,5.7551674E1,1.8233694E3,-2.075808E3,-6.7528656E2,-2.6506418E3,1.0278773E3,-1.7341611E3,-2.569544E1],"categories":[],"categories_nodes":[],"categories_segments":[],"categories_sizes":[],"default_left":[true,true,true,true,true,false,true,true,true,false,true,false,false,true,true,false,true,false,true,false,false,false,false,false,false,false,false],"id":44,"left_children":[1,3,5,7,9,-1,11,13,15,-1,17,-1,-1,19,21,-1,23,-1,25,-1,-1,-1,-1,-1,-1,-1,-1],"loss_changes":[1.4799273E7,1.894923E7,1.0090857E7,3.6731004E7,5.6431652E7,0E0,9.4960044E5,3.993632E7,4.1103624E7,0E0,4.8893016E7,0E0,0E0,4.9550724E7,4.567656E6,0E0,3.6098056E7,0E0,1.8606386E7,0E0,0E0,0E0,0E0,0E0,0E0,0E0,0E0],"parents":[2147483647,0,0,1,1,2,2,3,3,4,4,6,6,7,7,8,8,10,10,13,13,14,14,16,16,18,18],"right_children":[2,4,6,8,10,-1,12,14,16,-1,18,-1,-1,20,22,-1,24,-1,26,-1,-1,-1,-1,-1,-1,-1,-1],"split_conditions":[1.03345E2,1.0141E2,5E-1,1.00095E2,1.01619995E2,2.945512E2,1.03395004E2,9.9635E1,1.00354996E2,-3.772425E2,1.017E2,5.099651E1,-4.6456837E1,9.913E1,9.989E1,4.1547418E2,1.00395004E2,3.70588E2,1.01990005E2,5.7551675E0,1.8233694E2,-2.0758081E2,-6.7528656E1,-2.6506418E2,1.02787735E2,-1.7341612E2,-2.569544E0],"split_indices":[0,0,4,0,0,0,0,0,0,0,0,0,0,0,0,0,0,0,0,0,0,0,0,0,0,0,0],"split_type":[0,0,0,0,0,0,0,0,0,0,0,0,0,0,0,0,0,0,0,0,0,0,0,0,0,0,0],"sum_hessian":[2.48E3,2.476E3,4E0,2.44E3,3.6E1,2E0,2E0,2.409E3,3.1E1,4E0,3.2E1,1E0,1E0,2.396E3,1.3E1,3E0,2.8E1,2E0,3E1,2.381E3,1.5E1,8E0,5E0,2E0,2.6E1,8E0,2.2E1],"tree_param":{"num_deleted":"0","num_feature":"16","num_nodes":"27","size_leaf_vector":"0"}},{"base_weights":[5.9939972E1,9.143601E1,-1.2645566E2,6.4118365E2,3.9242706E1,-3.6225933E1,-1.8332396E3,7.3622516E2,3.7154807E2,-3.6544223E2,8.211573E1,-2.8886288E2,6.8507764E2,-4.0855063E2,-2.9311357E3,5.668437E2,9.206477E2,8.92478E2,-2.2956262E2,-6.381476E2,4.0983896E2,1.5816927E2,-3.0296352E1,-1.1034013E2,-4.4783597E2,1.0275209E3,1.0908896E1,-8.362008E2,1.5013254E3,-3.0555438E2,-1.1343236E3,8.2490576E2,4.07139E1,-2.1919989E1,3.3256378E2,-1.7175247E2,1.299116E2,-4.0394183E2,-5.406387E2,3.6161093E2,1.7515065E3,1.940583E2,-3.921107E2,2.2401672E2,-1.5191346E3],"categories":[],"categories_nodes":[],"categories_segments":[],"categories_sizes":[],"default_left":[true,true,true,true,true,true,true,true,true,true,true,true,true,true,false,false,false,false,false,true,true,true,true,false,true,true,true,true,false,false,false,false,false,false,false,false,false,false,false,false,false,false,false,false,false],"id":45,"left_children":[1,3,5,7,9,11,13,15,17,19,21,23,25,27,-1,-1,-1,-1,-1,29,31,33,35,-1,37,39,41,43,-1,-1,-1,-1,-1,-1,-1,-1,-1,-1,-1,-1,-1,-1,-1,-1,-1],"loss_changes":[1.4576479E7,6.088359E7,5.5201844E7,4.430664E6,3.3686308E7,6.2515884E7,2.692398E7,3.68036E6,1.5868336E7,3.958855E7,1.5010157E7,7.153604E6,2.0525352E7,8.599588E6,0E0,0E0,0E0,0E0,0E0,2.241242E7,7.465126E6,3.2893084E7,1.609037E7,0E0,3.18016E5,2.7789952E7,2.3623088E6,6.1457305E6,0E0,0E0,0E0,0E0,0E0,0E0,0E0,0E0,0E0,0E0,0E0,0E0,0E0,0E0,0E0,0E0,0E0],"parents":[2147483647,0,0,1,1,2,2,3,3,4,4,5,5,6,6,7,7,8,8,9,9,10,10,11,11,12,12,13,13,19,19,20,20,21,21,22,22,24,24,25,25,26,26,27,27],"right_children":[2,4,6,8,10,12,14,16,18,20,22,24,26,28,-1,-1,-1,-1,-1,30,32,34,36,-1,38,40,42,44,-1,-1,-1,-1,-1,-1,-1,-1,-1,-1,-1,-1,-1,-1,-1,-1,-1],"split_conditions":[2.0205E3,1.5E0,2.5E0,5E-1,2.5E0,1.5E0,5E-1,5E-1,5E-1,5E-1,8.5E0,5E-1,5E-1,1E1,-2.931136E2,5.668437E1,9.206477E1,8.92478E1,-2.2956263E1,5E-1,5E-1,5E-1,1.05E1,-1.1034014E1,5E-1,5E-1,5E-1,6E0,1.5013255E2,-3.0555439E1,-1.13432365E2,8.249058E1,4.07139E0,-2.191999E0,3.325638E1,